3.199508413672447205e-03,4.592728801071643829e-03,1.509875059127807617e-03,3.553632646799087524e-03,1.493018469773232937e-03,1.873016706667840481e-03,2.966324798762798309e-03,2.348183654248714447e-03,3.766915528103709221e-03,8.439510129392147064e-04,1.556572737172245979e-03,-3.058777423575520515e-03,3.392214886844158173e-03,3.070970764383673668e-03,2.785266609862446785e-03,1.639192574657499790e-03,1.970737008377909660e-03,1.864585065050050616e-04,4.576235078275203705e-03,2.744428114965558052e-03,3.417826956138014793e-03,2.543341601267457008e-03,2.826363313943147659e-03,2.229311969131231308e-03,3.793356707319617271e-03,1.016030320897698402e-03,6.136565934866666794e-04,1.412325655110180378e-03,3.629044862464070320e-03,2.731478307396173477e-03,2.077944111078977585e-03,5.151641555130481720e-03,6.337185855954885483e-03,3.856589552015066147e-03,2.403694437816739082e-03,5.538505502045154572e-03,9.900765493512153625e-03,1.852453919127583504e-03,2.336515812203288078e-03,4.215675871819257736e-03,6.651544477790594101e-03,3.717663232237100601e-03,2.351031638681888580e-03,4.482400137931108475e-03,7.925128564238548279e-03,6.449261563830077648e-04,5.313318106345832348e-04,3.407305805012583733e-03,3.133756574243307114e-03,2.262197900563478470e-03,3.047218546271324158e-03,5.275410367175936699e-04,4.812892526388168335e-03,2.944517182186245918e-03,5.255574826151132584e-03,4.711507819592952728e-03,1.682143541984260082e-03,4.322925233282148838e-04,3.462766064330935478e-03,9.231433505192399025e-04,2.989201573655009270e-03,2.048909664154052734e-03,1.127522904425859451e-03,3.419350832700729370e-03,-1.124021015129983425e-03,-1.654185471124947071e-03,1.237141527235507965e-02,2.653642441146075726e-04,-2.381394151598215103e-03,4.947463050484657288e-03,1.597628463059663773e-03,-5.618433002382516861e-03,2.703069476410746574e-04,6.047888193279504776e-03,2.062902785837650299e-03,-7.252173498272895813e-03,-7.875297218561172485e-03,8.497345261275768280e-03,6.475156405940651894e-04,5.765928421169519424e-03,-3.048139857128262520e-03,1.218940713442862034e-03,6.773807108402252197e-03,-1.246936037205159664e-03,1.151352116721682250e-04,-3.027906874194741249e-03,6.805914454162120819e-03,-3.047439036890864372e-03,-7.067013997584581375e-03,2.599459839984774590e-03,-6.625926587730646133e-03,4.848248790949583054e-03,-3.035709494724869728e-03,5.728689138777554035e-04,-1.147890184074640274e-02,-6.510498933494091034e-04,-1.338692009449005127e-02,4.419839475303888321e-03,-2.625908004119992256e-03,-6.573203951120376587e-03,-2.232130849733948708e-03,-5.683582741767168045e-03,3.243933431804180145e-03,-1.130274613387882710e-03,2.113891765475273132e-02,9.094070643186569214e-03,-4.475870635360479355e-03,8.466429426334798336e-05,2.512585930526256561e-02,-8.249716833233833313e-03,2.374208066612482071e-03,-5.293734837323427200e-03,4.675558302551507950e-03,-1.149921794421970844e-03,2.724862191826105118e-03,5.322678945958614349e-03,3.711094614118337631e-03,-2.435881178826093674e-03,-6.580174900591373444e-03,-5.839786026626825333e-03,5.773939657956361771e-03,-4.608621820807456970e-03,1.922283321619033813e-03,-2.488284371793270111e-03,-1.061847433447837830e-03,1.062387949787080288e-03,-1.412058132700622082e-03,4.030220676213502884e-03,6.635783240199089050e-03,6.263126619160175323e-03,4.821559879928827286e-03,5.660674534738063812e-03,3.191109979525208473e-03,2.380992518737912178e-03,3.680354915559291840e-03,1.352047314867377281e-03,5.841317586600780487e-03,1.420906744897365570e-03,1.280159922316670418e-03,4.017023835331201553e-03,4.699252545833587646e-03,7.312314119189977646e-03,3.517863340675830841e-03,3.502335166558623314e-03,2.165092155337333679e-03,2.667422639206051826e-03,2.341846935451030731e-03,4.435772541910409927e-03,5.429159849882125854e-03,3.979234956204891205e-03,6.790520157665014267e-03,3.224659943953156471e-03,7.326257880777120590e-03,1.153062912635505199e-03,7.999249501153826714e-04,4.029034171253442764e-03,4.620282445102930069e-03,4.686250817030668259e-03,2.727824728935956955e-03,7.214345037937164307e-03,6.455556955188512802e-03,3.997692372649908066e-03,6.198925897479057312e-03,5.735159851610660553e-03,7.778272032737731934e-03,1.048650592565536499e-02,5.573856178671121597e-03,3.662179457023739815e-03,5.498214624822139740e-03,9.394288063049316406e-03,3.613148117437958717e-03,1.032777316868305206e-02,6.672925781458616257e-03,6.327599287033081055e-03,1.359729794785380363e-03,3.499784506857395172e-03,6.339316256344318390e-03,2.932692179456353188e-03,3.998129628598690033e-03,2.867965959012508392e-03,7.837679237127304077e-03,6.332530174404382706e-03,6.360272411257028580e-03,5.664912052452564240e-03,2.230586949735879898e-03,2.833650913089513779e-03,5.517847370356321335e-03,1.432636403478682041e-03,1.646987511776387691e-03,2.253415528684854507e-03,3.357620909810066223e-03,3.704101778566837311e-03,6.534514948725700378e-03,9.243294596672058105e-03,8.087839931249618530e-03,6.313038524240255356e-03,5.883379373699426651e-03,2.220133086666464806e-03,4.288013558834791183e-03,3.460975829511880875e-03,6.763593759387731552e-03,1.946354983374476433e-03,1.208688016049563885e-03,8.572153747081756592e-03,8.185265585780143738e-03,7.436268962919712067e-03,4.933766089379787445e-03,5.284097511321306229e-03,5.746776238083839417e-03,3.809061832726001740e-03,8.300590328872203827e-03,7.693381048738956451e-03,6.050248630344867706e-03,4.594255238771438599e-03,8.630678988993167877e-03,5.876363255083560944e-03,7.385118398815393448e-03,9.624129743315279484e-04,1.329525141045451164e-03,7.443909533321857452e-03,5.344601813703775406e-03,6.830275524407625198e-03,5.993975326418876648e-03,8.448796346783638000e-03,1.032723579555749893e-02,1.078510191291570663e-02,9.191258810460567474e-03,6.500585004687309265e-03,4.985423758625984192e-03,9.501182474195957184e-03,6.343217100948095322e-03,4.897197242826223373e-03,9.177373722195625305e-03,7.350713014602661133e-03,5.074191838502883911e-03,1.863356679677963257e-02,1.367762405425310135e-02,6.015256512910127640e-03,1.920012873597443104e-03,8.947022259235382080e-03,5.739084444940090179e-03,6.015527993440628052e-03,6.904102861881256104e-03,5.947971250861883163e-03,8.380551822483539581e-03,2.007301338016986847e-02,6.573413964360952377e-03,8.709681220352649689e-03,5.490508861839771271e-03,5.903541576117277145e-03,6.797084119170904160e-03,1.685342867858707905e-03,4.412030801177024841e-03,1.717725885100662708e-03,5.751063581556081772e-03,4.724005702883005142e-03
7.208494353108108044e-04,4.630009352695196867e-04,8.080169791355729103e-04,1.661669084569439292e-04,3.236048214603215456e-04,8.862727554515004158e-05,5.490643088705837727e-04,-1.205461914651095867e-03,-4.399015233502723277e-05,-3.424488568271044642e-07,1.398634776705875993e-04,-6.114852731116116047e-04,6.653653108514845371e-04,7.287393236765637994e-05,3.373544604983180761e-04,-4.119725781492888927e-04,1.728653151076287031e-04,1.691759389359503984e-04,-1.049684709869325161e-03,2.014086057897657156e-04,1.667466276558116078e-04,1.963415706995874643e-04,5.577438278123736382e-04,1.515409967396408319e-04,3.409745113458484411e-04,-5.275584771879948676e-05,-5.065667937742546201e-05,-4.191142797935754061e-04,-2.372228045715019107e-04,4.110229783691465855e-04,-6.319234380498528481e-04,2.506669552531093359e-04,5.465227295644581318e-04,-1.074728206731379032e-03,1.334490487352013588e-03,-2.403536054771393538e-04,2.721308264881372452e-04,7.426923839375376701e-04,1.860042902990244329e-05,1.898411137517541647e-04,4.472798900678753853e-04,8.922126144170761108e-04,-1.556713104946538806e-04,8.693332783877849579e-04,-5.661624600179493427e-04,5.374773172661662102e-04,1.872974971774965525e-04,4.981683450751006603e-04,6.619874620810151100e-04,1.385411305818706751e-04,-2.387995846220292151e-05,2.647072506078984588e-05,7.496596663258969784e-04,-4.132510803174227476e-04,7.105221739038825035e-04,3.245193220209330320e-04,1.378691522404551506e-04,3.768171300180256367e-04,-6.889702490298077464e-05,6.800217670388519764e-05,8.585907053202390671e-04,1.478260965086519718e-04,5.018136580474674702e-04,4.641113337129354477e-04,2.348682843148708344e-02,-2.529342891648411751e-03,7.908680476248264313e-03,-1.020694803446531296e-02,-1.782784936949610710e-03,2.423596801236271858e-03,-9.917898569256067276e-04,-8.588916622102260590e-03,-7.902356446720659733e-04,-3.882982418872416019e-04,1.058363268384709954e-04,5.184143781661987305e-03,-7.113754749298095703e-03,3.600043477490544319e-03,-7.707825396209955215e-03,7.635449990630149841e-03,-2.189933322370052338e-03,1.401511672884225845e-02,2.438564971089363098e-02,-2.442069584503769875e-03,3.274878254160284996e-03,-9.683055803179740906e-03,7.952256128191947937e-03,-2.780209993943572044e-03,-6.101156119257211685e-03,5.697947344742715359e-04,-4.164893180131912231e-03,-2.584329620003700256e-02,-4.945921245962381363e-04,-1.705289632081985474e-02,-3.415828803554177284e-03,2.618103520944714546e-03,-2.744494122453033924e-04,-7.941079325973987579e-03,-8.064398542046546936e-03,4.970612935721874237e-03,4.095587413758039474e-03,1.028594328090548515e-03,2.233681827783584595e-02,-4.549424163997173309e-03,1.271606329828500748e-02,5.283067002892494202e-03,-2.453269262332469225e-04,5.225263070315122604e-03,6.093384232372045517e-03,-1.970128342509269714e-02,2.396034542471170425e-03,1.227787509560585022e-02,1.659671659581363201e-03,-3.007729246746748686e-04,-7.714753039181232452e-03,1.321414834819734097e-03,-5.736729130148887634e-03,-1.775461807847023010e-02,-1.239618577528744936e-04,-1.017440110445022583e-02,1.256212010048329830e-03,-6.515445187687873840e-03,-2.240905165672302246e-02,5.139898974448442459e-03,6.561949267052114010e-04,2.503717318177223206e-03,1.134762169385794550e-05,3.196269099134951830e-04,1.954422332346439362e-03,1.483524451032280922e-03,1.268211286514997482e-03,9.167738026008009911e-04,6.510540260933339596e-04,2.563092275522649288e-04,1.453254953958094120e-03,-1.667469972744584084e-03,3.064465417992323637e-04,1.649119440116919577e-06,-3.881797965732403100e-05,4.183774814009666443e-03,1.721547101624310017e-03,8.305879309773445129e-04,7.199944229796528816e-04,-7.473140722140669823e-04,1.236475218320265412e-04,2.052021591225638986e-04,-2.084716688841581345e-03,3.607479447964578867e-04,4.491871513891965151e-04,1.810243702493607998e-04,1.755061908625066280e-03,2.653990231920033693e-04,8.259604510385543108e-05,-2.409604785498231649e-04,1.495884353062137961e-04,2.109412307618185878e-04,-5.043153068982064724e-04,9.690544102340936661e-04,-1.377704669721424580e-03,5.563368322327733040e-04,1.424863701686263084e-03,-1.251676701940596104e-03,2.955735428258776665e-03,-8.301084162667393684e-04,1.306720223510637879e-04,3.849562257528305054e-03,9.027952328324317932e-04,4.533861938398331404e-04,1.262204837985336781e-03,3.077972680330276489e-03,2.302718930877745152e-04,3.194951917976140976e-03,-1.135550788603723049e-03,-3.897245507687330246e-03,2.894345925597008318e-06,1.273904344998300076e-03,6.131142145022749901e-04,-1.762403699103742838e-04,1.367253134958446026e-04,5.139494314789772034e-04,2.486704615876078606e-04,-1.147628645412623882e-04,4.737892304547131062e-04,1.148040988482534885e-03,5.080214468762278557e-04,1.121209352277219296e-03,3.780744737014174461e-04,2.290145494043827057e-04,-3.000867436639964581e-04,4.449799016583710909e-04,1.586495549418032169e-03,1.521910598967224360e-04,2.736221067607402802e-03,2.541508059948682785e-03,1.509768422693014145e-03,4.923301166854798794e-04,1.027811667881906033e-03,-1.638854009797796607e-04,1.641881186515092850e-03,-1.446103095076978207e-03,6.138271419331431389e-04,-2.135780960088595748e-05,-1.366137439617887139e-04,1.549924025312066078e-03,3.491714363917708397e-03,1.174522098153829575e-03,1.195523305796086788e-03,-1.112985657528042793e-03,8.970555500127375126e-04,5.030390457250177860e-04,-1.459978520870208740e-03,1.230470254085958004e-03,7.625607540830969810e-04,4.379446909297257662e-04,3.036454552784562111e-03,7.073850138112902641e-04,3.482621104922145605e-04,-1.626374723855406046e-04,1.193264979519881308e-04,1.082237344235181808e-03,-6.159128970466554165e-04,1.334103406406939030e-03,4.763592733070254326e-04,7.490703137591481209e-04,4.941637162119150162e-03,-1.329119899310171604e-03,5.267598666250705719e-03,-1.117876148782670498e-03,1.361502101644873619e-03,2.841772278770804405e-03,1.260533346794545650e-03,3.990636323578655720e-04,5.274028051644563675e-03,4.019136074930429459e-03,2.954404335469007492e-04,8.172276429831981659e-04,-3.195301687810570002e-04,2.662669634446501732e-03,7.480975909857079387e-05,1.647641533054411411e-03,7.073276210576295853e-04,1.033952939906157553e-04,8.596269763074815273e-04,1.219279016368091106e-03,5.189827643334865570e-04,8.361684158444404602e-03,6.899615982547402382e-04,9.280440863221883774e-04,2.059363061562180519e-03,1.589963096193969250e-03,9.446872863918542862e-04,1.396268053213134408e-04,-3.292190958745777607e-04,4.485906101763248444e-04,2.344937995076179504e-03,3.549903049133718014e-04
-9.287970024161040783e-04,-1.388278440572321415e-03,-1.824909006245434284e-03,-1.374076702632009983e-03,-2.377995406277477741e-04,-4.630383627954870462e-04,-6.798633257858455181e-04,-6.052842945791780949e-04,-1.302140066400170326e-03,-2.164927573176100850e-04,4.225625016260892153e-04,-2.320099447388201952e-04,-1.582532888278365135e-03,-1.190109178423881531e-03,-4.698408301919698715e-04,-6.025201291777193546e-04,-4.943596286466345191e-05,-5.596915725618600845e-04,-1.863316632807254791e-03,-7.706008618697524071e-04,-1.012370572425425053e-03,-4.709413624368607998e-04,-8.859908557496964931e-04,-4.678430850617587566e-04,-9.215128375217318535e-04,1.791219838196411729e-04,4.149606684222817421e-04,-3.806943132076412439e-04,-1.725418493151664734e-03,-9.912928799167275429e-04,-5.479434039443731308e-04,-9.120291215367615223e-04,-1.824916922487318516e-03,-8.362415828742086887e-04,-8.192767854779958725e-04,-8.119721314869821072e-04,-1.206778339110314846e-03,-7.503807428292930126e-04,-1.197998877614736557e-03,-6.822609575465321541e-04,-1.886822516098618507e-03,-2.260491950437426567e-03,-1.076177926734089851e-03,-3.076086286455392838e-03,-1.654995023272931576e-03,-3.213933669030666351e-04,1.495477044954895973e-04,-1.295562717132270336e-03,-8.345333626493811607e-04,-6.174159934744238853e-04,-1.078513334505259991e-03,9.637813491281121969e-05,-1.388517441228032112e-03,-1.499530742876231670e-03,-8.728048996999859810e-04,-1.451244112104177475e-03,-4.635243385564535856e-04,2.899870451074093580e-04,-1.284176600165665150e-03,3.929939121007919312e-04,-8.046517032198607922e-04,-1.494233729317784309e-04,-4.357623402029275894e-04,-7.019406766630709171e-04,-6.847407785244286060e-04,1.337951980531215668e-02,1.329947542399168015e-02,1.911321538500487804e-03,1.361442380584776402e-03,9.376913658343255520e-04,-4.086877219378948212e-03,-1.790156215429306030e-02,-2.826906507834792137e-03,-3.224160056561231613e-03,1.454194571124389768e-04,1.758698746562004089e-02,-2.989316917955875397e-02,-4.081806167960166931e-03,-1.390784140676259995e-02,1.809531450271606445e-02,-1.120164711028337479e-02,-2.336008939892053604e-03,2.111043408513069153e-02,-3.494161367416381836e-02,8.481082506477832794e-03,2.994421171024441719e-03,-2.173919603228569031e-02,1.791088283061981201e-02,-9.522062609903514385e-04,7.269094348885118961e-04,9.814795339480042458e-05,4.825396928936243057e-03,-4.955530166625976562e-03,1.658510416746139526e-02,-1.618263870477676392e-02,-4.021533299237489700e-03,-9.784751571714878082e-03,-1.940829679369926453e-02,8.697196841239929199e-03,-2.990468870848417282e-03,-2.053109742701053619e-02,-7.766312453895807266e-03,-1.258062664419412613e-02,1.422354136593639851e-03,-1.310006994754076004e-02,-5.121848080307245255e-03,3.464511409401893616e-02,-8.947245660237967968e-04,4.028317518532276154e-03,-5.238804221153259277e-02,-4.820153582841157913e-03,-9.632896631956100464e-03,-3.333656582981348038e-03,-5.336896982043981552e-03,-1.651287637650966644e-02,8.863267488777637482e-03,-7.353432476520538330e-03,-3.038450377061963081e-03,2.490411279723048210e-03,2.098134905099868774e-02,-3.257870674133300781e-03,-2.696368144825100899e-03,7.581565063446760178e-03,-9.881478035822510719e-04,-3.368297126144170761e-03,-9.888781933113932610e-04,1.078880392014980316e-02,4.819458350539207458e-03,-1.360273687168955803e-03,-2.549967030063271523e-03,-2.968406770378351212e-03,-1.809466863051056862e-03,-1.480358769185841084e-04,-5.931851337663829327e-04,-9.168481337837874889e-04,-9.006177424453198910e-04,-2.261217217892408371e-03,-2.834607148543000221e-04,5.879181553609669209e-04,-4.804045427590608597e-03,-1.509531517513096333e-03,-1.020035007968544960e-03,-6.009160424582660198e-04,-8.254965650849044323e-04,-2.129812346538528800e-04,-1.119225984439253807e-03,-2.786660799756646156e-03,-8.115830714814364910e-04,-1.774100819602608681e-03,-9.324847487732768059e-04,-1.067451783455908298e-03,-6.178512703627347946e-04,-1.266514300368726254e-03,2.646378125064074993e-04,4.485426761675626040e-04,-9.419974521733820438e-04,-1.905498560518026352e-03,-1.910121995024383068e-03,-1.601854804903268814e-03,-1.229050219990313053e-03,-2.385133644565939903e-03,-2.779157366603612900e-03,-1.735065132379531860e-03,-1.259438111446797848e-03,-1.609082566574215889e-03,-1.686784089542925358e-03,-1.534791314043104649e-03,-9.850001661106944084e-04,-3.481490770354866982e-03,-1.985341077670454979e-03,-1.887839171104133129e-03,-6.391729228198528290e-03,-2.364846877753734589e-03,-8.008283912204205990e-04,4.187377635389566422e-04,-2.401748206466436386e-03,-5.412957980297505856e-04,-6.998238968662917614e-04,-8.614186663180589676e-04,8.255525608547031879e-05,-1.287663704715669155e-03,-2.571538323536515236e-03,-7.918229675851762295e-04,-2.505884738638997078e-03,-8.595226681791245937e-04,2.866502654796931893e-05,-2.477938774973154068e-03,4.715001559816300869e-04,-5.625420599244534969e-04,-1.946030533872544765e-04,-1.300710602663457394e-03,-8.069704636000096798e-04,-1.386195421218872070e-03,-4.570635966956615448e-03,-3.157433355227112770e-03,-1.707223593257367611e-03,7.653976354049518704e-05,-4.888400435447692871e-04,-1.053175656124949455e-03,-2.592567587271332741e-03,-2.490804996341466904e-03,-4.562461981549859047e-05,9.125585202127695084e-04,-8.106266148388385773e-03,-2.770340768620371819e-03,-2.035261131823062897e-03,-5.568158230744302273e-04,-1.509654568508267403e-03,-7.172974292188882828e-04,-1.465514535084366798e-03,-5.003487691283226013e-03,-1.484017120674252510e-03,-1.904384815134108067e-03,-9.336121147498488426e-04,-2.706213388592004776e-03,-7.740193977952003479e-04,-2.580221043899655342e-03,1.134280901169404387e-04,-8.867401629686355591e-05,-1.997742801904678345e-03,-1.802563085220754147e-03,-2.336770994588732719e-03,-1.705360715277493000e-03,-1.388232572935521603e-03,-4.481563810259103775e-03,-5.566489882767200470e-03,-3.266645595431327820e-03,-1.556798000819981098e-03,-2.968061715364456177e-03,-2.787555800750851631e-03,-2.413074718788266182e-03,-8.432295871898531914e-04,-6.895718630403280258e-03,-2.794633386656641960e-03,-2.676259493455290794e-03,-9.526130743324756622e-03,-4.835354629904031754e-03,-3.140354994684457779e-03,5.700517795048654079e-04,-4.930234048515558243e-03,-6.778521928936243057e-04,-4.202217678539454937e-04,-1.846747123636305332e-03,-3.306873550172895193e-04,-1.743228174746036530e-03,-8.017818443477153778e-03,-1.230459194630384445e-03,-4.454981535673141479e-03,-2.328498521819710732e-03,-7.021990604698657990e-04,-3.426967887207865715e-03,7.323808385990560055e-04,-1.034905086271464825e-03,3.544503706507384777e-04,-1.833815360441803932e-03,-8.078671526163816452e-04
1.114082150161266327e-02,1.098957471549510956e-02,3.984303679317235947e-03,1.491452287882566452e-02,6.734960246831178665e-03,6.427309941500425339e-03,7.966386154294013977e-03,4.789198748767375946e-03,7.462100125849246979e-03,3.806454362347722054e-03,1.425967784598469734e-03,-7.145515177398920059e-03,9.991928935050964355e-03,9.811192750930786133e-03,6.352506577968597412e-03,7.840280421078205109e-03,3.724054899066686630e-03,8.545494638383388519e-03,1.359505020081996918e-02,1.040958799421787262e-02,1.195923704653978348e-02,7.462725974619388580e-03,1.227075699716806412e-02,8.153272792696952820e-03,1.082872040569782257e-02,3.587433602660894394e-04,3.460400039330124855e-04,8.734972216188907623e-03,1.042534969747066498e-02,1.055228523910045624e-02,5.413613282144069672e-03,8.509541861712932587e-03,1.416773442178964615e-02,4.828730598092079163e-03,6.165887229144573212e-03,6.906631402671337128e-03,1.536923460662364960e-02,8.099117316305637360e-03,9.233614429831504822e-03,7.022970821708440781e-03,1.241033803671598434e-02,1.644206605851650238e-02,9.153464809060096741e-03,2.491614967584609985e-02,1.945625990629196167e-02,8.421694859862327576e-03,3.310165135189890862e-03,1.322209369391202927e-02,9.489382617175579071e-03,1.030771061778068542e-02,8.854174055159091949e-03,5.400856025516986847e-03,1.055837795138359070e-02,1.805792748928070068e-02,1.083289738744497299e-02,1.519538555294275284e-02,6.720584817230701447e-03,1.677872263826429844e-03,9.144687093794345856e-03,1.750191906467080116e-03,7.391561754047870636e-03,4.636171739548444748e-03,5.594405811280012131e-03,1.069925073534250259e-02,-3.125043958425521851e-02,7.551996409893035889e-02,-8.750315010547637939e-02,-8.741544559597969055e-03,-1.072239223867654800e-02,2.074789069592952728e-02,-1.196334604173898697e-02,-4.233723506331443787e-02,-3.363265842199325562e-02,1.672607846558094025e-02,1.515471842139959335e-02,3.734741732478141785e-02,-5.977817252278327942e-02,5.381921306252479553e-02,-1.062749186530709267e-03,6.760221719741821289e-02,-3.889656858518719673e-03,3.674302995204925537e-02,5.752604827284812927e-02,-9.321480058133602142e-03,1.572462730109691620e-02,-3.688948974013328552e-02,9.558262676000595093e-02,-1.346746366471052170e-02,-4.053235985338687897e-03,-3.660447895526885986e-03,2.446967177093029022e-02,3.618445945903658867e-03,1.361325569450855255e-02,4.759006202220916748e-03,-3.643195610493421555e-03,-6.074986886233091354e-03,-3.690588474273681641e-02,-1.875424385070800781e-02,9.316005557775497437e-02,-8.366594091057777405e-03,-1.404965110123157501e-02,2.156155370175838470e-02,-1.674019359052181244e-02,1.976426690816879272e-03,-3.081770986318588257e-02,-4.732849076390266418e-02,6.171207502484321594e-02,6.876074522733688354e-02,3.297103568911552429e-02,-3.252472728490829468e-03,1.348745543509721756e-02,9.208926348946988583e-04,1.398547273129224777e-02,4.212620668113231659e-03,-9.423304349184036255e-03,3.198651596903800964e-02,6.198683753609657288e-03,-3.140033781528472900e-02,-1.338614057749509811e-02,3.216649638488888741e-03,6.173491477966308594e-02,-6.298921536654233932e-03,-4.037536308169364929e-02,-5.357839167118072510e-03,-1.484173990320414305e-04,8.965583518147468567e-03,-3.293088078498840332e-02,-1.855845330283045769e-03,2.148635312914848328e-02,1.808746159076690674e-02,1.019142847508192062e-02,2.229578979313373566e-02,1.156525034457445145e-02,7.172380574047565460e-03,1.038555707782506943e-02,3.201012499630451202e-03,1.372267259284853935e-03,6.209004670381546021e-03,2.417558105662465096e-03,2.684735693037509918e-02,1.068970840424299240e-02,2.108458429574966431e-03,1.113889180123806000e-02,7.639137562364339828e-03,9.594398550689220428e-03,1.096215657889842987e-02,3.686160221695899963e-02,1.470622513443231583e-02,2.138351462781429291e-02,1.321118045598268509e-02,2.292723394930362701e-02,1.440916396677494049e-02,1.461231801658868790e-02,5.581650766544044018e-04,-9.079997427761554718e-03,2.594598196446895599e-02,5.610366817563772202e-03,2.185922116041183472e-02,1.040061190724372864e-02,1.179059129208326340e-02,1.757387816905975342e-02,1.805132813751697540e-02,1.298471912741661072e-02,8.578802458941936493e-03,1.282248180359601974e-02,1.498275529593229294e-02,9.985018521547317505e-03,1.044421643018722534e-02,2.622200921177864075e-02,2.088897489011287689e-02,1.565732620656490326e-02,5.737152695655822754e-02,2.518400922417640686e-02,4.172945022583007812e-02,5.897622089833021164e-03,1.818943023681640625e-02,9.848377667367458344e-03,1.433801557868719101e-02,1.349230390042066574e-02,1.279560197144746780e-02,1.254111062735319138e-02,4.319623485207557678e-02,1.173134054988622665e-02,2.176876738667488098e-02,1.423868071287870407e-02,7.844732142984867096e-03,1.283881813287734985e-02,4.505155142396688461e-03,1.193564943969249725e-02,7.623862009495496750e-03,1.232611387968063354e-02,1.307440828531980515e-02,2.136517502367496490e-02,3.115125000476837158e-02,3.135347738862037659e-02,2.765216305851936340e-02,1.696785725653171539e-02,4.058515653014183044e-03,1.047586556524038315e-02,2.419026196002960205e-02,1.107828598469495773e-02,8.161094971001148224e-03,4.087065346539020538e-03,6.277527660131454468e-02,2.109880745410919189e-02,2.203605510294437408e-02,1.837540790438652039e-02,1.543579529970884323e-02,2.240097150206565857e-02,2.330366149544715881e-02,4.904464632272720337e-02,2.380400151014328003e-02,2.580795437097549438e-02,1.908058859407901764e-02,3.025276213884353638e-02,2.354080975055694580e-02,2.492131106555461884e-02,1.205724896863102913e-03,-1.565731945447623730e-03,3.103203885257244110e-02,1.053214538842439651e-02,2.978341840207576752e-02,2.422064915299415588e-02,1.689167879521846771e-02,3.246523812413215637e-02,4.195215925574302673e-02,2.874985896050930023e-02,1.394417881965637207e-02,2.956754155457019806e-02,3.041234239935874939e-02,1.977443508803844452e-02,1.348546519875526428e-02,5.673101916909217834e-02,2.625110745429992676e-02,2.037972770631313324e-02,8.151556551456451416e-02,4.052949324250221252e-02,3.419944271445274353e-02,8.951324969530105591e-03,4.123578593134880066e-02,1.445479039102792740e-02,2.237031608819961548e-02,2.598668821156024933e-02,2.489493787288665771e-02,1.963064819574356079e-02,7.869023084640502930e-02,1.733410172164440155e-02,3.975479677319526672e-02,2.969979867339134216e-02,1.881297118961811066e-02,2.182642929255962372e-02,6.453201640397310257e-03,2.110796421766281128e-02,6.901326589286327362e-03,1.759679988026618958e-02,1.738243736326694489e-02
2.601235406473278999e-03,3.288677195087075233e-03,-4.106108564883470535e-03,6.057200371287763119e-04,4.281192086637020111e-04,8.704239735379815102e-04,2.427522093057632446e-03,-4.628264287021011114e-04,2.544279675930738449e-03,1.168900053016841412e-03,1.130316057242453098e-03,3.216092009097337723e-04,4.430426750332117081e-03,1.209265436045825481e-03,2.112714340910315514e-03,7.896367460489273071e-04,4.440051561687141657e-04,6.777371745556592941e-04,6.599803455173969269e-04,1.802845508791506290e-03,1.903319149278104305e-03,1.875280169770121574e-03,2.369585912674665451e-03,3.097310545854270458e-04,1.893876469694077969e-03,2.653857518453150988e-04,5.496211815625429153e-04,3.308943414594978094e-04,6.159516051411628723e-03,-8.804636308923363686e-07,6.824973970651626587e-04,2.777175744995474815e-03,4.731601569801568985e-03,3.173817647621035576e-03,2.299512270838022232e-03,2.772042993456125259e-03,5.939925555139780045e-03,1.558962161652743816e-03,1.656778738833963871e-03,2.429110696539282799e-03,7.855771109461784363e-03,1.514445524662733078e-03,1.846068538725376129e-03,1.044081174768507481e-03,3.975324798375368118e-03,1.875030458904802799e-03,1.199482867377810180e-04,2.885499969124794006e-03,2.576864790171384811e-03,3.452119999565184116e-04,-5.635810084640979767e-04,3.887808998115360737e-04,3.878189017996191978e-03,2.746463986113667488e-03,2.971306210383772850e-03,3.270651213824748993e-03,2.370176138356328011e-03,1.212655333802103996e-04,1.541919889859855175e-03,3.249854780733585358e-04,2.834162209182977676e-03,1.131566124968230724e-03,1.030155224725604057e-03,2.352315699681639671e-03,-6.493479304481297731e-05,6.590672419406473637e-04,1.639400376006960869e-03,4.282859619706869125e-03,6.794892251491546631e-04,-7.539896760135889053e-04,-1.285363454371690750e-03,-1.696159364655613899e-03,-1.533757196739315987e-03,9.978472953662276268e-04,6.986976368352770805e-04,-6.583068752661347389e-04,-6.086361128836870193e-03,3.639043308794498444e-03,3.332070191390812397e-04,2.745288657024502754e-03,3.960593137890100479e-03,-3.240968333557248116e-03,1.609480567276477814e-02,-3.988006152212619781e-03,-2.232417697086930275e-03,1.056078588590025902e-03,-1.655865344218909740e-03,1.197478384710848331e-03,-5.748913623392581940e-03,4.368618247099220753e-04,-2.479481918271631002e-04,-1.352934446185827255e-02,-4.974236362613737583e-04,-1.157297869212925434e-03,-2.437590388581156731e-03,9.895880939438939095e-04,-3.709689190145581961e-04,9.504981338977813721e-03,2.314228797331452370e-03,-9.346439503133296967e-03,-9.229417890310287476e-03,-3.595369344111531973e-04,7.403975352644920349e-03,-9.671218867879360914e-05,1.242105942219495773e-02,5.247119814157485962e-03,-1.089278701692819595e-02,9.671002626419067383e-03,-5.831999704241752625e-03,-3.499426320195198059e-02,-4.993757465854287148e-04,-1.202786620706319809e-02,-1.268776133656501770e-03,1.888066879473626614e-03,-2.741439267992973328e-03,-3.253324888646602631e-03,-1.269031898118555546e-03,-1.665485464036464691e-02,1.397134969010949135e-03,6.764723919332027435e-03,1.967826625332236290e-03,3.604958183132112026e-04,-3.896756097674369812e-03,3.806231543421745300e-04,3.871826454997062683e-03,1.168080838397145271e-03,-1.041240902850404382e-04,-9.054823894985020161e-04,1.068309647962450981e-03,4.277157131582498550e-03,-8.258265443146228790e-03,-8.634632104076445103e-05,3.058125148527324200e-04,1.881216303445398808e-03,4.297562874853610992e-03,-7.128886645659804344e-04,4.531585611402988434e-03,1.099571702070534229e-03,9.200555505231022835e-04,-2.621207386255264282e-06,4.926134832203388214e-03,1.528091495856642723e-03,2.463693730533123016e-03,1.420554355718195438e-03,3.313627676106989384e-04,-5.002594552934169769e-04,1.423038425855338573e-03,2.223019488155841827e-03,2.401885576546192169e-03,1.398641499690711498e-03,4.273117519915103912e-03,1.665359304752200842e-04,2.460332354530692101e-03,2.440900134388357401e-04,1.008538412861526012e-03,-4.041912034153938293e-04,5.361380986869335175e-03,-1.324001234024763107e-03,-9.513605618849396706e-07,3.989141434431076050e-03,5.755253601819276810e-03,4.768497776240110397e-03,2.826722338795661926e-03,2.301382133737206459e-03,7.243647240102291107e-03,4.576753359287977219e-03,2.638726262375712395e-03,3.822591621428728104e-03,1.011332776397466660e-02,1.121600158512592316e-03,2.455112291499972343e-03,-1.745270215906202793e-03,7.425026502460241318e-03,-1.101677864789962769e-02,2.495905791874974966e-04,2.727350452914834023e-03,2.657816279679536819e-03,-4.271928337402641773e-04,-1.030392479151487350e-03,9.663005475886166096e-04,3.222696483135223389e-03,5.187925882637500763e-03,2.988112391903996468e-03,3.387273056432604790e-03,2.703722100704908371e-03,9.951873216778039932e-04,2.162370597943663597e-03,9.665220859460532665e-04,1.736694597639143467e-03,2.052206313237547874e-03,1.081112306565046310e-03,1.803103368729352951e-03,1.913114101625978947e-03,6.593946833163499832e-03,-3.274519462138414383e-03,5.899309762753546238e-04,5.663368501700460911e-04,2.192640211433172226e-03,5.535669624805450439e-03,-2.246481308247894049e-04,5.467332899570465088e-03,1.115890918299555779e-03,5.500842235051095486e-04,4.939221544191241264e-04,6.176171824336051941e-03,2.185662277042865753e-03,4.692028742283582687e-03,-2.855260390788316727e-04,5.970794009044766426e-04,1.430322299711406231e-03,2.383962506428360939e-03,3.305617952719330788e-03,3.594821551814675331e-03,2.421207260340452194e-03,4.479106049984693527e-03,5.668487865477800369e-04,3.959656227380037308e-03,2.558830310590565205e-04,1.096621737815439701e-03,7.027614628896117210e-04,6.932952441275119781e-03,5.836549680680036545e-04,7.862710626795887947e-04,5.130646284669637680e-03,6.073496304452419281e-03,5.582757294178009033e-03,4.440819844603538513e-03,3.024571342393755913e-03,5.296959541738033295e-03,2.296971157193183899e-03,1.936651649884879589e-03,4.577233921736478806e-03,7.413568906486034393e-03,7.789660012349486351e-04,4.039512947201728821e-03,2.841056557372212410e-04,9.414084255695343018e-03,1.444820547476410866e-03,4.623615823220461607e-04,5.350928287953138351e-03,3.058075904846191406e-03,-3.175819292664527893e-04,-3.588812251109629869e-04,1.351684331893920898e-03,4.051198717206716537e-03,6.566343363374471664e-03,3.464700886979699135e-03,4.278273321688175201e-03,1.871996675617992878e-03,1.617342000827193260e-03,2.386732958257198334e-03,1.062345108948647976e-03,2.829014323651790619e-03,2.288114046677947044e-03,3.367072902619838715e-03,2.538499189540743828e-03
2.986703300848603249e-03,3.849352244287729263e-03,1.041758921928703785e-03,3.548644483089447021e-03,1.283077290281653404e-03,1.710189972072839737e-03,2.426853636279702187e-03,3.688836703076958656e-03,2.846179995685815811e-03,8.007996366359293461e-04,8.335493039339780807e-04,-2.887486945837736130e-03,4.873509518802165985e-03,2.699044300243258476e-03,2.806181786581873894e-03,1.510555506683886051e-03,2.807484241202473640e-03,6.529595702886581421e-05,5.265527870506048203e-03,2.984649501740932465e-03,3.018631832674145699e-03,2.253708429634571075e-03,1.586019992828369141e-03,2.738001290708780289e-03,3.634734312072396278e-03,7.973813917487859726e-04,5.209968658164143562e-04,1.584288431331515312e-03,4.309379961341619492e-03,2.574638230726122856e-03,2.327264752238988876e-03,4.561041947454214096e-03,5.880181211978197098e-03,3.067826153710484505e-03,1.689960714429616928e-03,4.687587264925241470e-03,6.968108937144279480e-03,1.701037166640162468e-03,2.096073003485798836e-03,2.904966939240694046e-03,1.074732095003128052e-02,3.397891996428370476e-03,2.575743012130260468e-03,4.574565682560205460e-03,6.396920885890722275e-03,6.317829829640686512e-04,5.207760841585695744e-04,5.592952482402324677e-03,3.619770985096693039e-03,3.377850167453289032e-03,2.953975228592753410e-03,3.435882099438458681e-04,4.734923597425222397e-03,2.342463238164782524e-03,4.413190763443708420e-03,4.238490946590900421e-03,2.793958876281976700e-03,-2.055495715467259288e-04,2.147132297977805138e-03,6.856898544356226921e-04,5.636478774249553680e-03,1.365270349197089672e-03,1.027071499265730381e-03,3.439177991822361946e-03,-1.104225637391209602e-03,-2.226543147116899490e-03,1.267587486654520035e-02,-1.265744562260806561e-03,-2.803367096930742264e-03,4.008950665593147278e-03,2.547929761931300163e-04,-9.015632793307304382e-03,-7.576427422463893890e-03,3.327838843688368797e-03,1.288376399315893650e-03,9.796675294637680054e-03,-9.774895384907722473e-03,2.380169741809368134e-02,1.618017442524433136e-03,1.153632625937461853e-02,-5.079406313598155975e-03,-1.811569556593894958e-03,-3.049682825803756714e-03,-8.865884505212306976e-03,-6.671635899692773819e-03,5.609912332147359848e-04,8.761743083596229553e-03,-3.292793175205588341e-03,-4.717967007309198380e-03,1.431865734048187733e-03,-1.363033615052700043e-02,4.095355048775672913e-03,-6.951231043785810471e-03,3.241012746002525091e-04,-7.474631071090698242e-03,1.970033394172787666e-03,-4.904762376099824905e-03,-1.459527667611837387e-02,-3.647295758128166199e-03,-2.443244215101003647e-03,6.355628836899995804e-03,1.147607900202274323e-02,1.588701643049716949e-02,-2.777074929326772690e-03,1.372887194156646729e-02,4.148739576339721680e-02,-4.991337191313505173e-03,-7.070806808769702911e-03,3.395097563043236732e-03,1.465252693742513657e-02,2.210419159382581711e-03,6.034776102751493454e-03,4.506829660385847092e-03,-2.532172016799449921e-03,3.146101953461766243e-03,5.525134038180112839e-03,4.021800588816404343e-03,-1.931437058374285698e-03,-5.451822187751531601e-03,-1.036985591053962708e-02,4.089689347892999649e-03,-5.123530980199575424e-03,-6.016953382641077042e-03,-4.724981263279914856e-04,-3.192975418642163277e-03,1.773511059582233429e-03,-2.483339747413992882e-03,3.347627352923154831e-03,6.375992670655250549e-03,5.340605042874813080e-03,4.394871182739734650e-03,4.837426356971263885e-03,2.519124420359730721e-03,1.880961586721241474e-03,3.434051293879747391e-03,2.689730608835816383e-03,4.033328499644994736e-03,1.369483536109328270e-03,6.113910931162536144e-04,8.371633593924343586e-04,6.300960201770067215e-03,6.383087020367383957e-03,3.561072982847690582e-03,2.666751388460397720e-03,3.562303958460688591e-03,2.523643895983695984e-03,2.676331438124179840e-03,4.383113700896501541e-03,4.587579052895307541e-03,3.626538207754492760e-03,4.010832402855157852e-03,3.526158165186643600e-03,6.150348111987113953e-03,6.392711075022816658e-04,5.682411137968301773e-04,2.851641038432717323e-03,4.499537404626607895e-03,4.393385257571935654e-03,3.676627064123749733e-03,5.899409763514995575e-03,7.314717862755060196e-03,2.608614275231957436e-03,5.098982248455286026e-03,4.822250455617904663e-03,6.270562764257192612e-03,8.087434805929660797e-03,4.553040023893117905e-03,3.324436023831367493e-03,9.916816838085651398e-03,8.159353397786617279e-03,3.279382595792412758e-03,1.018550619482994080e-02,4.121855366975069046e-03,4.142954945564270020e-03,1.263097510673105717e-03,7.013439200818538666e-03,5.174068734049797058e-03,3.752266522496938705e-03,3.171915421262383461e-03,1.632790314033627510e-03,6.683034822344779968e-03,4.349188413470983505e-03,6.461688317358493805e-03,5.345468875020742416e-03,2.533864229917526245e-03,1.259083277545869350e-03,4.138837568461894989e-03,1.196178025566041470e-03,5.075458437204360962e-03,1.881183008663356304e-03,3.170384094119071960e-03,3.515379270538687706e-03,6.662894971668720245e-03,8.149462752044200897e-03,7.116694003343582153e-03,5.654062144458293915e-03,4.340169019997119904e-03,1.190376002341508865e-03,3.751853248104453087e-03,2.716015093028545380e-03,4.692240618169307709e-03,1.880778814665973186e-03,1.134954742155969143e-03,6.133163813501596451e-03,7.096168585121631622e-03,6.630487740039825439e-03,4.687512293457984924e-03,3.413750557228922844e-03,4.698639269918203354e-03,3.448723582550883293e-03,4.975154064595699310e-03,6.338077597320079803e-03,5.292098503559827805e-03,4.303158726543188095e-03,5.321390461176633835e-03,5.267605651170015335e-03,6.431707181036472321e-03,6.334806093946099281e-04,1.100650406442582607e-03,5.956932436674833298e-03,5.736562889069318771e-03,6.315237376838922501e-03,4.915509372949600220e-03,7.025223691016435623e-03,9.579380974173545837e-03,7.879877462983131409e-03,8.725072257220745087e-03,6.092068739235401154e-03,5.171181168407201767e-03,8.473962545394897461e-03,5.252902396023273468e-03,3.865694627165794373e-03,9.269072674214839935e-03,7.517533842474222183e-03,4.488903097808361053e-03,1.534640230238437653e-02,1.050677429884672165e-02,5.277795717120170593e-03,1.927302102558314800e-03,9.133871644735336304e-03,5.435417871922254562e-03,5.146833136677742004e-03,5.009579937905073166e-03,4.648323636502027512e-03,7.402910385280847549e-03,1.627251133322715759e-02,6.746857427060604095e-03,7.745763286948204041e-03,5.197214428335428238e-03,3.517051693052053452e-03,5.604854319244623184e-03,1.451323623768985271e-03,6.088844966143369675e-03,1.898145419545471668e-03,5.268994718790054321e-03,4.476804751902818680e-03
3.879269585013389587e-02,1.254696771502494812e-02,-9.878861159086227417e-02,2.812628820538520813e-02,1.276351418346166611e-02,-2.476394642144441605e-03,1.967906765639781952e-02,-2.399619668722152710e-02,1.509087346494197845e-02,4.839123226702213287e-03,-3.477049991488456726e-03,-4.519052058458328247e-02,1.728612929582595825e-02,2.494373917579650879e-02,1.581583730876445770e-02,8.806115016341209412e-03,1.783582940697669983e-02,2.683058008551597595e-02,3.141101822257041931e-02,2.862537093460559845e-02,2.295173890888690948e-02,1.670884899795055389e-02,2.371916547417640686e-02,1.943126320838928223e-02,2.839854918420314789e-02,7.554665207862854004e-04,6.422328762710094452e-03,2.367423847317695618e-02,1.032357756048440933e-02,2.805527485907077789e-02,1.902028173208236694e-02,1.328868698328733444e-02,3.211356326937675476e-02,-8.321699686348438263e-03,3.170816972851753235e-02,-5.887560546398162842e-03,2.466836571693420410e-02,3.402102366089820862e-02,1.068968418985605240e-02,9.440137073397636414e-03,-3.499322757124900818e-02,4.150447249412536621e-02,1.313460245728492737e-02,1.814685016870498657e-02,4.109542444348335266e-02,1.344613637775182724e-02,7.477440871298313141e-03,1.919116638600826263e-02,1.051399484276771545e-02,2.318000048398971558e-02,1.805679500102996826e-02,1.514696888625621796e-02,2.233187854290008545e-02,6.045769900083541870e-02,2.028619125485420227e-02,1.974831148982048035e-02,2.035512030124664307e-02,2.199253067374229431e-03,1.252873241901397705e-02,8.290467783808708191e-03,2.568271756172180176e-02,1.249592471867799759e-02,1.535180117934942245e-02,1.946119405329227448e-02,-2.788053639233112335e-02,1.541159953922033310e-02,3.269312977790832520e-01,-1.003097146749496460e-01,1.309277489781379700e-02,2.564514242112636566e-02,-3.992921859025955200e-02,1.837202161550521851e-01,4.802289605140686035e-02,6.045453250408172607e-02,-1.013848744332790375e-02,-2.170370966196060181e-01,1.163303256034851074e-01,2.915346296504139900e-03,4.306006431579589844e-02,-1.658195406198501587e-01,-6.031284853816032410e-02,1.932922936975955963e-02,1.104005947709083557e-01,-4.179012030363082886e-02,-1.776203326880931854e-02,-5.668709427118301392e-02,8.993971347808837891e-02,-6.755528040230274200e-03,-1.081368979066610336e-02,8.143649436533451080e-03,8.475691080093383789e-03,4.263093695044517517e-02,-2.530222386121749878e-02,8.595258742570877075e-02,4.566951841115951538e-02,-7.832945324480533600e-03,9.259757399559020996e-02,4.910977929830551147e-02,3.051265515387058258e-02,-8.043063431978225708e-02,3.123734705150127411e-02,7.051941007375717163e-02,-1.000394746661186218e-01,1.946414448320865631e-02,3.641368448734283447e-01,-2.604129016399383545e-01,-1.519386423751711845e-03,-1.078091710805892944e-01,-2.016375362873077393e-01,-4.194771498441696167e-02,1.782656088471412659e-02,6.353937555104494095e-03,9.031279385089874268e-02,-1.048725657165050507e-02,1.016142889857292175e-01,2.769975923001766205e-02,4.931422695517539978e-02,1.008019894361495972e-01,-5.843416601419448853e-02,-5.391607992351055145e-03,8.508186042308807373e-02,-1.172326952219009399e-01,8.974024653434753418e-02,-3.434763289988040924e-03,-2.229863591492176056e-02,1.155082019977271557e-03,-6.423895247280597687e-03,7.535226643085479736e-02,6.708482652902603149e-02,2.472888119518756866e-02,-8.655009418725967407e-02,5.324301123619079590e-02,2.276665531098842621e-02,-5.630081519484519958e-03,2.792891860008239746e-02,-3.724502027034759521e-02,1.173915062099695206e-02,6.201277486979961395e-03,-1.213587704114615917e-03,-5.346252396702766418e-02,2.754347771406173706e-02,1.821831986308097839e-02,2.732256986200809479e-02,1.693443208932876587e-02,3.754036501049995422e-02,3.459352627396583557e-02,3.670222312211990356e-02,4.430769383907318115e-02,3.867935016751289368e-02,2.604313939809799194e-02,3.887426853179931641e-02,3.546730056405067444e-02,3.712723776698112488e-02,9.026727057062089443e-04,-2.550271106883883476e-03,4.906432703137397766e-02,9.867950342595577240e-03,4.259947314858436584e-02,3.656450659036636353e-02,1.713515818119049072e-02,5.568020790815353394e-02,-1.823852397501468658e-02,6.413484364748001099e-02,-3.942403942346572876e-03,3.465321660041809082e-02,6.388989090919494629e-02,1.059798058122396469e-02,1.367577444761991501e-02,-2.782141603529453278e-02,6.630407273769378662e-02,2.298091724514961243e-02,6.506208330392837524e-02,9.089159220457077026e-02,6.229012086987495422e-02,1.385140046477317810e-02,3.209079429507255554e-02,2.063564397394657135e-02,3.860357031226158142e-02,3.333965688943862915e-02,3.111968562006950378e-02,3.700925409793853760e-02,9.701140969991683960e-02,3.417272120714187622e-02,2.766970545053482056e-02,3.404121473431587219e-02,2.455705963075160980e-02,1.646086759865283966e-02,1.279995217919349670e-02,5.291588604450225830e-02,1.971471682190895081e-02,2.198055386543273926e-02,3.444851934909820557e-02,7.207959145307540894e-02,3.076919540762901306e-02,2.250575274229049683e-02,5.215232819318771362e-02,3.189405053853988647e-02,-1.474386639893054962e-02,3.371078893542289734e-02,-5.992428585886955261e-02,1.597160100936889648e-02,9.799021296203136444e-03,1.635688357055187225e-03,-1.643086969852447510e-02,9.962169080972671509e-02,3.423081338405609131e-02,4.235210269689559937e-02,-2.360798604786396027e-02,4.900710284709930420e-02,5.792309343814849854e-02,8.749259263277053833e-02,5.866527557373046875e-02,4.825776815414428711e-02,3.950404748320579529e-02,7.258234173059463501e-02,4.436961561441421509e-02,5.581885203719139099e-02,1.643730443902313709e-03,7.942084223031997681e-03,5.928720533847808838e-02,9.672008454799652100e-03,5.410381034016609192e-02,5.380586907267570496e-02,2.747260406613349915e-02,1.615747362375259399e-01,1.075646467506885529e-02,1.238851919770240784e-01,-5.367444362491369247e-03,6.053952500224113464e-02,8.639036118984222412e-02,1.294835377484560013e-02,1.773580349981784821e-02,2.430377528071403503e-02,3.257331997156143188e-02,3.150709345936775208e-02,7.706411182880401611e-02,8.608534932136535645e-02,6.433396041393280029e-02,2.034674584865570068e-02,5.382483452558517456e-02,2.843289263546466827e-02,4.152972623705863953e-02,3.814593702554702759e-02,3.582780435681343079e-02,4.205259680747985840e-02,2.003567069768905640e-01,3.813387453556060791e-02,4.064714908599853516e-02,5.410362035036087036e-02,4.929162561893463135e-02,1.538993790745735168e-02,1.752066798508167267e-02,5.569455400109291077e-02,2.288207039237022400e-02,5.522219836711883545e-02,3.701751306653022766e-02
1.137581188231706619e-03,1.317283487878739834e-03,1.115306746214628220e-03,1.143217319622635841e-03,6.520792958326637745e-04,9.373337379656732082e-04,1.093570259399712086e-03,-1.188006426673382521e-04,6.825485033914446831e-04,2.138083364116027951e-04,-5.204696208238601685e-06,6.729409797117114067e-04,9.256852208636701107e-04,1.221734564751386642e-03,5.494469660334289074e-04,8.525261073373258114e-04,3.282853867858648300e-04,3.902676398865878582e-04,1.033247099258005619e-03,7.938637281768023968e-04,8.515712688677012920e-04,4.295446269679814577e-04,1.494565512984991074e-03,6.532339029945433140e-04,5.702463677152991295e-04,-8.899036038201302290e-05,4.372898256406188011e-04,5.012149340473115444e-04,8.894668426364660263e-04,9.484153706580400467e-04,-2.284201473230496049e-04,8.278966415673494339e-04,1.110341865569353104e-03,1.672491489443928003e-04,1.134790596552193165e-03,4.224272561259567738e-04,8.312875288538634777e-04,1.137581071816384792e-03,1.112040365114808083e-03,8.042841218411922455e-04,8.304708753712475300e-04,1.917236601002514362e-03,1.017468515783548355e-03,2.406605752184987068e-03,1.341068302281200886e-03,8.777176844887435436e-04,1.799119490897282958e-04,1.466814195737242699e-03,3.601348726078867912e-04,6.613204604946076870e-04,1.084876945242285728e-03,4.579208907671272755e-04,1.040508155710995197e-03,1.849889289587736130e-03,6.154376314952969551e-04,1.588876009918749332e-03,5.666860379278659821e-04,7.667341269552707672e-04,9.928315412253141403e-04,2.088093315251171589e-04,1.444845256628468633e-04,5.432015750557184219e-04,6.656462210230529308e-04,4.249514604452997446e-04,-1.352463848888874054e-02,6.564828101545572281e-03,-9.447580203413963318e-03,1.212283154018223286e-03,-2.548825461417436600e-03,-1.606140285730361938e-03,-8.166925981640815735e-04,5.728684365749359131e-03,-1.555795664899051189e-03,1.478553516790270805e-03,1.781506813131272793e-03,-4.206018522381782532e-03,-2.297288365662097931e-02,6.743354722857475281e-03,-7.008187007158994675e-03,4.976651631295681000e-03,-6.261513102799654007e-03,6.819028407335281372e-03,-2.683669794350862503e-03,-1.274606864899396896e-02,4.159256350249052048e-03,-5.300963297486305237e-03,4.290466196835041046e-03,4.032953002024441957e-04,2.013216726481914520e-03,5.916729569435119629e-04,8.007254451513290405e-03,-9.340448305010795593e-03,-1.231473055668175220e-03,-4.910445772111415863e-03,7.548375520855188370e-03,-3.743411740288138390e-03,-9.822619147598743439e-03,-3.508190624415874481e-03,1.173748914152383804e-02,1.106911338865756989e-03,-1.542578823864459991e-02,1.793658919632434845e-02,-1.977122621610760689e-03,2.421830082312226295e-03,9.391964413225650787e-03,1.475079730153083801e-02,1.853545941412448883e-02,7.218800485134124756e-03,2.515118196606636047e-02,8.614856749773025513e-03,1.264440477825701237e-03,-4.234301857650279999e-03,-2.137637929990887642e-04,-1.154386671259999275e-03,-2.179306373000144958e-02,9.412059560418128967e-03,-2.038606762653216720e-04,-1.880938373506069183e-02,-9.201134089380502701e-04,1.658478751778602600e-02,3.456529229879379272e-03,-8.599217981100082397e-03,7.869561086408793926e-04,3.638477646745741367e-04,-3.280573757365345955e-03,1.239299774169921875e-03,1.204370753839612007e-03,-2.097162418067455292e-03,2.279725391417741776e-03,2.713133115321397781e-03,1.863591256551444530e-03,1.986437011510133743e-03,1.187390182167291641e-03,1.640226924791932106e-03,1.769592519849538803e-03,-6.257487984839826822e-05,1.455142395570874214e-03,5.468116141855716705e-04,1.295297115575522184e-04,4.528403282165527344e-03,1.617103116586804390e-03,2.407445805147290230e-03,1.112817786633968353e-03,1.402846537530422211e-03,9.507208014838397503e-04,7.426465163007378578e-04,1.811384805478155613e-03,1.248060958459973335e-03,1.941625378094613552e-03,9.320703102275729179e-04,3.117603249847888947e-03,1.410705852322280407e-03,8.914413047023117542e-04,-1.044290620484389365e-04,8.046358125284314156e-04,1.604539575055241585e-03,1.321682939305901527e-03,2.005935646593570709e-03,-4.318551800679415464e-04,1.393944723531603813e-03,1.658359775319695473e-03,1.352895051240921021e-03,1.693258993327617645e-03,1.032826607115566730e-03,1.357165630906820297e-03,2.297169528901576996e-03,1.855523791164159775e-03,1.404156442731618881e-03,1.805242500267922878e-03,2.164980629459023476e-03,2.049572067335247993e-03,6.125357002019882202e-03,2.287954092025756836e-03,3.150879871100187302e-03,5.588108324445784092e-04,2.929746173322200775e-03,3.716775390785187483e-04,1.154456287622451782e-03,1.280279597267508507e-03,1.274219830520451069e-03,9.771434124559164047e-04,2.942469436675310135e-03,6.825896562077105045e-04,3.099698573350906372e-03,1.668926910497248173e-03,1.432169578038156033e-03,1.877131173387169838e-03,4.900872590951621532e-04,3.672426682896912098e-04,1.080275396816432476e-03,1.449322910048067570e-03,7.477160543203353882e-04,2.317942911759018898e-03,4.239128902554512024e-03,3.302378114312887192e-03,2.748955041170120239e-03,2.000916516408324242e-03,1.655244617722928524e-03,2.205336699262261391e-03,2.216836670413613319e-03,1.675077015534043312e-03,7.956580957397818565e-04,5.043726996518671513e-04,5.207533948123455048e-03,3.237868426367640495e-03,2.951158676296472549e-03,2.077123615890741348e-03,2.356589306145906448e-03,2.290947595611214638e-03,1.439324114471673965e-03,4.366575274616479874e-03,2.670906716957688332e-03,2.457950497046113014e-03,1.419652369804680347e-03,4.066163208335638046e-03,2.421108540147542953e-03,1.801879028789699078e-03,-1.894927299872506410e-05,1.009501633234322071e-03,3.314421046525239944e-03,1.088028075173497200e-03,3.011610358953475952e-03,1.736481790430843830e-03,1.823521568439900875e-03,4.158657975494861603e-03,2.934878692030906677e-03,3.090514335781335831e-03,1.521270140074193478e-03,2.958456985652446747e-03,3.078397829085588455e-03,2.748520113527774811e-03,1.572395674884319305e-03,5.623062141239643097e-03,3.102291841059923172e-03,2.317748498171567917e-03,8.069528266787528992e-03,3.709160722792148590e-03,2.877549035474658012e-03,9.962723124772310257e-04,4.654920659959316254e-03,8.503862773068249226e-04,2.171222120523452759e-03,3.096283646300435066e-03,2.288189949467778206e-03,1.531411893665790558e-03,8.201650343835353851e-03,1.279117539525032043e-03,3.634486347436904907e-03,3.370454767718911171e-03,2.519359113648533821e-03,2.946046413853764534e-03,5.173104582354426384e-04,1.288871862925589085e-03,1.275754882954061031e-03,2.329668961465358734e-03,1.230320427566766739e-03
-2.787125529721379280e-03,-3.092891303822398186e-03,-3.097640583291649818e-03,-3.566163126379251480e-03,-1.570328138768672943e-03,-1.345659489743411541e-03,-1.691050943918526173e-03,-1.981640933081507683e-03,-2.757456153631210327e-03,-1.010575680993497372e-03,-1.284241880057379603e-04,7.585555431433022022e-04,-1.583808916620910168e-03,-3.670377889648079872e-03,-1.318341470323503017e-03,-2.231993945315480232e-03,-8.909503812901675701e-04,-2.208709949627518654e-03,-3.553910646587610245e-03,-2.712766872718930244e-03,-2.976216841489076614e-03,-1.713453326374292374e-03,-2.656833268702030182e-03,-1.821418991312384605e-03,-3.770780982449650764e-03,-8.444544073427096009e-05,1.667198957875370979e-04,-2.232852857559919357e-03,-4.093075636774301529e-03,-2.310950309038162231e-03,-2.069565234705805779e-03,-2.207121113315224648e-03,-2.898407867178320885e-03,-2.086249645799398422e-03,-1.752037554979324341e-03,-2.076427219435572624e-03,-2.654760843142867088e-03,-3.381103510037064552e-03,-2.991304732859134674e-03,-1.632027677260339260e-03,-3.143589245155453682e-03,-4.869461990892887115e-03,-2.453610999509692192e-03,-6.507852114737033844e-03,-4.328343551605939865e-03,-1.854020083555951715e-04,-6.636836333200335503e-04,-3.178504761308431625e-03,-1.317325746640563011e-03,-1.945746596902608871e-03,-2.552938647568225861e-03,-1.019510091282427311e-03,-2.098308177664875984e-03,-5.317075643688440323e-03,-1.407151343300938606e-03,-3.357024397701025009e-03,-2.069656737148761749e-03,-2.482738054823130369e-04,-2.692236099392175674e-03,-4.366274515632539988e-05,-2.255002036690711975e-03,-7.995821652002632618e-04,-1.372468424960970879e-03,-2.076117089018225670e-03,-9.664184763096272945e-04,9.913921356201171875e-03,-2.507331781089305878e-02,-2.732334285974502563e-02,-6.899108644574880600e-03,2.004289301112294197e-03,-8.080411702394485474e-03,6.361365783959627151e-03,-2.460140734910964966e-03,5.322833079844713211e-03,-3.760279156267642975e-03,2.679522335529327393e-02,2.521158941090106964e-02,3.591570630669593811e-02,3.527756780385971069e-02,-5.591233260929584503e-03,2.341546490788459778e-02,5.804891698062419891e-03,1.105986256152391434e-02,-2.348579093813896179e-02,-1.803950965404510498e-02,-1.928307116031646729e-02,-4.059343785047531128e-02,-6.193293724209070206e-03,1.620018482208251953e-02,-6.132577545940876007e-03,-4.645839799195528030e-03,-7.160481181927025318e-04,8.437345735728740692e-03,-2.581870742142200470e-02,1.659705117344856262e-02,9.045340120792388916e-03,-1.640461571514606476e-02,1.045087072998285294e-02,-8.273164741694927216e-03,1.046218257397413254e-02,3.048652969300746918e-02,-6.733911484479904175e-02,-4.051908850669860840e-03,-7.334117777645587921e-03,7.882914505898952484e-03,-4.676440358161926270e-02,1.136770006269216537e-02,-1.192088518291711807e-02,-2.697727456688880920e-02,2.402844373136758804e-03,2.724111080169677734e-03,1.149127539247274399e-02,9.343027137219905853e-03,4.201950971037149429e-03,2.227606624364852905e-02,-2.409761771559715271e-02,1.419635210186243057e-02,4.892439581453800201e-03,-1.483336649835109711e-02,-2.001638710498809814e-02,-8.471175096929073334e-04,6.996488198637962341e-03,-1.210666261613368988e-02,-6.096719298511743546e-03,3.504799911752343178e-03,-5.824400577694177628e-04,1.299633737653493881e-02,-1.499944459646940231e-02,-6.712749134749174118e-03,-5.777980666607618332e-03,-3.984432201832532883e-03,-6.342424079775810242e-03,-2.414141781628131866e-03,-2.026942092925310135e-03,-3.691616468131542206e-03,-1.258550561033189297e-03,-3.758086124435067177e-03,-1.612160820513963699e-03,-1.936871994985267520e-04,-5.125095136463642120e-03,3.959997091442346573e-03,-5.701997317373752594e-03,-2.314725657925009727e-03,-3.412645077332854271e-03,-2.017030026763677597e-03,-3.219625912606716156e-03,-4.507790785282850266e-03,-7.261424791067838669e-03,-6.221794988960027695e-03,-3.387650009244680405e-03,-3.662184812128543854e-03,-3.035971429198980331e-03,-5.306081846356391907e-03,-9.751880133990198374e-05,-1.982630055863410234e-04,-9.975042194128036499e-03,-4.566127900034189224e-03,-1.900112023577094078e-03,-3.893837798386812210e-03,-2.985216677188873291e-03,1.335216569714248180e-03,-6.775049958378076553e-03,-4.110015928745269775e-03,-2.908840309828519821e-03,-3.447182476520538330e-03,-9.562397375702857971e-03,-7.132038474082946777e-03,-2.549011725932359695e-03,-2.124595455825328827e-03,-5.861188285052776337e-03,-6.077709607779979706e-03,-1.707399822771549225e-02,-6.086764857172966003e-03,-1.187917659990489483e-03,-1.001936034299433231e-03,-4.475377500057220459e-03,-1.371068996377289295e-03,-2.434007357805967331e-03,-3.354310989379882812e-03,-2.379894722253084183e-03,-2.756974427029490471e-03,-7.394860498607158661e-03,-1.901525771245360374e-03,-5.488408729434013367e-03,-3.881926881149411201e-03,-1.325369114056229591e-03,-5.347450729459524155e-03,-5.139666027389466763e-04,-2.903994172811508179e-03,-1.347829937003552914e-03,-4.259611014276742935e-03,-2.546507399529218674e-03,-5.435045342892408371e-03,-9.003352373838424683e-03,-3.280056407675147057e-03,-6.103721447288990021e-03,-3.330298000946640968e-03,-2.471102867275476456e-03,-3.077034140005707741e-03,-1.268891151994466782e-03,-5.897026974707841873e-03,-1.897467300295829773e-03,-4.697947297245264053e-04,-1.586626982316374779e-03,-2.218031324446201324e-03,-7.721076253801584244e-03,-3.504281165078282356e-03,-5.095482803881168365e-03,-4.602970555424690247e-03,-5.757046863436698914e-03,-6.907826289534568787e-03,-7.930618710815906525e-03,-6.157265976071357727e-03,-4.153527785092592239e-03,-5.229281261563301086e-03,-4.138194024562835693e-03,-7.609659340232610703e-03,-2.734213485382497311e-04,-1.056364038959145546e-03,-7.906804792582988739e-03,-4.784698598086833954e-03,-5.222699604928493500e-03,-5.998119246214628220e-03,-3.896056441590189934e-03,-1.635931315831840038e-03,-1.022440753877162933e-02,-5.088870413601398468e-03,-3.995989449322223663e-03,-6.404113955795764923e-03,-9.407179430127143860e-03,-6.076015066355466843e-03,-3.250420792028307915e-03,-6.618802901357412338e-03,-2.723688958212733269e-03,-8.918502368032932281e-03,-2.007406949996948242e-02,-1.095108781009912491e-02,-5.189546383917331696e-03,-1.550779212266206741e-03,-1.063467282801866531e-02,-2.477932954207062721e-03,-3.724402049556374550e-03,-5.611636210232973099e-03,-4.385225940495729446e-03,-4.289990756660699844e-03,-2.168093342334032059e-03,-3.242315957322716713e-03,-9.756374172866344452e-03,-5.797473713755607605e-03,-3.840801771730184555e-03,-6.407005246728658676e-03,-7.383023039437830448e-04,-5.249291192740201950e-03,-1.185447908937931061e-03,-5.504657048732042313e-03,-3.119578585028648376e-03
2.646572538651525974e-04,-1.028754923027008772e-04,-1.820202451199293137e-03,-4.015391459688544273e-04,-1.091297745006158948e-04,2.392486057942733169e-04,5.766463582403957844e-04,3.822701692115515471e-04,6.463934550993144512e-04,2.152194065274670720e-04,2.920518818427808583e-05,7.218245300464332104e-04,8.509971085004508495e-04,1.267361803911626339e-04,2.568380150478333235e-04,3.135912120342254639e-04,-2.263439528178423643e-04,5.776311154477298260e-04,9.856470860540866852e-04,3.674750623758882284e-04,4.520785587374120951e-04,1.938384521054103971e-04,-5.332345026545226574e-04,-1.591308100614696741e-04,3.900119918398559093e-04,-1.752002208377234638e-05,2.309324772795662284e-04,1.129347583628259599e-04,-3.048031649086624384e-04,3.165043381159193814e-05,1.021615345962345600e-03,3.493770782370120287e-04,7.242250721901655197e-04,8.600481669418513775e-04,-1.400028937496244907e-03,1.444908266421407461e-04,1.090324018150568008e-03,-8.331876597367227077e-04,3.618954506237059832e-04,2.747193211689591408e-04,1.491981325671076775e-03,-4.205999721307307482e-04,5.037743831053376198e-04,-2.649643283803015947e-04,2.300424268469214439e-03,-8.407892310060560703e-04,3.273221227573230863e-05,-1.144721973105333745e-04,-5.186831695027649403e-04,-1.396083534928038716e-04,-4.789992453879676759e-05,6.396521348506212234e-05,2.236213622381910682e-04,-1.903849042719230056e-04,-4.918153863400220871e-04,2.204850607085973024e-04,3.065177588723599911e-04,-5.603829049505293369e-04,4.500682407524436712e-04,3.985838338849134743e-05,-2.735457092057913542e-04,1.672578655416145921e-04,1.260881545022130013e-04,-5.670423852279782295e-04,-2.022703923285007477e-02,3.187497379258275032e-03,1.685508899390697479e-02,-2.568881027400493622e-03,2.822220791131258011e-03,-2.912543714046478271e-04,-5.788038019090890884e-03,1.062580570578575134e-02,-2.448386978358030319e-03,-1.217309269122779369e-03,-2.404855331405997276e-04,-3.275289013981819153e-02,9.186815004795789719e-04,-5.189144052565097809e-03,2.818568609654903412e-03,-1.542071718722581863e-02,2.899678656831383705e-03,-5.000815261155366898e-03,-2.047403343021869659e-02,7.171480450779199600e-03,-2.358733327127993107e-04,2.973015420138835907e-03,-1.363301835954189301e-02,2.877409802749752998e-03,3.387934295460581779e-03,-6.730009044986218214e-05,7.416473818011581898e-04,-1.191372238099575043e-02,-2.637300407513976097e-03,-3.891353495419025421e-03,1.790595985949039459e-02,5.020176758989691734e-04,4.490392282605171204e-03,2.138871699571609497e-02,9.619872085750102997e-03,-5.519026890397071838e-03,-3.156157443299889565e-03,4.117893055081367493e-03,2.743205288425087929e-03,6.127364467829465866e-04,3.223262494429945946e-03,7.612512912601232529e-03,-8.328724652528762817e-03,-1.011771033518016338e-03,-1.893810369074344635e-02,9.280445054173469543e-03,-1.078657223843038082e-03,-1.093032024800777435e-02,-3.269040724262595177e-03,9.661239455454051495e-04,-2.245782408863306046e-03,-6.676959805190563202e-03,-2.832163125276565552e-03,1.258582109585404396e-03,4.327485803514719009e-03,9.909638203680515289e-03,-8.666542358696460724e-03,3.378609893843531609e-03,1.425027847290039062e-03,-5.679697496816515923e-04,1.121817971579730511e-03,-6.851446960354223847e-05,-1.178488507866859436e-02,-2.741362666711211205e-03,-1.698004663921892643e-03,-1.831537694670259953e-03,-1.878262730315327644e-03,-5.282256752252578735e-04,-6.566759548150002956e-04,1.086700649466365576e-04,1.203730789711698890e-04,1.101674046367406845e-03,1.024054246954619884e-03,4.285113536752760410e-04,1.827890664571896195e-04,-5.473611410707235336e-03,-2.111986832460388541e-04,-1.332675688900053501e-03,-7.625119178555905819e-04,-4.179550451226532459e-04,-1.285122016270179302e-05,3.687908465508371592e-04,1.480085309594869614e-03,-3.304797282908111811e-04,9.689567959867417812e-04,6.220021750777959824e-04,-3.008108818903565407e-03,8.493456698488444090e-05,9.047396015375852585e-04,-5.753436562372371554e-05,1.773183175828307867e-04,-1.054806401953101158e-03,-3.720587992575019598e-04,-5.011519533582031727e-04,2.259491709992289543e-03,4.189457395114004612e-04,-1.154053607024252415e-03,1.013556757243350148e-04,-3.550292691215872765e-03,5.735919694416224957e-04,1.504124491475522518e-03,-4.310988355427980423e-03,-4.481635405682027340e-04,5.000958335585892200e-04,1.557288109324872494e-03,-2.044124295935034752e-03,-6.656397017650306225e-04,-3.683676477521657944e-03,2.568236086517572403e-03,-4.693418275564908981e-03,2.953763178084045649e-04,-1.406777184456586838e-03,-1.138546853326261044e-03,2.366542757954448462e-04,-2.284725487697869539e-04,-8.047585142776370049e-04,-9.846619796007871628e-04,-2.903162501752376556e-03,-8.955189259722828865e-04,-6.072887917980551720e-04,-4.078921629115939140e-04,-1.711094868369400501e-03,9.166288509732112288e-05,2.314198791282251477e-04,1.311933039687573910e-03,3.687753633130341768e-04,-1.273709465749561787e-03,-3.297759103588759899e-04,-1.879246789030730724e-03,-2.132562687620520592e-03,-2.445924095809459686e-03,-4.628117021638900042e-04,-1.815963769331574440e-03,1.153448829427361488e-04,5.287717794999480247e-04,5.158263957127928734e-04,1.332927728071808815e-03,4.515562613960355520e-04,-2.781196089927107096e-04,-2.053173026069998741e-03,-3.719667671248316765e-03,-8.508497849106788635e-04,-7.100359071046113968e-04,-1.009564264677464962e-03,-1.110353157855570316e-03,7.934291497804224491e-04,-7.793840486556291580e-04,-6.135642761364579201e-04,1.259853248484432697e-03,5.876269424334168434e-04,-4.080281592905521393e-03,-4.794069973286241293e-04,1.233620801940560341e-03,8.696346412762068212e-06,2.888225571950897574e-05,-1.728949835523962975e-03,-3.440859145484864712e-04,-4.191025800537317991e-04,1.056948443874716759e-03,6.432269001379609108e-04,-5.016289651393890381e-03,-8.410411537624895573e-04,-4.929336253553628922e-03,8.412695024162530899e-04,-1.348098274320363998e-03,-3.197740530595183372e-03,-3.431737131904810667e-04,6.791263003833591938e-04,-3.636177396401762962e-03,-2.359400037676095963e-03,7.789429510012269020e-04,-3.927520010620355606e-03,1.900985022075474262e-03,-3.115902887657284737e-03,5.464914283948019147e-05,-2.116837538778781891e-03,-7.326520280912518501e-04,-9.679056820459663868e-04,-1.274964422918856144e-03,-1.631642458960413933e-03,-5.329994019120931625e-04,-6.829223595559597015e-03,-3.854368696920573711e-04,-6.377403624355792999e-04,-2.338149817660450935e-03,-2.345349639654159546e-03,2.542986476328223944e-04,2.950633352156728506e-04,1.291679101996123791e-03,-7.681037823203951120e-05,-1.676981337368488312e-03,-3.024514007847756147e-04
-3.493860363960266113e-02,-2.549744211137294769e-03,-6.924919039011001587e-02,-9.087262675166130066e-03,-1.278362981975078583e-02,1.228469423949718475e-03,-1.625947654247283936e-02,2.323124743998050690e-02,-5.971542559564113617e-03,-6.523888558149337769e-03,-6.272674072533845901e-03,1.622547511942684650e-03,9.682360105216503143e-03,-3.790784627199172974e-03,-2.054015174508094788e-02,9.958547540009021759e-03,-1.242670416831970215e-02,-2.397836744785308838e-02,4.408401250839233398e-02,-1.811085641384124756e-02,-2.309546992182731628e-02,-1.984673738479614258e-02,-2.423692308366298676e-02,-3.656265093013644218e-03,-1.012451481074094772e-02,-2.734331414103507996e-03,-1.108075398951768875e-02,-1.068349741399288177e-02,7.639087270945310593e-04,-1.550887618213891983e-02,-2.268571592867374420e-02,-6.013830658048391342e-03,1.178446970880031586e-02,2.030905149877071381e-02,-1.601818762719631195e-02,3.915074747055768967e-03,-1.658019027672708035e-03,-1.055717584677040577e-03,4.297330509871244431e-03,-8.939633145928382874e-03,-2.638387028127908707e-03,-2.370069921016693115e-02,-7.948782294988632202e-03,-1.515442971140146255e-02,-4.647674039006233215e-03,2.141672559082508087e-02,-1.060378365218639374e-02,-1.601362251676619053e-03,-8.852396160364151001e-03,4.657461307942867279e-03,8.099444094114005566e-04,-1.435357518494129181e-02,-5.470251664519309998e-03,-5.333740264177322388e-03,-6.437526550143957138e-03,1.162484113592654467e-05,-1.575162820518016815e-02,-3.373859450221061707e-02,8.481838740408420563e-03,-1.477369479835033417e-02,2.021963591687381268e-04,-1.552588399499654770e-02,-1.988682523369789124e-02,-5.239292047917842865e-03,-7.576135545969009399e-02,-2.825189195573329926e-02,-3.507900983095169067e-02,8.488170802593231201e-02,1.340966392308473587e-02,1.588480360805988312e-02,1.418256782926619053e-03,-8.009478449821472168e-02,4.978194832801818848e-02,-3.248256444931030273e-02,1.438561640679836273e-02,2.208172976970672607e-01,-8.519552648067474365e-02,-7.383538782596588135e-02,3.666548524051904678e-03,-1.219433080404996872e-02,1.418135967105627060e-02,4.764960333704948425e-02,3.120708763599395752e-01,5.836640670895576477e-02,3.033615835011005402e-02,2.087585069239139557e-02,7.593784481287002563e-02,7.324253022670745850e-02,6.677345186471939087e-02,5.524262785911560059e-02,4.543786868453025818e-02,-9.022205322980880737e-02,4.901763424277305603e-02,-2.969051338732242584e-02,-1.603743876330554485e-03,1.058435905724763870e-02,-9.767502546310424805e-02,-8.072342723608016968e-02,1.260864920914173126e-02,7.089492678642272949e-02,5.460323765873908997e-02,-9.949188679456710815e-02,-1.884312927722930908e-02,-1.575740240514278412e-02,-7.345636188983917236e-02,-7.615746557712554932e-02,9.673915803432464600e-02,7.446657866239547729e-02,8.765119314193725586e-02,4.493853822350502014e-02,-3.592040389776229858e-02,9.875919669866561890e-02,-3.307959809899330139e-02,6.845377385616302490e-02,-1.415006071329116821e-01,3.647033125162124634e-03,-6.316974014043807983e-02,-1.463484466075897217e-01,4.757130518555641174e-02,-6.869409233331680298e-02,-2.795628458261489868e-02,4.192635789513587952e-02,-1.875906437635421753e-02,1.669700071215629578e-02,5.600520595908164978e-02,2.418905310332775116e-02,-7.792105525732040405e-02,-2.580933086574077606e-02,-6.371233612298965454e-02,-7.237301208078861237e-03,-9.694115072488784790e-02,-2.701770700514316559e-02,-2.424643374979496002e-02,-1.142986802733503282e-04,-2.253611199557781219e-02,3.646568953990936279e-02,-4.374189767986536026e-03,-8.906623348593711853e-03,-9.891936555504798889e-03,3.821943700313568115e-02,3.515722230076789856e-02,8.931821212172508240e-03,-3.881161659955978394e-02,1.839004643261432648e-02,-2.079543098807334900e-02,-3.977589309215545654e-02,3.415559977293014526e-02,-2.399323880672454834e-02,-3.358487412333488464e-02,-3.984658420085906982e-02,-4.602456837892532349e-02,-1.091077551245689392e-02,-2.253333106637001038e-02,-2.969082910567522049e-03,-1.060689333826303482e-02,-2.753380499780178070e-02,3.672660328447818756e-03,-3.731913864612579346e-02,-5.129837617278099060e-02,-9.800258092582225800e-03,4.936960339546203613e-02,3.579743951559066772e-02,-3.344530239701271057e-02,1.612871885299682617e-02,1.602155156433582306e-02,2.856307476758956909e-02,8.371552452445030212e-03,-1.235317066311836243e-02,3.343346528708934784e-03,5.972518585622310638e-03,-3.682778682559728622e-03,-1.274323277175426483e-02,5.852360278367996216e-03,-3.559303656220436096e-02,-2.044636942446231842e-02,2.777186408638954163e-02,-1.629428192973136902e-02,1.402094378136098385e-03,-1.333869155496358871e-02,-2.858582325279712677e-02,-1.230860128998756409e-02,4.900931380689144135e-03,-1.296030450612306595e-02,2.344863489270210266e-02,-2.798459678888320923e-02,-5.394789949059486389e-02,1.202900614589452744e-02,-1.961658149957656860e-02,-2.004123758524656296e-03,-2.365927211940288544e-02,-3.607699275016784668e-02,-1.131811831146478653e-02,-5.851697921752929688e-02,-1.010156515985727310e-02,-5.319832637906074524e-02,-3.674173355102539062e-02,-4.372781142592430115e-02,8.632733486592769623e-03,-3.155464306473731995e-02,3.637541458010673523e-02,-9.710087440907955170e-03,-1.406984589993953705e-02,-1.957590319216251373e-02,4.735986888408660889e-02,2.175284549593925476e-02,-9.478206746280193329e-03,-6.426705420017242432e-02,1.974824629724025726e-02,-5.001622065901756287e-02,-4.641859605908393860e-02,5.708881467580795288e-02,-3.250660374760627747e-02,-4.077671095728874207e-02,-4.657525941729545593e-02,-7.166033238172531128e-02,-2.777618542313575745e-02,-2.270630002021789551e-02,-3.187800757586956024e-03,-9.775986894965171814e-03,-3.608440980315208435e-02,2.887676819227635860e-04,-3.785691782832145691e-02,-6.047408282756805420e-02,-2.435513772070407867e-02,2.966176532208919525e-02,5.827508866786956787e-02,-5.509581789374351501e-02,1.887764409184455872e-02,-6.593346595764160156e-03,-3.033248893916606903e-02,-4.887804854661226273e-03,-2.546824887394905090e-02,-1.187412068247795105e-02,-5.292108654975891113e-02,-8.029451593756675720e-03,1.753622479736804962e-02,3.740443615242838860e-03,-5.233791097998619080e-02,-3.036846593022346497e-02,2.146322093904018402e-02,-2.496382594108581543e-02,-5.960391368716955185e-03,-1.711268164217472076e-02,-4.485454782843589783e-02,-2.419329993426799774e-02,7.919386960566043854e-03,-2.322461083531379700e-02,2.376700378954410553e-02,-4.312929511070251465e-02,-7.903427630662918091e-02,4.105398431420326233e-03,-2.472502365708351135e-02,-1.792997121810913086e-02,-3.654292598366737366e-02,-7.061474770307540894e-02,-2.095860242843627930e-02
1.355165429413318634e-02,1.860117167234420776e-02,9.865193860605359077e-04,1.841353252530097961e-02,5.666556768119335175e-03,9.785770671442151070e-04,9.853501804172992706e-03,-2.717257477343082428e-03,1.250020321458578110e-02,3.108806267846375704e-04,-2.463409909978508949e-03,1.348778977990150452e-02,-7.640458643436431885e-03,1.404620823450386524e-03,6.942972540855407715e-03,-3.122001944575458765e-04,5.367726087570190430e-03,3.798434510827064514e-03,4.230248928070068359e-02,1.034807506948709488e-02,1.266935095191001892e-02,8.718615397810935974e-03,2.326217480003833771e-02,3.832424292340874672e-03,1.238467916846275330e-02,1.420704298652708530e-03,-1.741427229717373848e-03,5.126462318003177643e-03,3.659919369965791702e-03,3.523441962897777557e-03,7.219425402581691742e-03,7.452648598700761795e-03,1.226700469851493835e-02,2.569006942212581635e-02,1.815924607217311859e-02,3.324257675558328629e-03,2.930889837443828583e-03,1.392463501542806625e-02,2.152754366397857666e-02,5.948118865489959717e-03,-1.804246334359049797e-03,1.140083558857440948e-02,1.227984577417373657e-02,2.316826768219470978e-02,1.778542436659336090e-02,3.522929549217224121e-02,3.157613333314657211e-03,1.040262077003717422e-02,1.862977049313485622e-03,-1.517734839580953121e-03,5.924603901803493500e-03,5.758561659604310989e-03,8.395608514547348022e-03,3.387096151709556580e-02,6.275400519371032715e-03,8.805661462247371674e-03,7.421924732625484467e-03,1.022236794233322144e-02,1.908168196678161621e-02,-1.861302764154970646e-03,5.800501909106969833e-03,2.461040159687399864e-03,1.692368462681770325e-02,6.498432718217372894e-03,3.521075248718261719e-01,-1.045246198773384094e-01,1.269874908030033112e-02,1.419948935508728027e-01,4.280667379498481750e-02,-4.560531117022037506e-03,1.239336431026458740e-01,-7.039812207221984863e-02,1.002897508442401886e-03,3.695609793066978455e-02,1.622335612773895264e-02,-4.776955116540193558e-03,2.489874325692653656e-02,1.165289431810379028e-01,4.942433536052703857e-02,6.416437029838562012e-02,5.559101700782775879e-02,-1.240607500076293945e-01,-4.935292899608612061e-02,-1.326971501111984253e-01,-1.686867028474807739e-01,1.203278973698616028e-01,-3.460617363452911377e-02,3.895385190844535828e-02,-1.323087811470031738e-01,-1.389440265484154224e-03,2.994022890925407410e-02,3.170265555381774902e-01,-8.403539657592773438e-03,2.368947565555572510e-01,-2.598485648632049561e-01,-4.243846610188484192e-02,-1.370956748723983765e-01,-1.320798532105982304e-03,-1.808187514543533325e-01,-5.332754459232091904e-03,-4.683404788374900818e-02,7.025019731372594833e-03,-1.088287904858589172e-01,4.819523170590400696e-02,-1.060864478349685669e-01,-1.333549022674560547e-01,-7.155938446521759033e-02,-8.896146714687347412e-02,2.058548107743263245e-02,-4.367338120937347412e-01,-2.461021579802036285e-02,-6.220945715904235840e-02,3.848884254693984985e-02,-2.681448683142662048e-02,1.419425159692764282e-01,-5.526487901806831360e-02,9.149648249149322510e-02,9.146228432655334473e-02,-7.846265286207199097e-02,2.894472889602184296e-02,-8.162484504282474518e-03,1.019508242607116699e-01,4.625573381781578064e-02,9.046752005815505981e-03,6.644843518733978271e-02,-5.183001980185508728e-02,1.933386921882629395e-01,3.850890696048736572e-02,1.442135591059923172e-02,3.708259388804435730e-02,-6.354657933115959167e-03,3.270704299211502075e-02,8.857601322233676910e-03,-4.739914438687264919e-04,1.698998920619487762e-02,-8.775446563959121704e-03,1.615445129573345184e-02,-1.528475200757384300e-03,-5.335256457328796387e-03,4.210889339447021484e-02,-2.079415135085582733e-02,2.329887356609106064e-03,1.021205261349678040e-02,-1.577508985064923763e-03,8.750802837312221527e-03,1.031586667522788048e-03,6.307457387447357178e-02,1.793108880519866943e-02,1.874169334769248962e-02,1.734736748039722443e-02,4.479858651757240295e-02,6.211105268448591232e-03,1.364867202937602997e-02,1.404554815962910652e-03,-9.252416901290416718e-03,1.176057150587439537e-03,-3.272845409810543060e-03,1.493647578172385693e-03,1.367598678916692734e-02,1.052709110081195831e-02,1.304388698190450668e-02,6.036807969212532043e-02,3.516525030136108398e-02,5.473372060805559158e-03,7.569889537990093231e-03,3.994473069906234741e-02,4.610474035143852234e-02,1.046626921743154526e-02,3.878535237163305283e-03,5.362216848880052567e-03,2.382861822843551636e-02,6.175162270665168762e-02,2.981401048600673676e-02,3.231729567050933838e-02,3.119588596746325493e-03,2.621003054082393646e-02,1.712571392999961972e-04,-6.849785801023244858e-03,4.057973157614469528e-03,8.444502949714660645e-03,1.303087733685970306e-02,5.455859750509262085e-02,8.629172109067440033e-03,2.399406023323535919e-02,1.313182897865772247e-02,2.093050815165042877e-02,4.491651058197021484e-02,-3.893783316016197205e-03,5.131948273628950119e-03,2.891043666750192642e-03,2.266819216310977936e-02,9.683584794402122498e-03,2.208700589835643768e-02,6.791630387306213379e-02,-5.367379635572433472e-03,3.093189187347888947e-02,1.098691113293170929e-02,3.483178443275392056e-04,1.520452834665775299e-02,-9.335540235042572021e-03,3.053959645330905914e-02,-3.444197587668895721e-03,-9.008334018290042877e-03,1.216522790491580963e-02,-2.294849790632724762e-02,2.228632755577564240e-02,9.504434652626514435e-03,-1.348834368400275707e-03,1.413962244987487793e-02,1.865432038903236389e-02,8.230067789554595947e-02,2.941827103495597839e-02,2.386251278221607208e-02,2.243504859507083893e-02,6.294957548379898071e-02,6.320158019661903381e-03,3.419551625847816467e-02,2.223135903477668762e-03,-3.980187233537435532e-03,2.451451495289802551e-02,9.039767319336533546e-04,1.254842896014451981e-02,3.369000181555747986e-02,1.751814596354961395e-02,1.196506060659885406e-02,5.317235738039016724e-02,5.001127719879150391e-02,3.634183667600154877e-03,4.744994919747114182e-03,5.227894335985183716e-02,4.652906209230422974e-02,1.549786422401666641e-02,1.729377359151840210e-02,9.194344282150268555e-03,3.902772814035415649e-02,9.606280177831649780e-02,7.179039716720581055e-02,7.134496420621871948e-02,1.854225061833858490e-03,4.485206305980682373e-02,1.697108848020434380e-03,-2.721155062317848206e-02,2.025218866765499115e-02,7.981906644999980927e-03,1.705802790820598602e-02,5.358684062957763672e-02,1.105942949652671814e-02,2.463458105921745300e-02,2.557899337261915207e-03,3.293095901608467102e-02,5.846342444419860840e-02,-4.167934879660606384e-03,2.139833057299256325e-03,1.528957625851035118e-03,3.677757456898689270e-02,1.051857322454452515e-02
-6.524611730128526688e-03,-5.780254490673542023e-03,-4.582820460200309753e-03,-6.745713762938976288e-03,-3.636926179751753807e-03,-3.579179523512721062e-03,-3.896843409165740013e-03,-2.145734615623950958e-03,-5.129494238644838333e-03,-2.199374837800860405e-03,-9.157441090792417526e-04,-1.276460941880941391e-03,-3.102662740275263786e-03,-7.733099628239870071e-03,-3.842908190563321114e-03,-4.348273854702711105e-03,-2.873133867979049683e-03,-4.978222772479057312e-03,-6.366234738379716873e-03,-5.360904149711132050e-03,-6.368243601173162460e-03,-4.340033046901226044e-03,-5.842378828674554825e-03,-4.314025398343801498e-03,-6.314883474260568619e-03,-6.783657590858638287e-04,-1.447149901650846004e-03,-4.794183187186717987e-03,-6.517897825688123703e-03,-5.637411493808031082e-03,-3.903452074155211449e-03,-4.187448415905237198e-03,-5.262809805572032928e-03,-2.980734920129179955e-03,-4.199770744889974594e-03,-3.436842933297157288e-03,-5.702930502593517303e-03,-5.875578615814447403e-03,-5.012270528823137283e-03,-3.482740605250000954e-03,-5.685280542820692062e-03,-8.642045781016349792e-03,-4.295267630368471146e-03,-1.080527715384960175e-02,-1.098300702869892120e-02,-1.691950485110282898e-03,-2.289578551426529884e-03,-5.893315654247999191e-03,-3.360585775226354599e-03,-4.732243251055479050e-03,-5.411684513092041016e-03,-3.161776578053832054e-03,-5.177944432944059372e-03,-8.876790292561054230e-03,-3.867154940962791443e-03,-6.110155489295721054e-03,-4.094274248927831650e-03,-1.588500686921179295e-03,-4.664292093366384506e-03,-1.082695205695927143e-03,-5.090757738798856735e-03,-2.424428239464759827e-03,-3.477517515420913696e-03,-3.492566524073481560e-03,-1.650868449360132217e-03,-3.818996716290712357e-03,1.512047369033098221e-02,3.499000519514083862e-02,1.673785783350467682e-02,-2.521523274481296539e-03,2.957036718726158142e-03,-1.710367947816848755e-02,2.031379379332065582e-03,-6.505111698061227798e-03,1.994036603718996048e-03,3.785636648535728455e-02,-2.470102719962596893e-02,-2.453702734783291817e-03,2.871830482035875320e-03,-2.759163454174995422e-02,8.891933597624301910e-03,-2.511199191212654114e-02,-3.141563385725021362e-02,-4.777401685714721680e-03,-1.079869735985994339e-02,3.402504697442054749e-02,1.289630308747291565e-02,2.379249315708875656e-03,-9.734168997965753078e-04,6.209200364537537098e-04,-1.443844754248857498e-02,1.163541339337825775e-02,-1.135594677180051804e-02,3.125020116567611694e-02,-1.766500249505043030e-02,-3.511978080496191978e-03,9.206835180521011353e-03,-2.477024309337139130e-02,2.426201477646827698e-03,2.497379435226321220e-03,-1.107798889279365540e-02,3.235847875475883484e-02,-3.380501875653862953e-03,6.304228212684392929e-03,-3.568782284855842590e-02,7.171972841024398804e-02,-4.520075395703315735e-02,3.741786256432533264e-02,-3.552698064595460892e-03,-6.301781535148620605e-02,-1.514858379960060120e-02,1.995370490476489067e-03,-1.145380269736051559e-02,3.450304036960005760e-03,-2.396652271272614598e-04,-5.960119888186454773e-03,-1.099159102886915207e-02,2.412501256912946701e-03,1.817950792610645294e-02,1.559585612267255783e-02,-1.576460152864456177e-02,1.284334808588027954e-02,-1.942297210916876793e-03,4.841498099267482758e-03,2.114780014380812645e-03,1.152910641394555569e-03,2.705913968384265900e-02,-5.771141964942216873e-03,-1.287853997200727463e-02,-1.062623877078294754e-02,-8.911245502531528473e-03,-9.549570269882678986e-03,-6.348560564219951630e-03,-5.174378398805856705e-03,-5.957626737654209137e-03,-2.494117943570017815e-03,-8.373111486434936523e-03,-3.557604970410466194e-03,-2.385196741670370102e-03,-1.009874697774648666e-02,-3.320891875773668289e-03,-9.366806596517562866e-03,-6.666054949164390564e-03,-6.203566212207078934e-03,-6.248399615287780762e-03,-7.809859700500965118e-03,-1.137796044349670410e-02,-8.021729066967964172e-03,-1.083602476865053177e-02,-7.426586933434009552e-03,-9.117590263485908508e-03,-7.753754500299692154e-03,-9.849958121776580811e-03,-9.117801091633737087e-04,-2.593285171315073967e-03,-1.206142455339431763e-02,-8.275561034679412842e-03,-1.155250892043113708e-02,-7.036696653813123703e-03,-6.149027030915021896e-03,-5.690719466656446457e-03,-7.595521863549947739e-03,-9.210611693561077118e-03,-4.823508206754922867e-03,-6.727988831698894501e-03,-1.317375898361206055e-02,-7.027605548501014709e-03,-5.357434973120689392e-03,-9.176023304462432861e-03,-8.767419494688510895e-03,-7.114004809409379959e-03,-2.108353190124034882e-02,-1.487788185477256775e-02,-9.276507422327995300e-03,-3.963911440223455429e-03,-8.670292794704437256e-03,-4.339965526014566422e-03,-7.608846761286258698e-03,-8.230988867580890656e-03,-7.536047603935003281e-03,-6.794441957026720047e-03,-1.342560630291700363e-02,-5.425764713436365128e-03,-9.299590252339839935e-03,-8.456721901893615723e-03,-4.888195078819990158e-03,-8.283969014883041382e-03,-2.577597973868250847e-03,-7.609733846038579941e-03,-4.429863300174474716e-03,-7.871460169553756714e-03,-5.166451912373304367e-03,-1.225109025835990906e-02,-1.704924181103706360e-02,-1.440467871725559235e-02,-1.390136685222387314e-02,-9.978338144719600677e-03,-5.513581447303295135e-03,-6.873629055917263031e-03,-9.508073329925537109e-03,-8.795916102826595306e-03,-4.737379495054483414e-03,-4.848794080317020416e-03,-2.354169636964797974e-02,-8.027288131415843964e-03,-1.323437597602605820e-02,-1.142431981861591339e-02,-1.089135091751813889e-02,-1.278042700141668320e-02,-1.346880476921796799e-02,-1.704376377165317535e-02,-1.279568951576948166e-02,-1.307038310915231705e-02,-1.077750045806169510e-02,-1.352729462087154388e-02,-1.210633572190999985e-02,-1.383007410913705826e-02,-1.043561962433159351e-03,-3.868503961712121964e-03,-1.581009663641452789e-02,-8.742654696106910706e-03,-1.486046891659498215e-02,-1.346198376268148422e-02,-8.707631379365921021e-03,-1.190348900854587555e-02,-1.711774058640003204e-02,-1.508977543562650681e-02,-7.134913466870784760e-03,-1.195539999753236771e-02,-1.810351014137268066e-02,-1.004839595407247543e-02,-7.000860758125782013e-03,-1.803914085030555725e-02,-1.083458587527275085e-02,-9.280504658818244934e-03,-3.426368907094001770e-02,-2.109915763139724731e-02,-1.300466991961002350e-02,-6.373958196491003036e-03,-1.825708523392677307e-02,-7.187914103269577026e-03,-1.196377724409103394e-02,-1.265782490372657776e-02,-1.199167966842651367e-02,-1.044087484478950500e-02,-2.810893766582012177e-02,-8.733753114938735962e-03,-1.712810993194580078e-02,-1.388437207788228989e-02,-1.076660212129354477e-02,-1.081724371761083603e-02,-3.637741785496473312e-03,-1.296737417578697205e-02,-5.384542047977447510e-03,-1.136033702641725540e-02,-7.498265709728002548e-03
-4.144473467022180557e-03,-4.800990223884582520e-03,7.303076330572366714e-03,-1.171064330264925957e-03,-7.639221148565411568e-04,-1.982065616175532341e-03,-3.808079985901713371e-03,-1.350014790659770370e-04,-4.500595852732658386e-03,-1.208750531077384949e-03,-1.432334771379828453e-03,1.942159724421799183e-05,-7.558658253401517868e-03,-2.876688027754426003e-03,-4.020617809146642685e-03,-1.782501698471605778e-03,-9.650887222960591316e-04,-1.173732103779911995e-03,-3.757130820304155350e-03,-3.360379254445433617e-03,-3.112127305939793587e-03,-1.850855303928256035e-03,-4.030747804790735245e-03,-1.117531675845384598e-03,-3.803538624197244644e-03,-5.507193855009973049e-04,-8.250246755778789520e-04,-9.929063962772488594e-04,-1.868319930508732796e-03,-1.257374882698059082e-03,-1.107706921175122261e-03,-2.872547600418329239e-03,-8.476997725665569305e-03,-3.737203776836395264e-03,-2.850131830200552940e-03,-2.630471950396895409e-03,-8.146861568093299866e-03,-3.495298326015472412e-03,-2.871898934245109558e-03,-2.054389566183090210e-03,-7.855614647269248962e-03,-2.778413239866495132e-03,-3.073442494496703148e-03,1.834436261560767889e-04,-9.443114511668682098e-03,-2.423417754471302032e-03,-4.578803782351315022e-04,-2.905136905610561371e-03,-2.930751768872141838e-03,-8.083396824076771736e-04,-2.083293511532247066e-04,-9.906472405418753624e-04,-5.649687722325325012e-03,-6.003987975418567657e-03,-4.228617530316114426e-03,-2.608667593449354172e-03,-3.852511756122112274e-03,-1.738273422233760357e-04,-1.648721750825643539e-03,-1.099435728974640369e-03,-3.352368017658591270e-03,-2.472566207870841026e-03,-1.480492413975298405e-03,-1.306415651924908161e-03,9.447908028960227966e-03,-3.412188729271292686e-03,-1.964816357940435410e-03,-4.538765933830291033e-04,-7.551012677140533924e-04,-8.943644934333860874e-04,1.637661131098866463e-03,-5.771098658442497253e-04,1.909918617457151413e-03,-2.425109734758734703e-03,-1.472698524594306946e-03,2.564739435911178589e-02,1.324180699884891510e-02,2.245708892587572336e-04,5.410809535533189774e-04,1.641154289245605469e-03,-5.991540849208831787e-03,-2.249180572107434273e-03,-2.251372858881950378e-02,-8.423947147093713284e-04,-2.700975863263010979e-03,2.363006817176938057e-03,6.436221301555633545e-04,-2.371555194258689880e-03,1.002176944166421890e-02,3.138907777611166239e-04,-2.413723384961485863e-03,2.567395009100437164e-02,1.975766499526798725e-04,4.054691176861524582e-03,-1.798968878574669361e-03,-4.953050520271062851e-04,8.488046936690807343e-03,-1.470806542783975601e-02,-7.338605821132659912e-03,1.153840310871601105e-02,1.275834720581769943e-02,-4.465784877538681030e-03,-6.851454265415668488e-03,1.054212771123275161e-05,-1.163922809064388275e-02,3.495959099382162094e-03,1.089463476091623306e-02,-8.618935011327266693e-03,1.797847216948866844e-03,3.132721409201622009e-02,-5.661316681653261185e-04,1.294293254613876343e-02,-1.095849904231727123e-03,-1.666276948526501656e-03,6.693717557936906815e-03,6.682175677269697189e-03,1.452343654818832874e-03,3.300949558615684509e-02,-5.671530961990356445e-04,-7.308718282729387283e-03,-8.785085519775748253e-04,-1.701629138551652431e-03,4.809121601283550262e-03,1.527379383333027363e-03,-4.314412828534841537e-03,-1.208151225000619888e-03,3.311440348625183105e-03,1.175687997601926327e-03,-2.972492948174476624e-03,-6.920764688402414322e-03,1.239191927015781403e-02,-2.219136571511626244e-03,-1.595530076883733273e-03,-2.759762341156601906e-03,-4.675258882343769073e-03,-6.552111590281128883e-04,-6.930184084922075272e-03,-9.723529219627380371e-04,-1.418930711224675179e-03,-7.748430361971259117e-04,-5.447462666779756546e-03,-5.276905838400125504e-03,-5.355694796890020370e-03,-3.058666130527853966e-03,-1.578129595145583153e-03,-8.648895891383290291e-04,-5.681798793375492096e-03,-4.476657137274742126e-03,-4.067801870405673981e-03,-2.569935284554958344e-03,-6.442225072532892227e-03,-1.748519018292427063e-03,-6.512140389531850815e-03,-1.225568586960434914e-03,-1.333044725470244884e-03,-8.102719439193606377e-04,-2.813096623867750168e-03,-3.453177341725677252e-04,-2.162401331588625908e-03,-3.263797145336866379e-03,-9.634772315621376038e-03,-4.473570268601179123e-03,-4.151796456426382065e-03,-3.185390029102563858e-03,-8.227271959185600281e-03,-1.220843754708766937e-02,-4.935898352414369583e-03,-2.049518050625920296e-03,-7.705088704824447632e-03,-2.518924418836832047e-03,-4.022977314889431000e-03,1.972418976947665215e-03,-1.719751022756099701e-02,8.188991807401180267e-03,-1.390975667163729668e-03,-1.727524446323513985e-03,-2.964221872389316559e-03,-8.649717783555388451e-04,-7.351545500569045544e-04,-2.682733349502086639e-03,-5.932095926254987717e-03,-8.646458387374877930e-03,-5.334224086254835129e-03,-1.676770858466625214e-03,-3.769889008253812790e-03,-1.935078180395066738e-03,-3.331956919282674789e-03,-1.895283581689000130e-03,-3.275630995631217957e-03,-3.254827111959457397e-03,-2.114654285833239555e-03,-1.408094773069024086e-03,-2.565112896263599396e-03,-9.742411784827709198e-03,2.938214456662535667e-03,-3.616719273850321770e-03,-3.064809134230017662e-03,-4.278048407286405563e-03,-5.623695906251668930e-03,-1.734489691443741322e-03,-9.684387594461441040e-03,-1.292015775106847286e-03,-1.701497239992022514e-03,-4.970145411789417267e-03,-7.771583274006843567e-03,-6.209889426827430725e-03,-7.940718904137611389e-03,-1.704743131995201111e-03,-3.558714175596833229e-03,-4.182556178420782089e-03,-9.350607171654701233e-03,-6.838039495050907135e-03,-5.700296722352504730e-03,-3.966376185417175293e-03,-7.034290116280317307e-03,-3.559513716027140617e-03,-7.381049450486898422e-03,-1.021820353344082832e-03,-1.774037140421569347e-03,-3.186995396390557289e-03,-3.902237862348556519e-03,-3.456549253314733505e-03,-2.711918205022811890e-03,-4.700468387454748154e-03,-9.030375629663467407e-03,-9.355339221656322479e-03,-5.021352320909500122e-03,-4.587283823639154434e-03,-6.658514961600303650e-03,-7.423375267535448074e-03,-4.516975488513708115e-03,-3.853828180581331253e-03,-5.744203459471464157e-03,-1.290284330025315285e-03,-6.861730013042688370e-03,-4.869040567427873611e-03,-1.896647922694683075e-02,-3.270309185609221458e-03,-1.913004554808139801e-03,-7.004773244261741638e-03,-4.999627359211444855e-03,-2.136783208698034286e-03,-2.440529642626643181e-03,-4.389829002320766449e-03,-8.063049986958503723e-03,-1.248626224696636200e-02,-7.192673627287149429e-03,-7.247702218592166901e-03,-4.656925331801176071e-03,-3.691559657454490662e-03,-3.696799511089920998e-03,-2.229349920526146889e-03,-5.728052929043769836e-03,-3.478347789496183395e-03,-4.754995927214622498e-03,-2.241486683487892151e-03
3.758551320061087608e-04,-3.205426328349858522e-04,7.141967653296887875e-04,3.130837576463818550e-04,1.751742966007441282e-04,-5.925081495661288500e-06,-1.991787285078316927e-04,2.541756839491426945e-04,6.296089850366115570e-06,1.284915924770757556e-06,2.812269667629152536e-05,3.629637067206203938e-04,-4.945145337842404842e-04,3.788552567129954696e-05,2.976373652927577496e-04,1.389800017932429910e-04,-1.193502321257255971e-04,5.508665344677865505e-04,-4.527093260549008846e-04,3.043884353246539831e-04,4.693903028964996338e-04,4.669566696975380182e-04,-8.715492003830149770e-05,-6.196764297783374786e-05,3.224714600946754217e-04,1.346749832009663805e-05,1.451576736144488677e-05,3.341510600876063108e-04,-8.309748955070972443e-04,1.373550621792674065e-04,1.195174641907215118e-03,-2.548531629145145416e-04,-4.678296099882572889e-04,4.847322124987840652e-04,-5.236312281340360641e-04,-1.373119157506152987e-04,-5.694743013009428978e-04,4.753833854920230806e-05,3.391392601770348847e-05,-1.782786275725811720e-04,-1.022021169774234295e-03,-4.331424133852124214e-05,1.028850601869635284e-05,7.917256443761289120e-04,4.591094620991498232e-04,-8.273384883068501949e-04,3.191363939549773932e-04,-2.615885168779641390e-04,-3.527863300405442715e-04,-1.093199971364811063e-04,-1.832180350902490318e-05,1.736273588903713971e-05,-4.426520608831197023e-04,1.348097575828433037e-04,-3.433211531955748796e-04,-4.513819294515997171e-04,7.018279575277119875e-05,7.990925951162353158e-06,-9.155955194728448987e-05,2.653927367646247149e-04,-6.657126359641551971e-04,1.737165293889120221e-04,2.429468440823256969e-05,-1.356755674351006746e-04,2.406692830845713615e-03,-5.918917595408856869e-04,2.887771232053637505e-03,2.962377620860934258e-03,1.280013006180524826e-03,-7.661267300136387348e-04,7.299866992980241776e-04,-5.132633377797901630e-04,1.625981414690613747e-03,1.215674215927720070e-03,4.754006513394415379e-04,6.133108865469694138e-03,-8.271131664514541626e-03,-1.677580876275897026e-03,8.838181383907794952e-03,-3.538918914273381233e-03,2.900169463828206062e-03,-1.323394943028688431e-03,8.827636018395423889e-03,-6.595478625968098640e-04,-2.907853107899427414e-03,1.675038831308484077e-03,-2.032101154327392578e-03,1.476024161092936993e-03,-1.489878923166543245e-04,3.358753456268459558e-04,-1.189923379570245743e-03,7.685850141569972038e-04,-1.460775267332792282e-03,1.976564293727278709e-03,-3.936709836125373840e-03,1.661354326643049717e-03,-1.988883363083004951e-03,5.889336578547954559e-03,-2.819242654368281364e-03,-7.007150910794734955e-03,1.061328686773777008e-02,-2.999261720106005669e-03,-1.759180449880659580e-03,5.894838068343233317e-06,-3.559702308848500252e-03,-8.856608532369136810e-03,-3.780907485634088516e-03,-1.557134673930704594e-04,-1.246226858347654343e-02,-1.599580235779285431e-02,-3.257099015172570944e-04,7.556844502687454224e-05,-1.011305284919217229e-04,1.135964412242174149e-03,-7.927347905933856964e-04,-3.766325069591403008e-03,-5.825990810990333557e-04,1.079876720905303955e-02,7.618297968292608857e-05,-6.340933963656425476e-03,-1.132628298364579678e-03,1.731919241137802601e-03,1.212629256770014763e-03,-1.860924996435642242e-03,1.586657017469406128e-03,-1.659212750382721424e-03,-5.482561886310577393e-03,-1.278714044019579887e-03,8.799983188509941101e-04,-4.826902295462787151e-04,1.705672009848058224e-03,7.531215087510645390e-04,3.812389622908085585e-04,-4.656532546505331993e-04,-4.918593913316726685e-04,5.130552453920245171e-04,2.983006706926971674e-04,2.924813015852123499e-04,1.375226565869525075e-04,9.080197196453809738e-04,-1.375199644826352596e-03,3.096480504609644413e-04,7.675685628782957792e-05,7.980611553648486733e-05,1.586357102496549487e-04,1.283424790017306805e-03,-5.539543344639241695e-04,5.712925922125577927e-04,1.064110896550118923e-03,9.384924196638166904e-04,-6.510633102152496576e-05,2.200388698838651180e-04,7.659102557227015495e-04,9.996452718041837215e-05,-2.892769589379895478e-05,1.413198071531951427e-03,-7.318897987715899944e-04,7.177467341534793377e-04,2.406210871413350105e-03,-4.750214866362512112e-04,-8.712262497283518314e-04,9.351655608043074608e-04,-7.404808420687913895e-04,-4.908472692477516830e-05,-1.207662513479590416e-03,1.265593891730532050e-04,6.604014924960210919e-05,-4.203830903861671686e-04,-2.166626742109656334e-03,-1.906277466332539916e-04,-5.176500053494237363e-06,7.490810821764171124e-04,-2.961666905321180820e-05,-5.609871586784720421e-04,6.047788774594664574e-04,-1.325415796600282192e-03,-3.301732940599322319e-04,2.555319515522569418e-04,3.343317075632512569e-04,3.581305791158229113e-04,-2.276357554364949465e-04,4.165216232649981976e-04,-2.571436925791203976e-04,-1.350085716694593430e-03,1.210058617289178073e-04,-6.098781886976212263e-05,-3.478763028397224844e-05,3.000443393830209970e-04,1.763516338542103767e-04,1.719687134027481079e-05,6.390750641003251076e-04,-5.199103543418459594e-05,2.487520396243780851e-04,-8.846294367685914040e-04,8.158513228408992290e-04,6.743791745975613594e-04,6.825556047260761261e-04,-4.865790542680770159e-04,-6.824039737693965435e-04,8.440053788945078850e-04,2.707944368012249470e-04,3.677168569993227720e-04,1.661080896155908704e-04,2.153369132429361343e-03,-1.027878373861312866e-03,4.223402647767215967e-04,2.531997452024370432e-04,7.260655402205884457e-04,7.168165757320821285e-04,9.981573093682527542e-04,-1.306264312006533146e-03,6.770978798158466816e-04,9.978804737329483032e-04,8.444511913694441319e-04,2.987882544402964413e-05,6.526525248773396015e-04,7.469133124686777592e-04,8.960085688158869743e-05,-2.100178244290873408e-05,1.197428908199071884e-03,-1.166646485216915607e-03,6.727532600052654743e-04,2.155446214601397514e-03,-4.482816439121961594e-04,-1.966773299500346184e-03,1.796949072740972042e-03,-9.801449486985802650e-04,-5.869813321623951197e-05,-1.742182939779013395e-04,8.748846594244241714e-04,2.809280122164636850e-04,-2.838322252500802279e-04,-2.269393298774957657e-03,-4.532688762992620468e-05,4.088129790034145117e-04,7.822766783647239208e-04,2.616711426526308060e-04,-1.902755902847275138e-04,6.056568818166851997e-04,-2.970187924802303314e-04,-3.670456062536686659e-04,8.321300847455859184e-04,3.992376732639968395e-04,6.968050729483366013e-04,-2.662275219336152077e-04,-1.017541973851621151e-03,-3.097100416198372841e-04,-1.840997720137238503e-04,2.932275237981230021e-04,2.739805495366454124e-04,1.568403058627154678e-05,3.547442611306905746e-04,4.652632051147520542e-04,1.216940509038977325e-04,5.915741785429418087e-04,4.833953062188811600e-05
