-2.159144915640354156e-02
-9.360856376588344574e-03
-6.096876692026853561e-03
6.562050897628068924e-03
-1.054418273270130157e-02
-2.042013220489025116e-02
3.644757345318794250e-02
-1.428957656025886536e-02
-2.266761660575866699e-02
-9.688599035143852234e-03
2.735369279980659485e-02
-1.724541187286376953e-01
7.883291691541671753e-03
-1.052263565361499786e-02
-8.511603809893131256e-03
-2.109631709754467010e-02
4.659686703234910965e-03
-8.069499395787715912e-03
-3.541520610451698303e-02
-2.410935610532760620e-02
-7.219657767564058304e-03
-1.486156880855560303e-02
-1.720882207155227661e-02
2.285005152225494385e-02
-8.534994907677173615e-03
-4.994023591279983521e-02
-1.058780029416084290e-02
-2.409604936838150024e-02
-2.551371976733207703e-02
-2.374716289341449738e-02
-1.158375851809978485e-02
-6.286180578172206879e-03
-1.697478629648685455e-02
-1.168594416230916977e-02
-1.452884357422590256e-02
-2.766072377562522888e-02
-1.315858773887157440e-02
-6.034689024090766907e-03
-2.073086053133010864e-02
-1.080126129090785980e-02
3.016215004026889801e-02
-8.786122314631938934e-03
-6.624523084610700607e-03
-2.119582705199718475e-02
1.126972679048776627e-02
1.713071367703378201e-03
-1.368569768965244293e-02
8.500291034579277039e-03
9.591679088771343231e-03
-1.191347837448120117e-02
-3.189450502395629883e-02
1.754065416753292084e-02
-3.018190036527812481e-04
-1.952954009175300598e-02
-1.091561000794172287e-02
1.857306994497776031e-02
-6.237069610506296158e-03
-1.227027084678411484e-02
8.126402273774147034e-03
-3.042748756706714630e-02
1.104001700878143311e-02
-1.424164138734340668e-02
-7.540232967585325241e-03
3.518735291436314583e-03
2.363684587180614471e-02
-1.644195290282368660e-03
7.190095260739326477e-03
2.095409110188484192e-02
3.151722950860857964e-03
3.306731581687927246e-02
9.588913060724735260e-03
-1.756210112944245338e-03
-2.003465034067630768e-02
4.442801699042320251e-03
2.476502023637294769e-02
2.757429704070091248e-02
-1.555490121245384216e-02
-6.564042996615171432e-03
1.120703876949846745e-03
-2.000237442553043365e-02
1.293852925300598145e-02
-1.181061379611492157e-03
-1.289732102304697037e-02
1.133215986192226410e-02
-9.013893082737922668e-03
-6.062453147023916245e-03
8.399034850299358368e-03
-9.118836373090744019e-03
1.821035286411643028e-03
-1.083653047680854797e-02
-2.607970382086932659e-04
1.741429045796394348e-02
-3.467859327793121338e-02
-1.512270607054233551e-02
-2.088348381221294403e-03
-8.984996937215328217e-03
8.836444467306137085e-03
-8.514277637004852295e-03
-1.092456397600471973e-03
-4.597643390297889709e-03
-2.747007180005311966e-03
3.895103232935070992e-03
1.068481802940368652e-02
1.948722638189792633e-04
1.331008132547140121e-02
8.920412510633468628e-04
4.035151563584804535e-03
1.018410548567771912e-02
-1.191456150263547897e-02
-1.868589781224727631e-03
1.680159196257591248e-02
-5.263122916221618652e-02
-1.142898760735988617e-02
-1.317166490480303764e-03
3.401485737413167953e-03
1.803106861189007759e-03
1.146724540740251541e-02
-1.067042630165815353e-02
-1.250592991709709167e-03
6.045144796371459961e-02
8.917350322008132935e-03
-7.229785900563001633e-03
1.596968993544578552e-02
-2.712171338498592377e-02
2.716228365898132324e-02
2.308082208037376404e-02
2.932811621576547623e-03
1.280285697430372238e-02
-1.608224958181381226e-02
-1.015525311231613159e-02
-1.050401758402585983e-02
1.048817951232194901e-02
-9.975758381187915802e-03
-1.768278516829013824e-02
8.768920786678791046e-03
-1.183871924877166748e-02
-3.987756744027137756e-02
-9.538995102047920227e-03
1.077886950224637985e-02
1.686294749379158020e-02
1.144918333739042282e-02
-9.925357997417449951e-03
-7.592401001602411270e-03
-1.734154671430587769e-02
6.945902947336435318e-03
-1.097488030791282654e-02
-2.187298424541950226e-02
-1.905154064297676086e-02
-8.190531283617019653e-03
-1.593377254903316498e-02
-1.290207542479038239e-02
-1.212572562508285046e-03
-6.749815307557582855e-03
7.506315410137176514e-02
-1.012796536087989807e-02
-1.914121955633163452e-02
-1.343048084527254105e-02
-1.787849515676498413e-02
-9.627023711800575256e-03
-1.001822575926780701e-02
6.242542713880538940e-02
-1.194028928875923157e-02
-1.091409381479024887e-02
9.379096329212188721e-02
-1.216253172606229782e-02
-1.000043470412492752e-02
-1.678685285151004791e-02
-8.303827606141567230e-03
2.934949658811092377e-02
-7.850749418139457703e-03
-6.877094041556119919e-03
-1.592602953314781189e-02
-2.258086763322353363e-02
-1.046260166913270950e-02
-1.075802743434906006e-02
4.481881111860275269e-02
3.952679410576820374e-02
-1.008411124348640442e-02
3.010751493275165558e-02
-7.618056144565343857e-03
4.258083179593086243e-02
-1.531345397233963013e-02
-9.891036897897720337e-03
7.098481291905045509e-04
-4.434247035533189774e-03
-1.481206342577934265e-02
1.265771500766277313e-02
-1.590307801961898804e-02
9.326900355517864227e-03
-1.286214776337146759e-02
-6.307116243988275528e-03
6.292531266808509827e-03
-2.738480456173419952e-02
-1.460866909474134445e-02
-3.373709693551063538e-02
-9.917683899402618408e-03
-1.364029757678508759e-02
-3.049592487514019012e-02
6.054771691560745239e-02
-1.887997426092624664e-02
-2.470865100622177124e-02
-1.556939724832773209e-02
6.212202087044715881e-02
5.215635523200035095e-02
-3.664495050907135010e-02
-1.190271880477666855e-02
-1.096786651760339737e-02
-2.615469135344028473e-02
-4.171774908900260925e-02
-1.294906251132488251e-02
7.463183254003524780e-03
-2.728334628045558929e-02
-7.977745495736598969e-03
-1.717898994684219360e-02
-1.931209862232208252e-02
2.036239393055438995e-02
-1.015991531312465668e-02
5.897758901119232178e-02
-1.707529462873935699e-02
-2.970146946609020233e-02
-1.267347391694784164e-02
-2.848355472087860107e-02
-1.529817841947078705e-02
-3.406380116939544678e-02
5.823991075158119202e-02
-1.828474737703800201e-02
-1.620252616703510284e-02
5.861924961209297180e-02
-1.442549005150794983e-02
-1.221028063446283340e-02
-2.551428228616714478e-02
-9.694308042526245117e-03
3.365618363022804260e-02
-1.018622796982526779e-02
-1.080989837646484375e-02
-2.352948859333992004e-02
1.540311425924301147e-02
1.613753475248813629e-02
-1.990922354161739349e-02
5.264242365956306458e-02
2.013653330504894257e-02
-1.317695900797843933e-02
-5.702413152903318405e-03
4.633325710892677307e-02
4.739551618695259094e-02
-2.223597466945648193e-02
-1.528563071042299271e-02
4.137329384684562683e-02
-3.741806838661432266e-03
-1.888044923543930054e-02
-5.955866072326898575e-03
-2.062128111720085144e-02
6.465178448706865311e-03
-2.819922193884849548e-02
-8.811878971755504608e-03
-4.822899401187896729e-02
