-2.117650769650936127e-02,-1.025760732591152191e-02,-6.502815056592226028e-03,6.589934695512056351e-03,-1.051720790565013885e-02,-2.030490897595882416e-02,2.271648496389389038e-02,-1.562728919088840485e-02,-2.223497256636619568e-02,-9.774035774171352386e-03,4.105960577726364136e-02,-1.058016642928123474e-01,7.838796824216842651e-03,-1.052710972726345062e-02,-9.526127949357032776e-03,-2.051466330885887146e-02,4.525503609329462051e-03,-8.669790811836719513e-03,-1.317404117435216904e-02,-2.360471896827220917e-02,-9.483980946242809296e-03,-1.448219176381826401e-02,-1.791148446500301361e-02,2.381622977554798126e-02,-1.001566462218761444e-02,-1.325223222374916077e-02,-1.104414369910955429e-02,-2.235409617424011230e-02,-2.939111925661563873e-02,-2.271828614175319672e-02,-1.192951202392578125e-02,-6.763366051018238068e-03,-8.974596112966537476e-02,-1.213942561298608780e-02,-1.679098419845104218e-02,-3.036971436813473701e-03,-1.360247470438480377e-02,-5.874547176063060760e-03,-2.018094062805175781e-02,-1.386318728327751160e-02,3.546195104718208313e-02,-1.006961613893508911e-02,-6.909704767167568207e-03,-2.119967341423034668e-02,1.414399221539497375e-02,3.534409403800964355e-02,-1.469827909022569656e-02,1.433464884757995605e-02,1.251719892024993896e-02,-1.235397160053253174e-02,-4.411638900637626648e-02,5.043728277087211609e-02,1.064185872673988342e-01,-1.909071393311023712e-02,-1.231347396969795227e-02,1.973359286785125732e-02,-7.613361813127994537e-03,-1.173260994255542755e-02,8.094159886240959167e-03,-2.896814048290252686e-02,-9.158516302704811096e-03,-1.506597362458705902e-02,-9.265067987143993378e-03,3.674744162708520889e-03,2.161875180900096893e-02,-4.216135945171117783e-03,-1.886693760752677917e-02,3.379691764712333679e-02,3.408675547689199448e-03,3.245412558317184448e-02,9.217320382595062256e-02,1.962112030014395714e-03,-1.197452098131179810e-02,1.474726712331175804e-03,8.960618078708648682e-02,-4.897231608629226685e-02,-1.602199859917163849e-02,-7.066194433718919754e-03,-2.863690257072448730e-03,-2.112613990902900696e-02,1.285672374069690704e-02,-1.522113848477602005e-02,-1.195012778043746948e-01,1.200554985553026199e-02,-2.731477376073598862e-03,-9.409722406417131424e-04,6.351568270474672318e-03,5.233461782336235046e-02,8.759630145505070686e-04,2.150123007595539093e-02,4.212284693494439125e-04,1.768561452627182007e-02,-4.527397826313972473e-02,-1.690251193940639496e-02,-1.126838731579482555e-03,-8.674057200551033020e-03,9.426766633987426758e-02,-1.990762352943420410e-02,7.771303411573171616e-03,-7.486891746520996094e-02,2.271337434649467468e-03,-4.861977882683277130e-03,1.225611474364995956e-02,-6.109666428528726101e-04,-2.352786995470523834e-02,-1.259175187442451715e-04,2.200989983975887299e-02,8.722658269107341766e-03,-4.805527627468109131e-02,-8.036575466394424438e-02,4.909188300371170044e-02,-1.360795795917510986e-01,3.111821599304676056e-03,1.267646439373493195e-03,1.231173276901245117e-01,-6.161243095993995667e-02,-3.434973955154418945e-02,-2.660619327798485756e-03,-3.014754038304090500e-03,9.430482983589172363e-02,3.515779739245772362e-03,-9.859660640358924866e-03,1.609671488404273987e-02,-6.973336916416883469e-03,6.049978733062744141e-02,2.300359308719635010e-02,-1.953274011611938477e-02,1.388549059629440308e-02,-1.615928672254085541e-02,-1.164001598954200745e-02,-1.067333668470382690e-02,9.317702613770961761e-03,-9.857839904725551605e-03,-1.773105189204216003e-02,-3.208266571164131165e-02,-1.291643735021352768e-02,-4.365851357579231262e-02,-9.549047797918319702e-03,2.691251970827579498e-02,4.456735774874687195e-02,1.125161349773406982e-02,-9.848681278526782990e-03,-8.373881690204143524e-03,-1.680546067655086517e-02,6.590795703232288361e-03,-1.178073789924383163e-02,-1.101292297244071960e-02,-1.872649975121021271e-02,-7.902860641479492188e-03,-1.556151639670133591e-02,-1.384062599390745163e-02,-1.977496221661567688e-02,-8.276022970676422119e-03,7.607875764369964600e-02,-1.062378473579883575e-02,-1.780779100954532623e-02,-3.582770749926567078e-02,-1.712540164589881897e-02,-1.001401338726282120e-02,-9.854841046035289764e-03,6.557717919349670410e-02,-1.267761830240488052e-02,-1.327239349484443665e-02,8.576081693172454834e-02,-1.261867303401231766e-02,-1.000879891216754913e-02,-1.634350232779979706e-02,-9.522461332380771637e-03,3.909634798765182495e-02,-8.354652673006057739e-03,-8.577401749789714813e-03,-1.677465997636318207e-02,-2.222219109535217285e-02,1.137446612119674683e-02,-1.208575442433357239e-02,5.981475859880447388e-02,4.084755107760429382e-02,-1.041335146874189377e-02,3.247323632240295410e-02,-2.069832524284720421e-03,-1.527382154017686844e-02,-1.533206831663846970e-02,-1.109593175351619720e-02,-1.306668668985366821e-02,-6.050647702068090439e-03,-1.392804551869630814e-02,1.240559108555316925e-02,-8.950740098953247070e-03,-8.876601234078407288e-03,-1.371989212930202484e-02,-7.945559918880462646e-03,6.403263192623853683e-03,-2.728566154837608337e-02,-1.536046992987394333e-02,-5.942203849554061890e-02,-1.904866099357604980e-02,-1.506866328418254852e-02,-3.041924908757209778e-02,5.344155803322792053e-02,-2.154442481696605682e-02,-2.325683273375034332e-02,-1.591797359287738800e-02,7.450073957443237305e-02,5.651874095201492310e-02,-1.430300157517194748e-02,-1.254349574446678162e-02,-1.397039555013179779e-02,-2.292697317898273468e-02,-6.073793396353721619e-02,-1.317929197102785110e-02,1.655600778758525848e-02,-2.555307187139987946e-02,-1.283602509647607803e-02,-2.241541072726249695e-02,-2.004591189324855804e-02,4.965918604284524918e-03,-1.205465476959943771e-02,5.423966795206069946e-02,-2.031286992132663727e-02,-2.680122293531894684e-02,-1.019786298274993896e-02,-2.720841392874717712e-02,-1.587523147463798523e-02,-3.430302813649177551e-02,6.180254742503166199e-02,-2.003202028572559357e-02,-1.853056065738201141e-02,6.309543550014495850e-02,-1.520867832005023956e-02,-1.212929282337427139e-02,-2.385107800364494324e-02,-1.112191844731569290e-02,4.128077626228332520e-02,-1.252768374979496002e-02,-1.332800649106502533e-02,-2.362377010285854340e-02,1.996621675789356232e-02,2.055968157947063446e-02,-2.192889340221881866e-02,6.419669091701507568e-02,2.411765046417713165e-02,-1.390195544809103012e-02,1.801019534468650818e-02,5.806407332420349121e-02,4.411627352237701416e-02,-2.149518020451068878e-02,-1.978950574994087219e-02,4.023801162838935852e-02,-5.242922808974981308e-03,-9.138194844126701355e-03,5.387883633375167847e-03,-2.781002409756183624e-02,-1.549712964333593845e-03,-2.981236390769481659e-02,-1.033561583608388901e-02,-6.470246613025665283e-02
-1.592128421179950237e-03,-5.205431370995938778e-04,-1.017058268189430237e-03,8.850600570440292358e-04,-8.281765622086822987e-04,-1.012248452752828598e-03,1.585662830621004105e-03,-1.440222258679568768e-03,-4.225648008286952972e-03,-1.414098805980756879e-04,1.366507541388273239e-02,-1.155884936451911926e-01,4.923609667457640171e-04,-1.170502742752432823e-03,-1.084881252609193325e-03,6.971737602725625038e-04,-1.176044752355664968e-04,-6.594662554562091827e-04,-1.303043216466903687e-02,-2.544278744608163834e-03,-9.786548325791954994e-04,1.625497126951813698e-03,-1.539634424261748791e-03,5.027043633162975311e-03,-9.620117489248514175e-04,-1.381513327360153198e-01,-7.262391736730933189e-04,-4.585170245263725519e-04,-6.945713539607822895e-04,-1.316302339546382427e-03,-9.772697230800986290e-04,3.658163826912641525e-03,1.204025372862815857e-01,-1.256319810636341572e-03,-1.847250619903206825e-03,4.522180557250976562e-02,-1.510381931439042091e-03,-4.592905461322516203e-04,9.417238179594278336e-04,-1.336323330178856850e-03,7.687674835324287415e-03,-9.189294069074094296e-04,-5.775913014076650143e-04,-1.578743569552898407e-03,-3.401460824534296989e-03,1.351443678140640259e-02,-1.005274825729429722e-03,-1.099851331673562527e-03,-1.763518201187252998e-03,1.196458833874203265e-04,-3.160146297886967659e-03,1.434238813817501068e-02,3.771968558430671692e-02,-1.824628328904509544e-03,-9.808744071051478386e-04,4.760823678225278854e-03,2.504955045878887177e-04,-2.157483831979334354e-04,6.335175712592899799e-04,3.030147403478622437e-03,-9.546602377668023109e-04,-1.682226080447435379e-03,-9.537871665088459849e-05,8.841699309414252639e-05,1.741352374665439129e-03,3.377701214049011469e-04,-1.559425890445709229e-02,2.034388482570648193e-03,1.142359804362058640e-03,1.877949573099613190e-03,1.865492910146713257e-01,7.600527023896574974e-04,3.748556226491928101e-02,1.507199136540293694e-03,2.247292920947074890e-02,-4.930855706334114075e-02,-2.716489369049668312e-03,-3.953414037823677063e-03,2.379780053161084652e-04,-4.280759312678128481e-04,9.688042337074875832e-04,2.650587353855371475e-03,-7.684055715799331665e-02,-1.713801990263164043e-03,-9.331692941486835480e-03,-6.710977177135646343e-04,2.791920269373804331e-04,2.056789398193359375e-02,2.701366087421774864e-03,-5.496115982532501221e-02,3.492604009807109833e-04,-1.934920292114838958e-04,2.294615656137466431e-02,5.301085766404867172e-04,-1.790900947526097298e-03,-1.227726135402917862e-02,-3.003218173980712891e-01,-3.789754817262291908e-03,-3.818301483988761902e-03,-1.184258162975311279e-01,-1.491254661232233047e-03,3.432251047343015671e-03,-7.932216976769268513e-04,-1.108553144149482250e-03,2.095436155796051025e-01,-1.807042164728045464e-03,2.512419829145073891e-03,-6.620411877520382404e-04,1.601416431367397308e-02,1.458439417183399200e-02,1.590345636941492558e-04,2.280079014599323273e-02,-7.806007564067840576e-02,-2.130045788362622261e-03,-1.187601089477539062e-01,-1.001200079917907715e-01,8.851211518049240112e-02,4.979446530342102051e-04,1.676935004070401192e-03,-4.264430142939090729e-03,1.251498050987720490e-02,-4.597178194671869278e-03,1.253566239029169083e-03,6.174302473664283752e-02,-5.785631481558084488e-03,-2.627730136737227440e-04,3.102589398622512817e-02,1.466549118049442768e-03,-1.022591022774577141e-03,-7.395930006168782711e-04,-1.162973698228597641e-03,1.690204022452235222e-03,-7.209160248748958111e-04,-2.860762760974466801e-04,-3.450923040509223938e-02,-1.298979972489178181e-03,-1.569641870446503162e-03,-2.990707289427518845e-04,6.234630197286605835e-02,-4.439880698919296265e-02,3.003364428877830505e-03,-1.126502989791333675e-03,-9.933635592460632324e-04,2.127556072082370520e-04,-7.410723628709092736e-05,-6.866570329293608665e-04,-7.413990329951047897e-03,-2.403814345598220825e-03,-9.227088303305208683e-04,1.566416583955287933e-03,-1.090370118618011475e-03,-1.651247218251228333e-02,-8.981797727756202221e-04,-1.960857771337032318e-02,-1.112368423491716385e-03,-5.391923477873206139e-04,-2.146862680092453957e-04,-8.630456286482512951e-04,-7.240688428282737732e-04,3.738839877769351006e-03,4.821034148335456848e-03,-1.403613132424652576e-03,-1.212999341078102589e-03,2.450573444366455078e-02,-1.375325373373925686e-03,-4.200397233944386244e-04,4.644155269488692284e-04,-1.184889348223805428e-03,1.215569768100976944e-02,-8.576530963182449341e-04,-5.411143065430223942e-04,-1.000752672553062439e-03,-6.105182226747274399e-03,2.351809106767177582e-02,-8.162570884451270103e-04,-4.641587845981121063e-03,2.268287586048245430e-03,4.033511213492602110e-04,4.645765759050846100e-03,2.371772006154060364e-02,3.312677890062332153e-02,-1.324518118053674698e-03,-8.898164378479123116e-04,5.199132021516561508e-03,3.520767204463481903e-04,-6.553248967975378036e-04,1.940419315360486507e-03,3.417088184505701065e-03,-3.006227081641554832e-03,-1.161232939921319485e-03,-2.057741075986996293e-04,3.935177519451826811e-04,-1.889100763946771622e-03,-1.491614384576678276e-03,-2.545140916481614113e-03,5.083569791167974472e-03,-1.148070674389600754e-03,-2.426149556413292885e-03,1.275491621345281601e-02,-1.829246059060096741e-03,-4.653226118534803391e-03,-1.286012819036841393e-03,4.325173795223236084e-03,8.006741292774677277e-03,8.996726013720035553e-03,-1.223862520419061184e-03,-1.080137793906033039e-03,-1.992029836401343346e-03,4.868807271122932434e-03,-1.093416009098291397e-03,-7.020592456683516502e-04,-3.058705013245344162e-03,-1.240603043697774410e-03,-2.153365639969706535e-03,-1.682455651462078094e-03,-1.064745988696813583e-02,-1.018726732581853867e-03,3.442695830017328262e-03,-1.884032390080392361e-03,-1.603878103196620941e-03,9.522804757580161095e-04,-1.651712111197412014e-03,-1.136419130489230156e-03,4.658636171370744705e-03,1.186098810285329819e-02,-2.290343400090932846e-03,-1.669524353928864002e-03,1.298528537154197693e-02,-1.566092600114643574e-03,-1.292888773605227470e-03,-2.136241178959608078e-03,-1.327950390987098217e-03,7.957952097058296204e-03,-9.596194140613079071e-04,-5.938191316090524197e-04,-1.586708473041653633e-03,-2.749983919784426689e-03,4.406271036714315414e-03,-1.389059470966458321e-03,7.290156558156013489e-03,3.822080418467521667e-02,-7.847451488487422466e-04,-8.308635093271732330e-03,1.413448899984359741e-02,7.457283325493335724e-03,-2.038981998339295387e-03,-1.820816891267895699e-03,-3.868812636937946081e-04,9.255079785361886024e-04,-6.616981117986142635e-04,2.360217832028865814e-02,-1.421033521182835102e-03,1.005635946057736874e-03,-2.117279218509793282e-03,-1.788462250260636210e-04,-1.039235386997461319e-02
1.601149706402793527e-04,2.013002667808905244e-04,1.629163743928074837e-04,9.567414963385090232e-05,1.796911528799682856e-04,9.948447113856673241e-04,8.573364466428756714e-04,7.192389457486569881e-04,-4.924143198877573013e-03,-3.352281055413186550e-04,1.881614699959754944e-02,3.354932740330696106e-02,3.333165659569203854e-05,-7.082809315761551261e-05,4.877831088379025459e-04,5.071269697509706020e-04,3.088382072746753693e-05,2.440928510623052716e-04,-7.415676023811101913e-03,3.349310136400163174e-04,-8.384658140130341053e-04,-9.875140385702252388e-04,6.919594015926122665e-04,4.295884165912866592e-03,1.340132148470729589e-04,-1.298504620790481567e-01,1.850098778959363699e-04,-9.963240008801221848e-04,7.489500567317008972e-03,-3.444585308898240328e-04,-1.060836220858618617e-04,2.852099481970071793e-03,-4.352978989481925964e-02,-1.184830791316926479e-03,-7.389039819827303290e-05,2.907741367816925049e-01,3.602278302423655987e-04,4.781908937729895115e-04,-4.100802761968225241e-04,-4.462336946744471788e-04,7.664276636205613613e-04,4.784295160789042711e-04,2.635908895172178745e-04,-4.646960296668112278e-04,-3.245217492803931236e-03,1.822962239384651184e-02,-2.575708786025643349e-04,9.171945042908191681e-03,2.591176657006144524e-03,1.592844055267050862e-04,6.959291931707412004e-05,1.809081062674522400e-02,1.365287005901336670e-01,1.163842505775392056e-03,-1.757131394697353244e-04,4.111682355869561434e-04,7.485929527319967747e-04,-1.235825475305318832e-04,-1.584394194651395082e-04,-7.692690473049879074e-03,8.476498536765575409e-03,8.363150409422814846e-04,-1.616872032172977924e-04,5.522681167349219322e-04,-2.809148281812667847e-04,-8.169439970515668392e-04,2.457212191075086594e-03,-1.951830490725114942e-04,2.898192266002297401e-03,8.682247425895184278e-05,1.239379122853279114e-01,1.015845569781959057e-03,5.354374181479215622e-03,4.157379269599914551e-03,9.415641427040100098e-03,1.282422691583633423e-01,6.133575807325541973e-04,-5.469274241477251053e-03,-3.150077536702156067e-03,2.145000180462375283e-04,-7.734581013210117817e-04,-1.892979838885366917e-03,-9.389764629304409027e-03,-1.854506088420748711e-03,-1.473646983504295349e-02,-1.478783437050879002e-03,-1.185260829515755177e-03,-3.978031687438488007e-03,8.989371126517653465e-04,1.590565592050552368e-01,2.746528189163655043e-04,-1.367046381346881390e-03,1.045597819029353559e-04,6.873614620417356491e-04,-2.162568998755887151e-04,-5.854148417711257935e-03,-4.101096689701080322e-01,1.851338078267872334e-03,-6.994338473305106163e-04,-5.513107776641845703e-02,-1.039325143210589886e-03,1.478633726947009563e-03,-5.662243929691612720e-04,-2.378713339567184448e-03,1.570704877376556396e-01,3.643977397587150335e-04,6.527692312374711037e-04,-1.309610437601804733e-03,-3.345608711242675781e-02,6.106059998273849487e-03,-1.727857394143939018e-03,-1.228761523962020874e-01,9.025677293539047241e-02,-5.421861540526151657e-03,-1.227993592619895935e-01,-2.306338399648666382e-01,-1.238388270139694214e-01,2.124792896211147308e-03,5.893722642213106155e-03,-4.249377921223640442e-02,5.844143684953451157e-03,2.160711912438273430e-03,-1.831214758567512035e-04,2.171582309529185295e-03,8.648268878459930420e-02,-1.718562125461176038e-04,-2.609065501019358635e-03,3.181279171258211136e-04,4.434611764736473560e-05,8.503958815708756447e-05,1.935313630383461714e-04,2.092992508551105857e-04,1.425405644113197923e-04,5.673044943250715733e-04,8.468757569789886475e-02,6.321810069493949413e-04,-1.568668987601995468e-03,-3.724642738234251738e-04,2.787393331527709961e-02,-5.871765315532684326e-03,-1.085597206838428974e-03,4.133634502068161964e-05,4.961910308338701725e-04,1.919068454299122095e-04,-6.263089017011225224e-04,2.678704040590673685e-04,-7.784258108586072922e-03,4.669717454817146063e-04,-6.115372525528073311e-04,-1.308990060351788998e-03,1.357958390144631267e-04,-4.167696461081504822e-02,1.245705061592161655e-04,5.784779042005538940e-02,1.034467786666937172e-04,-5.344420205801725388e-04,4.945355933159589767e-03,-2.647668588906526566e-04,-1.600611140020191669e-04,4.150825552642345428e-03,-1.461841072887182236e-02,-1.120830536819994450e-03,1.153470802819356322e-04,2.324520610272884369e-02,7.256773824337869883e-05,3.005593898706138134e-04,-3.523979394230991602e-04,1.538540236651897430e-04,1.304754894226789474e-02,4.688494664151221514e-04,3.444979956839233637e-04,-1.901264622574672103e-04,-4.352913238108158112e-03,1.117562595754861832e-02,-1.878662733361124992e-04,1.053082011640071869e-02,-1.102459151297807693e-02,-3.350171755300834775e-05,1.206628326326608658e-02,4.158050753176212311e-03,3.186576068401336670e-02,7.202516426332294941e-04,-1.510540751041844487e-04,-1.361831557005643845e-03,1.516140182502567768e-04,2.545729512348771095e-04,-5.738998297601938248e-04,-6.575805135071277618e-03,1.216846238821744919e-02,5.490948678925633430e-04,-2.664796775206923485e-04,5.952114588581025600e-04,6.806728924857452512e-05,-1.540087396278977394e-04,3.936667053494602442e-05,-2.035184949636459351e-02,-1.536226191092282534e-04,4.595229984261095524e-04,1.275541540235280991e-02,7.982211536727845669e-05,-5.068946629762649536e-03,3.526933141984045506e-04,-2.209115540608763695e-03,2.599981380626559258e-03,5.337785929441452026e-03,7.592568872496485710e-04,-2.832985774148255587e-04,-1.604009652510285378e-03,-1.854015165008604527e-03,-1.442552311345934868e-04,-3.924379125237464905e-03,-1.066561439074575901e-03,-8.599421707913279533e-04,-1.525531755760312080e-03,5.456781946122646332e-04,-2.145852148532867432e-02,4.269816417945548892e-05,4.317235201597213745e-03,-4.916469333693385124e-04,-5.118984263390302658e-04,4.630087409168481827e-03,6.524765194626525044e-05,1.105850824387744069e-04,-2.203296869993209839e-03,6.937140598893165588e-03,-2.172177657485008240e-03,-1.136323116952553391e-04,2.498986199498176575e-03,4.357253492344170809e-04,-7.912471191957592964e-04,-3.746178990695625544e-04,2.664076455403119326e-04,9.870868176221847534e-03,3.005983598995953798e-04,3.698568616528064013e-04,-2.751481952145695686e-04,-3.340371884405612946e-03,-4.122206592001020908e-04,-2.368545625358819962e-03,1.165284495800733566e-02,-5.854823160916566849e-03,7.924443343654274940e-04,4.600324667990207672e-03,1.373789855279028416e-03,-1.644162088632583618e-02,1.239442615769803524e-03,-5.185937625356018543e-04,3.247914719395339489e-04,4.396362928673624992e-04,-1.865776488557457924e-03,1.746573857963085175e-02,-7.858802564442157745e-03,6.794039625674486160e-03,-3.083928604610264301e-04,-2.064260916085913777e-04,-1.699939486570656300e-03
4.664002917706966400e-04,-1.064100884832441807e-03,-4.120694065932184458e-04,5.461092223413288593e-04,1.832149573601782322e-04,9.893416427075862885e-05,-3.462844993919134140e-03,-1.316364738158881664e-03,-2.326569054275751114e-03,-5.270864130579866469e-05,3.161647589877247810e-03,-3.959497436881065369e-02,-2.621515886858105659e-05,-5.550918285734951496e-04,-8.825131808407604694e-04,5.027453298680484295e-04,1.595543726580217481e-04,-7.593936752527952194e-04,6.110187154263257980e-03,-1.984526170417666435e-03,-8.613750105723738670e-05,1.590147148817777634e-03,-1.035472960211336613e-03,-4.462869372218847275e-03,-6.829553167335689068e-04,7.338071614503860474e-02,2.217144792666658759e-04,-3.717541228979825974e-03,-6.198776536621153355e-04,-1.400196109898388386e-03,-2.294488149345852435e-05,-1.698773819953203201e-03,1.479981839656829834e-02,4.489799903240054846e-05,-1.157700549811124802e-03,-2.241032719612121582e-01,-1.515304204076528549e-03,-1.027233200147747993e-03,3.057071007788181305e-04,-9.806695161387324333e-04,-1.887869439087808132e-05,-1.088580116629600525e-03,-6.263865507207810879e-04,-1.542105455882847309e-03,1.544492319226264954e-03,-6.943000014871358871e-03,-1.977927749976515770e-04,-1.715494319796562195e-03,-7.114678737707436085e-04,6.374999647960066795e-04,-1.422551367431879044e-02,-1.707484200596809387e-02,-2.952501550316810608e-02,-1.150158816017210484e-03,-8.811706211417913437e-04,2.475491724908351898e-03,-3.362835850566625595e-04,-4.943863023072481155e-04,1.801240141503512859e-04,-1.237919554114341736e-02,3.622295917011797428e-04,-4.054536111652851105e-05,-6.091639515943825245e-04,-5.010941531509160995e-04,1.463675405830144882e-03,-3.481993218883872032e-03,-3.272000700235366821e-02,2.674506744369864464e-03,1.350715640000998974e-03,3.431978868320584297e-03,-1.162011474370956421e-01,7.586710853502154350e-04,5.701767280697822571e-03,4.461812321096658707e-03,1.561634838581085205e-01,-6.800425052642822266e-02,-4.953567986376583576e-04,-4.135246854275465012e-03,-1.719854772090911865e-03,5.682269111275672913e-04,3.780163533519953489e-04,-4.127366002649068832e-03,1.828654482960700989e-02,1.329421298578381538e-03,-1.765722874552011490e-03,-4.024357069283723831e-03,1.696950173936784267e-03,-1.188990250229835510e-01,-2.538280328735709190e-03,-1.312872469425201416e-01,-5.923560820519924164e-04,-8.851641323417425156e-04,-6.669148802757263184e-02,3.670430160127580166e-04,3.036418056581169367e-04,-3.034500405192375183e-04,-1.072545498609542847e-01,-2.928354311734437943e-03,1.676056883297860622e-03,-4.652184247970581055e-02,1.526560634374618530e-03,-8.720769546926021576e-04,-7.129896548576653004e-04,-1.436630031093955040e-03,1.061764433979988098e-01,9.429636411368846893e-04,1.021630479954183102e-03,2.583917812444269657e-04,-7.723515480756759644e-02,-4.721025377511978149e-02,9.420150890946388245e-03,1.215825323015451431e-02,1.302818804979324341e-01,-4.701195750385522842e-03,-3.260465711355209351e-02,1.293511539697647095e-01,-7.093519717454910278e-02,-2.659856807440519333e-03,1.140888780355453491e-03,9.426292032003402710e-02,-6.349209696054458618e-03,-1.635667635127902031e-03,9.231976582668721676e-04,1.306111067533493042e-01,5.309022590517997742e-02,1.199649341288022697e-04,6.608435884118080139e-03,1.324675627984106541e-03,2.978809643536806107e-04,-9.743611444719135761e-04,-7.669308106414973736e-04,6.751301698386669159e-04,-6.218106136657297611e-05,-4.889333649771288037e-05,2.775064855813980103e-02,-1.240289071574807167e-03,-3.605519887059926987e-03,6.067974754841998219e-05,8.019144646823406219e-03,7.335628382861614227e-03,3.312031913083046675e-04,-5.676273140124976635e-04,-8.458949159830808640e-04,2.656284195836633444e-04,1.107514981413260102e-04,-7.895064773038029671e-04,6.916209124028682709e-03,-1.210054266266524792e-03,1.784441337804310024e-05,1.561346231028437614e-03,-5.723731592297554016e-04,-3.080942668020725250e-02,-6.011669174768030643e-04,8.489708602428436279e-02,-5.063679418526589870e-05,-2.655070042237639427e-03,-2.236049622297286987e-03,-8.265580981969833374e-04,1.373502018395811319e-04,-2.802122384309768677e-03,-1.224570558406412601e-03,-1.085208059521391988e-04,-8.472676272504031658e-04,2.092658542096614838e-02,-1.345443655736744404e-03,-1.215760596096515656e-03,-9.464464528718963265e-05,-8.381083607673645020e-04,-5.166153423488140106e-03,-1.046162447892129421e-03,-7.030480192042887211e-04,-1.137776300311088562e-03,1.913734013214707375e-03,1.373078394681215286e-02,-8.204272307921200991e-05,-5.032951477915048599e-03,-1.152174198068678379e-03,7.631859625689685345e-04,-7.468016119673848152e-04,-8.148779161274433136e-03,8.091850578784942627e-02,-9.131409460678696632e-04,-7.860856712795794010e-04,5.468031857162714005e-03,-3.272448375355452299e-04,-1.285142265260219574e-03,3.408398479223251343e-04,-1.208796165883541107e-02,-4.444433376193046570e-03,-1.432920107617974281e-04,-5.493033095262944698e-04,4.678138066083192825e-05,3.284304111730307341e-04,-1.401544548571109772e-03,-1.565080718137323856e-03,3.012096858583390713e-04,-9.609329281374812126e-04,-9.252878953702747822e-05,6.476047914475202560e-03,-1.483520609326660633e-03,-2.829239936545491219e-03,-9.973715059459209442e-04,3.832898801192641258e-03,3.510405775159597397e-03,-9.411987848579883575e-03,-1.121294102631509304e-03,-1.103630638681352139e-03,-3.160692984238266945e-03,-9.118922986090183258e-03,-1.064581214450299740e-03,1.663036411628127098e-03,-1.504779094830155373e-03,2.962387043226044625e-05,-1.842583646066486835e-03,-9.359358227811753750e-04,-5.481080617755651474e-03,-1.014555222354829311e-03,1.216247119009494781e-02,-1.502588507719337940e-03,-4.635223653167486191e-03,2.195238368585705757e-03,-1.884594559669494629e-03,-8.784251986071467400e-05,-1.185653824359178543e-02,4.281835164874792099e-03,-1.814248389564454556e-04,-1.065102289430797100e-03,5.447490140795707703e-03,-1.656146370805799961e-03,-1.296727336011826992e-03,-2.355366712436079979e-03,-9.267628774978220463e-04,5.008801817893981934e-03,-1.131517812609672546e-03,-1.091021578758955002e-03,-2.279971726238727570e-03,2.807755954563617706e-03,1.311206957325339317e-03,4.803034244105219841e-04,9.553704410791397095e-03,6.025133654475212097e-03,-1.165907829999923706e-03,-8.592566475272178650e-03,1.568323932588100433e-03,9.291546419262886047e-03,-1.524515799246728420e-03,-9.076985297724604607e-04,1.055453531444072723e-02,-3.782006970141083002e-04,-1.051738974638283253e-03,-2.292705699801445007e-03,-2.365650422871112823e-02,-4.211312625557184219e-03,-1.051801606081426144e-03,-6.943320622667670250e-04,-7.843174040317535400e-03
-9.409986436367034912e-03,-5.439306609332561493e-03,-3.053004387766122818e-03,3.500855294987559319e-03,-4.482890944927930832e-03,-9.007020853459835052e-03,1.937437243759632111e-02,-5.235636141151189804e-03,-1.317180320620536804e-02,-4.422795027494430542e-03,-1.624227687716484070e-02,-2.404482513666152954e-01,3.408898832276463509e-03,-4.527485929429531097e-03,-3.410182660445570946e-03,-9.247435256838798523e-03,1.654992927797138691e-03,-4.754814319312572479e-03,-5.731263011693954468e-02,-1.049907598644495010e-02,-4.533615428954362869e-03,-4.467256367206573486e-03,-6.880077999085187912e-03,6.546786054968833923e-03,-4.159290809184312820e-03,-1.723085716366767883e-02,-4.686173982918262482e-03,-1.118325255811214447e-02,-6.674079224467277527e-03,-1.035910379141569138e-02,-4.947205539792776108e-03,-1.427979557774960995e-03,9.975460916757583618e-02,-5.019490607082843781e-03,-6.813806481659412384e-03,-8.358129858970642090e-02,-5.776454228907823563e-03,-3.063345095142722130e-03,-7.897874340415000916e-03,-4.984656814485788345e-03,1.385690271854400635e-02,-3.936931025236845016e-03,-2.825461793690919876e-03,-8.418403565883636475e-03,4.170051310211420059e-03,-2.176410891115665436e-02,-3.688645316287875175e-03,6.587434909306466579e-04,-9.355370886623859406e-03,-4.686366301029920578e-03,-2.120471559464931488e-02,-1.787256263196468353e-02,-5.168346688151359558e-02,-9.059692732989788055e-03,-4.348704125732183456e-03,1.077341474592685699e-02,-2.799202920868992805e-03,-5.796735174953937531e-03,3.637132002040743828e-03,-1.388166937977075577e-02,1.255064923316240311e-02,-5.653943400830030441e-03,-2.829345175996422768e-03,1.558742020279169083e-03,1.242154277861118317e-02,-4.849058110266923904e-03,-4.022820852696895599e-03,8.325312286615371704e-03,3.584950696676969528e-03,1.834746263921260834e-02,-1.140870600938796997e-01,-1.395047060213983059e-03,-3.361625596880912781e-02,3.888458013534545898e-03,-5.388650670647621155e-02,5.021125450730323792e-02,-8.823512122035026550e-03,-6.162685807794332504e-03,-2.104539657011628151e-03,-7.453183643519878387e-03,6.079097744077444077e-03,-2.669525891542434692e-02,1.034949719905853271e-01,7.157351355999708176e-03,-4.278956726193428040e-02,-3.294648136943578720e-03,4.829309880733489990e-03,-5.132678896188735962e-02,1.509175868704915047e-03,7.228448987007141113e-02,-9.824137669056653976e-04,6.353388074785470963e-03,-4.962139204144477844e-02,-5.541391205042600632e-03,-4.407526925206184387e-03,-5.782841704785823822e-03,-1.429015994071960449e-01,-5.189699586480855942e-03,1.598830684088170528e-03,-5.548933520913124084e-02,-1.609327271580696106e-03,3.167471662163734436e-02,2.890407922677695751e-04,-1.206567161716520786e-03,3.483396768569946289e-02,6.854701205156743526e-04,1.279736589640378952e-02,6.104700267314910889e-03,9.770059585571289062e-02,-9.512580186128616333e-02,-3.554183989763259888e-03,1.372643839567899704e-02,-2.830372750759124756e-02,-7.350794505327939987e-03,-8.311707526445388794e-03,-3.576007112860679626e-02,2.766342274844646454e-02,-4.550446290522813797e-03,-1.487836590968072414e-03,-1.661907322704792023e-02,4.143091500736773014e-04,-7.924534380435943604e-03,7.653328590095043182e-03,4.604296758770942688e-02,-9.966190159320831299e-02,8.423214778304100037e-03,-2.270893938839435577e-02,5.298294126987457275e-03,-6.759188603609800339e-03,-5.675794091075658798e-03,-6.185219623148441315e-03,5.978647619485855103e-03,-4.263478796929121017e-03,-7.198787294328212738e-03,-1.314206514507532120e-02,-4.545904695987701416e-03,-1.799767091870307922e-02,-4.260435700416564941e-03,3.422354161739349365e-02,4.057439044117927551e-02,5.795915145426988602e-03,-4.160623531788587570e-03,-3.139682114124298096e-03,-7.366259116679430008e-03,3.216643119230866432e-03,-6.114074494689702988e-03,-2.842343412339687347e-02,-8.125589229166507721e-03,-5.767329595983028412e-03,-5.070195533335208893e-03,-5.184075795114040375e-03,-5.304932128638029099e-03,-3.141810884699225426e-03,4.143768176436424255e-02,-4.420069511979818344e-03,-8.580101653933525085e-03,-7.313603535294532776e-03,-7.544420659542083740e-03,-3.884328296408057213e-03,-1.821992569603025913e-03,2.895295433700084686e-02,-4.826431162655353546e-03,-5.175527185201644897e-03,7.161431014537811279e-02,-5.297102499753236771e-03,-5.182810127735137939e-03,-6.469851359724998474e-03,-3.801797050982713699e-03,2.084913477301597595e-02,-3.489495487883687019e-03,-2.663891296833753586e-03,-6.035846192389726639e-03,-9.477038867771625519e-03,-2.252791076898574829e-02,-3.046262077987194061e-03,2.433041296899318695e-02,2.541726827621459961e-02,-3.984516486525535583e-03,1.192300952970981598e-02,-2.037375047802925110e-02,7.911553233861923218e-02,-6.986406166106462479e-03,-4.065851680934429169e-03,1.435618032701313496e-03,-1.422489527612924576e-03,-6.714274641126394272e-03,6.170008797198534012e-03,-2.878046827390789986e-03,1.846415363252162933e-02,-4.774498287588357925e-03,-2.787147182971239090e-03,3.296763636171817780e-03,-1.155656855553388596e-02,-8.895537815988063812e-03,-1.904624141752719879e-02,3.058885782957077026e-02,-6.029833573848009109e-03,-1.331267505884170532e-02,3.645038977265357971e-02,-7.301631849259138107e-03,-1.495783776044845581e-02,-6.593993399292230606e-03,2.648277021944522858e-02,2.872862480580806732e-02,3.119927598163485527e-03,-5.410006269812583923e-03,-5.002649035304784775e-03,-1.190369948744773865e-02,-2.563845179975032806e-02,-7.375680375844240189e-03,-5.820262245833873749e-03,-1.199790742248296738e-02,-4.734474699944257736e-03,-8.027036674320697784e-03,-7.928409613668918610e-03,1.211192924529314041e-03,-5.404635798186063766e-03,3.258502110838890076e-02,-8.346608839929103851e-03,-1.368521340191364288e-02,-8.134266361594200134e-03,-1.211523823440074921e-02,-6.675630807876586914e-03,-1.628489792346954346e-02,3.326439857482910156e-02,-6.539724767208099365e-03,-7.190679665654897690e-03,3.132675960659980774e-02,-6.415448151528835297e-03,-7.271962240338325500e-03,-1.127882208675146103e-02,-4.272237885743379593e-03,1.668649911880493164e-02,-4.923283588141202927e-03,-4.587944597005844116e-03,-9.470158256590366364e-03,6.475931499153375626e-03,2.460129326209425926e-04,-4.758961498737335205e-03,3.183582425117492676e-02,3.325356915593147278e-02,-5.139448679983615875e-03,-8.456806652247905731e-03,2.806569822132587433e-02,4.141509905457496643e-02,-1.036946009844541550e-02,-6.237119901925325394e-03,1.995133236050605774e-02,-5.747671239078044891e-04,-1.046494022011756897e-02,-9.699740447103977203e-03,-8.032478392124176025e-03,1.921641081571578979e-02,-1.228540763258934021e-02,-3.128513460978865623e-03,-3.299051150679588318e-02
-6.197170820087194443e-03,-3.709218464791774750e-03,-2.933241659775376320e-03,2.298953011631965637e-03,-3.624540753662586212e-03,-6.976104807108640671e-03,7.540786638855934143e-03,-5.638723727315664291e-03,-1.042462512850761414e-02,-3.308743704110383987e-03,-7.253926713019609451e-03,-2.724062204360961914e-01,2.621543128043413162e-03,-3.836754243820905685e-03,-3.132522804662585258e-03,-6.457241252064704895e-03,9.742192341946065426e-04,-2.848295960575342178e-03,-4.678338766098022461e-02,-7.846607826650142670e-03,-1.626485725864768028e-03,-8.659725426696240902e-04,-6.008824333548545837e-03,2.619357081130146980e-03,-2.867996226996183395e-03,-6.812198460102081299e-02,-4.218134097754955292e-03,-8.642303757369518280e-03,-3.112832782790064812e-03,-7.290843874216079712e-03,-3.016933798789978027e-03,-1.467215945012867451e-03,1.050136312842369080e-01,-3.712596604600548744e-03,-4.906529095023870468e-03,-1.797560304403305054e-01,-5.266657564789056778e-03,-1.544142956845462322e-03,-4.124027676880359650e-03,-3.653667168691754341e-03,7.605560123920440674e-03,-3.239947371184825897e-03,-2.194524975493550301e-03,-6.757790688425302505e-03,2.680076984688639641e-03,-9.626836515963077545e-03,-3.849357599392533302e-03,-3.877813869621604681e-04,-8.392209187150001526e-03,-3.946809098124504089e-03,-1.544936373829841614e-02,-3.590434417128562927e-02,-4.762915149331092834e-02,-7.697158958762884140e-03,-3.478330560028553009e-03,6.923344917595386505e-03,-1.281817560084164143e-03,-4.627977963536977768e-03,2.560801338404417038e-03,-5.123456474393606186e-03,-1.964665949344635010e-03,-5.206468049436807632e-03,-1.391186611726880074e-03,7.959319627843797207e-04,7.526104804128408432e-03,-4.800046328455209732e-03,4.292047768831253052e-02,7.726793177425861359e-03,3.663782961666584015e-03,1.412699464708566666e-02,5.913230404257774353e-02,-3.458459861576557159e-03,-1.171987736597657204e-03,6.575183477252721786e-03,2.291149459779262543e-02,2.809564583003520966e-02,-6.066819187253713608e-03,-8.333694189786911011e-03,-8.147247135639190674e-04,-2.414070535451173782e-03,4.340095445513725281e-03,-1.593571901321411133e-02,-1.172410603612661362e-02,5.721126217395067215e-03,-1.707610860466957092e-02,-5.349347367882728577e-03,3.508668858557939529e-03,-2.687264606356620789e-02,-1.743332133628427982e-03,-9.281748533248901367e-02,-4.059687722474336624e-03,3.299619304016232491e-03,-7.994021289050579071e-03,-1.966739539057016373e-03,-2.970242872834205627e-03,-7.263168692588806152e-03,-7.019262015819549561e-02,-1.598043367266654968e-02,-8.683496271260082722e-04,-1.364959031343460083e-01,8.117003017105162144e-04,8.400819264352321625e-03,-1.661411602981388569e-03,-5.561587749980390072e-05,-3.680147975683212280e-02,-1.526786712929606438e-03,8.485776372253894806e-03,3.057027235627174377e-03,-1.925198175013065338e-02,-4.953349381685256958e-02,-2.471524057909846306e-03,-3.939323127269744873e-02,6.376590579748153687e-02,-4.135016817599534988e-03,-4.620115086436271667e-02,1.196310222148895264e-01,8.902395516633987427e-02,-3.289842745289206505e-03,1.170754665508866310e-03,-1.688368804752826691e-02,1.380375865846872330e-02,-6.862664595246315002e-03,6.017492152750492096e-03,-3.123518079519271851e-02,-3.421266004443168640e-02,3.434473183006048203e-03,-3.304389305412769318e-03,5.079333204776048660e-03,-4.487815313041210175e-03,-3.780870465561747551e-03,-4.494941327720880508e-03,3.990914206951856613e-03,-3.316647838801145554e-03,-5.407805088907480240e-03,1.954328268766403198e-02,-4.915096797049045563e-03,-1.053651794791221619e-02,-3.129367250949144363e-03,8.763433247804641724e-02,-4.242865834385156631e-03,5.343232303857803345e-03,-3.694870974868535995e-03,-2.913073869422078133e-03,-5.258793011307716370e-03,2.263105707243084908e-03,-3.498522564768791199e-03,-1.246782112866640091e-02,-6.008348427712917328e-03,-2.274706028401851654e-03,-1.382274320349097252e-03,-4.325397312641143799e-03,-2.345342002809047699e-02,-2.399707445874810219e-03,7.305921614170074463e-02,-4.151033237576484680e-03,-6.500125396996736526e-03,-3.091915277764201164e-03,-5.029162857681512833e-03,-2.143663121387362480e-03,-3.133207093924283981e-03,1.462229341268539429e-02,-3.810886992141604424e-03,-3.719073021784424782e-03,8.020772039890289307e-02,-4.927965812385082245e-03,-2.673021750524640083e-03,-3.927094861865043640e-03,-3.114014631137251854e-03,1.254145614802837372e-02,-3.089340636506676674e-03,-2.020765095949172974e-03,-4.819438327103853226e-03,-3.230370581150054932e-03,2.383465319871902466e-02,-2.998846117407083511e-03,1.349347061477601528e-03,1.655887067317962646e-02,-3.026610706001520157e-03,6.415915675461292267e-03,-9.073120541870594025e-03,1.149710789322853088e-01,-5.850701592862606049e-03,-3.152581164613366127e-03,6.587493699043989182e-03,-6.853540544398128986e-04,-5.326497834175825119e-03,4.858167842030525208e-03,-4.170434083789587021e-03,-5.615274887531995773e-03,-4.410766996443271637e-03,-1.413985271938145161e-03,2.787665231153368950e-03,-8.645431138575077057e-03,-6.000415887683629990e-03,-1.194534357637166977e-02,2.283217757940292358e-02,-4.301262088119983673e-03,-1.019412651658058167e-02,2.542626485228538513e-02,-6.006634328514337540e-03,-1.253749337047338486e-02,-5.077180918306112289e-03,2.137473039329051971e-02,2.055822871625423431e-02,1.318126800470054150e-03,-3.920241259038448334e-03,-3.734361380338668823e-03,-9.912946261465549469e-03,-3.746993839740753174e-03,-4.292373545467853546e-03,-3.374776802957057953e-03,-8.537780493497848511e-03,-1.897518523037433624e-03,-6.342744920402765274e-03,-6.710160057991743088e-03,-6.954014766961336136e-03,-3.581986296921968460e-03,1.926150918006896973e-02,-5.997582338750362396e-03,-1.111474912613630295e-02,-1.917070941999554634e-03,-8.888849988579750061e-03,-3.916408400982618332e-03,-1.633434556424617767e-02,2.381895110011100769e-02,-4.873916506767272949e-03,-5.034639965742826462e-03,2.211922593414783478e-02,-5.564981140196323395e-03,-4.125681705772876740e-03,-9.337272495031356812e-03,-3.455916885286569595e-03,6.928679067641496658e-03,-3.449368290603160858e-03,-3.436156082898378372e-03,-7.844137959182262421e-03,6.570622324943542480e-03,9.090808220207691193e-03,-3.877496114000678062e-03,2.265224419534206390e-02,2.374252490699291229e-02,-4.507827572524547577e-03,8.486529812216758728e-03,1.857328787446022034e-02,3.425284475088119507e-02,-8.722510188817977905e-03,-4.187923856079578400e-03,1.372477877885103226e-02,-4.861393535975366831e-04,-4.922872874885797501e-03,1.326524931937456131e-02,-1.417179405689239502e-02,9.090889245271682739e-03,-9.128810837864875793e-03,-1.563368597999215126e-03,-2.351376041769981384e-02
-2.797234104946255684e-03,-2.127137267962098122e-03,-1.433540601283311844e-03,1.582336262799799442e-03,-2.282313536852598190e-03,-1.407285570167005062e-03,-1.849225908517837524e-02,-2.023365581408143044e-03,3.132609184831380844e-03,-1.578528201207518578e-03,4.532788693904876709e-02,2.218969762325286865e-01,1.625609875191003084e-04,-2.826048061251640320e-03,-1.444800524041056633e-03,-2.145100152119994164e-03,7.983407704159617424e-05,-2.075329888612031937e-03,5.458047613501548767e-02,-5.395022220909595490e-03,-1.860655960626900196e-03,1.501074759289622307e-03,-2.401743084192276001e-03,9.685417637228965759e-03,-1.200524857267737389e-03,1.403906047344207764e-01,-1.435486366972327232e-03,-7.292449008673429489e-03,-2.040774561464786530e-02,-5.786520894616842270e-03,-1.195675460621714592e-03,-6.134609691798686981e-03,-5.221921950578689575e-02,-1.251234090887010098e-03,-1.810392830520868301e-03,-1.425078045576810837e-02,-2.381227677688002586e-03,-3.606865648180246353e-03,-2.210692036896944046e-03,-2.327395835891366005e-03,9.018020704388618469e-03,-2.105763880535960197e-03,-1.587486243806779385e-03,-4.096949473023414612e-03,9.806347079575061798e-03,7.463510148227214813e-03,3.928531659767031670e-04,6.802625488489866257e-03,1.637373864650726318e-02,-9.938094299286603928e-04,-1.046574022620916367e-02,4.849357157945632935e-02,1.114571467041969299e-01,-2.618339611217379570e-03,-2.289192052558064461e-03,1.579722855240106583e-03,-5.110324709676206112e-04,-3.589814295992255211e-03,7.219997351057827473e-04,-2.714445628225803375e-02,-1.160637009888887405e-03,2.756738394964486361e-04,-3.234958741813898087e-03,-1.872346911113709211e-04,8.273283019661903381e-03,-3.328397637233138084e-03,2.288303151726722717e-02,5.608411505818367004e-03,4.434902803041040897e-04,1.334068085998296738e-02,-4.535238444805145264e-01,-6.921644089743494987e-04,-2.092231996357440948e-02,2.627822337672114372e-03,1.310387849807739258e-01,8.041022717952728271e-02,-1.317521091550588608e-03,8.423310355283319950e-04,2.520361915230751038e-03,-3.158626786898821592e-04,1.789437723346054554e-03,2.143545774742960930e-03,-1.903226971626281738e-02,3.651882754638791084e-03,-5.862273392267525196e-04,-5.259669385850429535e-03,1.937234424985945225e-03,-1.385223418474197388e-01,5.004615377401933074e-05,-1.460095047950744629e-01,1.680067973211407661e-03,4.143272526562213898e-03,-6.043808534741401672e-02,-1.149426796473562717e-03,-6.250506266951560974e-03,1.379452738910913467e-02,1.962498389184474945e-02,-1.871776022017002106e-02,-1.338382717221975327e-03,-1.045201569795608521e-01,-1.102858339436352253e-03,-2.359732461627572775e-04,-3.396357642486691475e-04,-1.124556147260591388e-04,1.674099564552307129e-01,2.909425646066665649e-03,-2.418534597381949425e-03,2.623339183628559113e-03,-1.829813607037067413e-02,-3.599845245480537415e-02,1.660206168889999390e-02,-2.409734874963760376e-01,7.354690879583358765e-02,8.026699069887399673e-04,3.132521361112594604e-02,2.826488576829433441e-02,-1.865807622671127319e-01,-7.692411076277494431e-03,2.929511247202754021e-04,1.514255553483963013e-01,-1.299073919653892517e-02,-1.188959926366806030e-02,2.160896547138690948e-03,7.216463983058929443e-02,9.375785291194915771e-02,3.991519100964069366e-03,-2.465029992163181305e-02,1.915804576128721237e-03,-2.012817654758691788e-03,-1.938065281137824059e-03,-1.327725825831294060e-03,2.160223433747887611e-03,-2.020178595557808876e-03,-1.690953504294157028e-03,-5.486772209405899048e-02,-1.854194677434861660e-03,-1.761018484830856323e-02,-1.315363566391170025e-03,-4.512724280357360840e-02,-4.453875869512557983e-02,1.101061934605240822e-04,-2.419843105599284172e-03,-1.428750110790133476e-03,-1.878302427940070629e-03,1.836681622080504894e-04,-2.317843027412891388e-03,1.820946298539638519e-02,-4.051493015140295029e-03,-1.529513276182115078e-03,8.513942593708634377e-04,-1.669416902586817741e-03,-4.683747142553329468e-02,-1.144547481089830399e-03,9.861373156309127808e-02,-1.422030501998960972e-03,-5.484547931700944901e-03,-6.615498568862676620e-03,-3.714192425832152367e-03,-7.029093685559928417e-04,-8.458746597170829773e-03,1.865701563656330109e-02,-1.676719635725021362e-03,-1.271196873858571053e-03,2.301003970205783844e-02,-2.208846155554056168e-03,-4.520109854638576508e-03,-2.437511226162314415e-03,-1.611978048458695412e-03,1.780059654265642166e-03,-1.998642692342400551e-03,-1.582034165039658546e-03,-3.252873197197914124e-03,7.053348235785961151e-04,-1.043188478797674179e-02,7.467288378393277526e-05,2.961162477731704712e-02,2.704580081626772881e-03,-3.760803665500134230e-04,1.840573363006114960e-02,-1.477773860096931458e-02,8.419992774724960327e-02,-1.938500790856778622e-03,-2.088610781356692314e-03,-6.561481393873691559e-03,-7.090351427905261517e-04,-4.776291549205780029e-03,4.827590601053088903e-04,-2.496868744492530823e-02,-8.903830312192440033e-03,-2.179822040488943458e-04,-2.084310399368405342e-03,2.147460763808339834e-04,-4.156655631959438324e-03,-2.684092381969094276e-03,-6.245492957532405853e-03,-3.004731237888336182e-02,-2.944087143987417221e-03,-3.593367757275700569e-03,1.064933743327856064e-02,-4.269573837518692017e-03,-7.152012549340724945e-04,-2.887123497202992439e-03,1.712469384074211121e-02,7.840627804398536682e-03,-3.511015325784683228e-02,-3.134430153295397758e-03,-2.106243977323174477e-03,-5.746546201407909393e-03,-3.643441200256347656e-02,-3.537451382726430893e-03,1.838632300496101379e-02,-6.399624049663543701e-03,-1.999205909669399261e-03,-3.862806363031268120e-03,-2.303745364770293236e-03,-1.228054403327405453e-03,-1.711590099148452282e-03,3.804346174001693726e-02,-2.814276376739144325e-03,-7.827993482351303101e-03,-7.224597036838531494e-03,-7.785942405462265015e-03,-1.620303024537861347e-03,-2.614366263151168823e-02,1.092773675918579102e-02,-3.504357766360044479e-03,-1.827043481171131134e-03,1.335863955318927765e-02,-2.941004233434796333e-03,-5.766436923295259476e-03,-5.364410113543272018e-03,-1.785671222023665905e-03,1.027230545878410339e-02,-2.264312468469142914e-03,-2.951521426439285278e-03,-5.096306558698415756e-03,2.994748298078775406e-03,-5.777330807177349925e-05,-1.807126565836369991e-03,6.387909874320030212e-03,1.335068233311176300e-02,-2.310730749741196632e-03,8.989120833575725555e-03,1.148484367877244949e-02,1.638250239193439484e-02,-3.709239186719059944e-03,-3.392216982319951057e-03,1.087169349193572998e-02,-3.237189375795423985e-04,-2.447122009471058846e-03,-3.940438106656074524e-02,-4.110023751854896545e-02,-3.769443556666374207e-02,-1.543256570585072041e-03,-3.327383194118738174e-03,-1.935380138456821442e-02
-2.710830979049205780e-02,-1.417727209627628326e-02,-1.595038361847400665e-02,9.269115515053272247e-03,-1.435964368283748627e-02,-2.652825973927974701e-02,4.337647557258605957e-02,-2.011467330157756805e-02,-2.502384968101978302e-02,-1.340129692107439041e-02,1.865096390247344971e-02,-3.248157203197479248e-01,9.733088314533233643e-03,-1.390898134559392929e-02,-1.371285505592823029e-02,-2.533628977835178375e-02,6.140695884823799133e-03,-1.133097521960735321e-02,-9.278485178947448730e-02,-3.049162402749061584e-02,-1.439946517348289490e-02,-1.860389672219753265e-02,-2.242778241634368896e-02,2.522981539368629456e-02,-1.455604564398527145e-02,-4.239515215158462524e-02,-1.472754403948783875e-02,-2.918160893023014069e-02,-4.130763933062553406e-03,-2.918483689427375793e-02,-1.640353724360466003e-02,-6.270066369324922562e-03,-8.120616525411605835e-02,-1.725306361913681030e-02,-2.120947651565074921e-02,9.192165732383728027e-02,-1.768712326884269714e-02,-7.428879383951425552e-03,-2.579997852444648743e-02,-1.576156355440616608e-02,3.018290176987648010e-02,-1.418494060635566711e-02,-1.139546744525432587e-02,-2.701976522803306580e-02,1.888699829578399658e-02,1.318361237645149231e-02,-1.815119944512844086e-02,2.338967472314834595e-02,1.422265660949051380e-03,-1.742176711559295654e-02,-2.802154049277305603e-02,3.640440851449966431e-02,3.223570436239242554e-02,-2.429733797907829285e-02,-1.664882153272628784e-02,2.729094587266445160e-02,-1.157429069280624390e-02,-1.556393224745988846e-02,1.110925432294607162e-02,-2.842389233410358429e-02,-1.284059137105941772e-02,-2.105579152703285217e-02,-1.069195941090583801e-02,4.873780068010091782e-03,2.268031798303127289e-02,-5.777182057499885559e-03,1.666039228439331055e-02,5.994427017867565155e-03,4.777767229825258255e-03,3.462188690900802612e-02,6.245483085513114929e-02,7.563991937786340714e-03,-1.140647218562662601e-03,-2.374164760112762451e-03,-6.417423952370882034e-03,-9.071484208106994629e-02,-2.279533445835113525e-02,-7.877103984355926514e-03,4.718356300145387650e-03,-2.753691002726554871e-02,1.855147443711757660e-02,2.468111691996455193e-03,2.889045281335711479e-03,1.293396856635808945e-02,3.438644856214523315e-02,-1.347487093880772591e-03,9.330337867140769958e-03,8.108527213335037231e-02,4.388259723782539368e-03,1.161280646920204163e-01,2.719537587836384773e-03,2.047312818467617035e-02,-1.086117401719093323e-01,-2.029496617615222931e-02,5.440816166810691357e-04,-1.197264716029167175e-02,-2.074882388114929199e-02,-9.158160537481307983e-03,-1.488964818418025970e-02,-5.219252407550811768e-02,1.564733684062957764e-02,6.713031977415084839e-02,1.749970205128192902e-02,-2.679414348676800728e-03,-1.767015084624290466e-02,1.390075543895363808e-03,-3.978673368692398071e-03,1.133235823363065720e-02,4.253160208463668823e-02,4.769321996718645096e-03,-1.007151789963245392e-02,-4.566738754510879517e-02,3.444332629442214966e-02,-4.954206291586160660e-03,8.702360093593597412e-02,-9.983389824628829956e-02,1.373343616724014282e-01,4.007004201412200928e-03,-5.663604941219091415e-03,-4.269004240632057190e-02,-1.719017396681010723e-03,-1.167570147663354874e-02,2.162890695035457611e-02,-5.291508883237838745e-02,-8.378858119249343872e-02,2.861166186630725861e-02,-5.840465426445007324e-02,1.798894815146923065e-02,-2.108052745461463928e-02,-1.581967808306217194e-02,-1.054512057453393936e-02,1.289286743849515915e-02,-1.290818490087985992e-02,-2.396362647414207458e-02,-1.258214656263589859e-02,-1.634578220546245575e-02,-4.011004790663719177e-02,-1.275707129389047623e-02,5.606386810541152954e-02,-4.547240957617759705e-02,1.508515793830156326e-02,-1.250856276601552963e-02,-1.182082574814558029e-02,-2.091505937278270721e-02,9.096539579331874847e-03,-1.508570555597543716e-02,-4.973499104380607605e-02,-2.443854883313179016e-02,-1.810399070382118225e-02,-1.980307698249816895e-02,-1.789333857595920563e-02,-9.138064458966255188e-03,-1.155515946447849274e-02,-7.474422920495271683e-03,-1.398788392543792725e-02,-2.321830019354820251e-02,-1.266155391931533813e-02,-2.210395596921443939e-02,-1.472540013492107391e-02,-6.623335182666778564e-03,7.332781702280044556e-02,-1.778188906610012054e-02,-1.745576970279216766e-02,1.132712233811616898e-02,-1.611809991300106049e-02,-1.270340289920568466e-02,-2.089821919798851013e-02,-1.370738539844751358e-02,8.993073366582393646e-03,-1.131659373641014099e-02,-1.311004813760519028e-02,-2.183033525943756104e-02,-2.303229831159114838e-02,1.074278820306062698e-02,-1.556289289146661758e-02,7.640903443098068237e-02,5.348641052842140198e-02,-1.393111888319253922e-02,4.571766778826713562e-02,5.117892101407051086e-02,1.019616499543190002e-01,-1.974788866937160492e-02,-1.345031801611185074e-02,-2.433352544903755188e-02,-8.208682760596275330e-03,-1.815843954682350159e-02,1.704029366374015808e-02,-2.066919393837451935e-02,5.297332070767879486e-03,-1.970243453979492188e-02,-1.232849527150392532e-02,8.351053111255168915e-03,-3.462116420269012451e-02,-2.056062035262584686e-02,-7.296133786439895630e-02,3.840209217742085457e-03,-2.040909789502620697e-02,-3.938193246722221375e-02,7.473746687173843384e-02,-2.675296179950237274e-02,-1.811785064637660980e-02,-2.298690006136894226e-02,8.979155123233795166e-02,6.547670066356658936e-02,-1.169094722718000412e-02,-1.695381104946136475e-02,-1.946470327675342560e-02,-3.381798043847084045e-02,-6.167232245206832886e-02,-1.716599240899085999e-02,1.275963988155126572e-02,-3.211865574121475220e-02,-1.542454119771718979e-02,-2.973079867660999298e-02,-2.528927847743034363e-02,1.554160099476575851e-02,-1.723020523786544800e-02,6.037274748086929321e-02,-2.518472820520401001e-02,-3.340310975909233093e-02,-8.609635755419731140e-03,-3.461245447397232056e-02,-2.262781001627445221e-02,-3.477393835783004761e-02,8.479915559291839600e-02,-2.699686400592327118e-02,-2.454840205609798431e-02,8.211571723222732544e-02,-1.979244127869606018e-02,-1.449209265410900116e-02,-3.006438538432121277e-02,-1.591771468520164490e-02,5.130703002214431763e-02,-1.855603046715259552e-02,-1.775242574512958527e-02,-3.012236393988132477e-02,3.163839131593704224e-02,4.039387777447700500e-02,-2.488773316144943237e-02,8.930099755525588989e-02,4.750266671180725098e-02,-2.025188691914081573e-02,-2.297005848959088326e-03,7.682929188013076782e-02,8.880213648080825806e-02,-2.725189737975597382e-02,-2.367739006876945496e-02,5.522734299302101135e-02,-7.456204388290643692e-03,-1.210273616015911102e-02,1.776986755430698395e-02,2.225161995738744736e-03,2.781610377132892609e-02,-3.876435384154319763e-02,-1.523233577609062195e-02,-7.753649353981018066e-02
-9.047398343682289124e-03,-2.859708853065967560e-03,-5.023858044296503067e-03,2.714671660214662552e-03,-3.265566192567348480e-03,-8.585130795836448669e-03,1.781429350376129150e-02,-1.850483473390340805e-03,-1.059836521744728088e-02,-2.346016000956296921e-03,-5.095657706260681152e-02,-1.711755990982055664e-01,3.277863608673214912e-03,-3.028138075023889542e-03,-1.655020634643733501e-03,-6.734960246831178665e-03,3.124556969851255417e-04,-1.900591421872377396e-03,-4.739568755030632019e-02,-9.317671880125999451e-03,-3.499142592772841454e-03,-5.861435201950371265e-04,-3.664674703031778336e-03,1.341347768902778625e-02,-3.006512299180030823e-03,-1.281281709671020508e-01,-2.998953219503164291e-03,-6.519843824207782745e-03,-1.834437064826488495e-02,-7.615198846906423569e-03,-3.871967783197760582e-03,5.582282319664955139e-03,-1.649273186922073364e-02,-3.671227023005485535e-03,-3.376297419890761375e-03,8.094024658203125000e-02,-2.764382865279912949e-03,-1.248286920599639416e-03,-5.056007765233516693e-03,-2.861173357814550400e-03,6.956205237656831741e-03,-1.909936196170747280e-03,-1.806881860829889774e-03,-6.057403516024351120e-03,3.337766276672482491e-03,-2.723662368953227997e-02,-1.965395640581846237e-03,-1.016807742416858673e-03,-1.860540732741355896e-02,-2.466765232384204865e-03,-1.695857942104339600e-02,1.040879986248910427e-03,-1.368102133274078369e-01,-5.295490380376577377e-03,-2.391048939898610115e-03,1.502169761806726456e-02,6.530238897539675236e-04,-3.235823707655072212e-03,3.510384587571024895e-03,1.859305426478385925e-02,1.432857755571603775e-02,-4.552496597170829773e-03,-7.290261564776301384e-04,1.963729504495859146e-03,4.136011935770511627e-03,-5.700294859707355499e-03,2.159531787037849426e-02,7.505270652472972870e-03,3.131844103336334229e-03,7.209068629890680313e-03,1.685593128204345703e-01,1.281605567783117294e-03,-4.254109039902687073e-02,1.004419522359967232e-03,-3.540323972702026367e-01,6.111323460936546326e-02,-8.736307732760906219e-03,-6.597829051315784454e-03,-6.918197497725486755e-03,-3.288706298917531967e-03,4.688814748078584671e-03,5.007575266063213348e-03,-5.352631211280822754e-02,6.591629935428500175e-04,-2.177698537707328796e-02,-5.053278058767318726e-03,4.736078903079032898e-03,9.156612306833267212e-02,6.750871893018484116e-03,4.732000231742858887e-01,1.202764222398400307e-03,5.498235259437933564e-05,1.359174847602844238e-01,2.763306256383657455e-04,-6.966708227992057800e-03,-1.807848177850246429e-02,7.076925784349441528e-02,3.732580924406647682e-03,-4.174950066953897476e-03,-5.664709955453872681e-02,2.177544170990586281e-03,6.818752270191907883e-03,-3.494252683594822884e-03,-4.263147711753845215e-03,5.250163376331329346e-02,3.064697608351707458e-03,1.770717836916446686e-02,5.471825134009122849e-04,1.849523335695266724e-01,-1.594056785106658936e-01,6.527920777443796396e-05,9.357438236474990845e-02,-1.753137707710266113e-01,-1.199577469378709793e-02,-1.998152732849121094e-01,-1.091256290674209595e-01,3.735423684120178223e-01,-2.212891995441168547e-04,-2.681532350834459066e-04,-1.164862290024757385e-01,9.371855296194553375e-03,9.107026271522045135e-04,7.696352899074554443e-03,-1.600184291601181030e-01,-1.727715134620666504e-01,2.796185202896595001e-03,8.661425672471523285e-03,3.310984699055552483e-03,-6.110969465225934982e-03,-2.742062089964747429e-03,-5.864139646291732788e-03,5.723125301301479340e-03,-2.909651724621653557e-03,-5.911741871386766434e-03,-2.532767597585916519e-03,-1.596117857843637466e-03,-9.037239477038383484e-03,-2.135881455615162849e-03,2.615179121494293213e-02,-2.555497176945209503e-02,6.068801041692495346e-03,-2.608464565128087997e-03,-1.505898660980165005e-03,-5.057182163000106812e-03,2.105991821736097336e-03,-2.134723821654915810e-03,-2.242235839366912842e-02,-6.994718220084905624e-03,-3.565820865333080292e-03,-2.600551233626902103e-04,-2.763179363682866096e-03,3.424109518527984619e-02,-1.942628296092152596e-03,-1.251779943704605103e-01,-2.578973537310957909e-03,-4.924452863633632660e-03,-8.090351708233356476e-03,-5.458052270114421844e-03,-3.088285913690924644e-03,9.358019568026065826e-03,1.493612676858901978e-02,-3.440017113462090492e-03,-2.178010297939181328e-03,3.307969123125076294e-02,-2.512328093871474266e-03,-1.533621922135353088e-03,-3.066000295802950859e-03,-2.145130885764956474e-03,2.751105837523937225e-02,-1.767655950970947742e-03,-1.620406517758965492e-03,-4.107925575226545334e-03,-5.359162110835313797e-03,-2.193010039627552032e-02,-1.448605093173682690e-03,2.066614106297492981e-02,1.175816450268030167e-02,-2.051593270152807236e-03,-3.163574729114770889e-03,2.968034148216247559e-02,5.451018363237380981e-02,-3.980306442826986313e-03,-2.230670070275664330e-03,1.907194592058658600e-02,2.113156253471970558e-03,-3.875535214319825172e-03,6.266570184379816055e-03,1.302467659115791321e-02,2.156356349587440491e-02,-3.906661644577980042e-03,-6.846794276498258114e-04,3.270707093179225922e-03,-1.086606178432703018e-02,-5.491680931299924850e-03,-1.546348910778760910e-02,5.504085868597030640e-02,-4.363120067864656448e-03,-1.236825902014970779e-02,3.165660053491592407e-02,-3.186814952641725540e-03,-1.142344251275062561e-02,-4.313695244491100311e-03,1.558005996048450470e-02,1.861030980944633484e-02,3.441825136542320251e-02,-3.683248534798622131e-03,-1.999519066885113716e-03,-8.261030539870262146e-03,1.323054078966379166e-02,-3.018131945282220840e-03,-5.898998584598302841e-03,-1.068061869591474533e-02,-3.417413448914885521e-03,-5.483675748109817505e-03,-4.163147881627082825e-03,1.148505229502916336e-02,-4.106625914573669434e-03,-2.939759055152535439e-03,-4.733545705676078796e-03,-9.388731792569160461e-03,-7.516340818256139755e-03,-8.637402206659317017e-03,-5.491301883012056351e-03,1.004324201494455338e-02,2.552359364926815033e-02,-3.023281693458557129e-03,-3.678936278447508812e-03,2.303165383636951447e-02,-3.058036556467413902e-03,-2.140514785423874855e-03,-7.957150228321552277e-03,-2.432752633467316628e-03,1.280109770596027374e-02,-2.264950424432754517e-03,-2.576953731477260590e-03,-6.541090551763772964e-03,5.939978640526533127e-03,-3.882693359628319740e-03,-2.738722600042819977e-03,2.589811384677886963e-02,2.241357043385505676e-02,-2.626460744068026543e-03,-5.362654919736087322e-04,2.863271161913871765e-02,4.395263269543647766e-02,-6.018533371388912201e-03,-3.556868992745876312e-03,2.498337067663669586e-02,3.128229640424251556e-03,-4.791861865669488907e-03,3.199208527803421021e-02,3.300556540489196777e-02,4.278441146016120911e-02,-8.003056049346923828e-03,-8.279778412543237209e-04,-2.011671662330627441e-02
-1.556781004182994366e-03,-1.957444474101066589e-03,-6.098483689129352570e-03,1.099318847991526127e-03,-1.439053914509713650e-03,-2.103215549141168594e-03,-1.685654744505882263e-03,-2.840695902705192566e-03,-5.318185314536094666e-03,-1.432065037079155445e-03,-2.850140258669853210e-02,-1.258594393730163574e-01,8.416985510848462582e-04,-1.700313412584364414e-03,-1.601553754881024361e-03,-7.381241885013878345e-04,1.948268618434667587e-04,-1.356021733954548836e-03,-1.531852874904870987e-02,-3.459778614342212677e-03,-5.252934643067419529e-04,2.305274363607168198e-03,-2.515320666134357452e-03,-2.427720930427312851e-03,-1.345224562101066113e-03,5.670643597841262817e-02,-6.691844318993389606e-04,-5.247036926448345184e-03,-1.994332764297723770e-03,-3.002014243975281715e-03,-7.121711969375610352e-04,4.868911055382341146e-04,2.779199182987213135e-02,-1.697378815151751041e-03,-2.062756568193435669e-03,-2.256697267293930054e-01,-2.688026754185557365e-03,-7.601459510624408722e-04,1.449498086003586650e-04,-1.757448306307196617e-03,2.634004689753055573e-03,-1.742314081639051437e-03,-1.100517692975699902e-03,-2.910066861659288406e-03,-1.541328500024974346e-03,-1.201759930700063705e-02,-8.743744692765176296e-04,-1.037027221173048019e-03,-5.371351260691881180e-03,-3.781197592616081238e-04,-1.244372222572565079e-02,-2.563191205263137817e-02,-1.271698623895645142e-01,-3.907923586666584015e-03,-1.485517947003245354e-03,5.840623285621404648e-03,1.277661212952807546e-04,-1.776460208930075169e-03,9.641579817980527878e-04,-4.233691375702619553e-03,3.274251706898212433e-03,-2.663843333721160889e-03,-7.513005984947085381e-04,-4.634356009773910046e-04,1.424837857484817505e-03,-5.223056767135858536e-03,-1.909011974930763245e-02,4.333627875894308090e-03,2.903408603742718697e-03,4.058764316141605377e-03,8.406695723533630371e-02,-9.553650743328034878e-04,1.808916404843330383e-02,7.068810518831014633e-03,-6.183997169137001038e-02,1.159223448485136032e-02,-3.169525880366563797e-03,-6.797158624976873398e-03,-2.087855013087391853e-03,-7.571791647933423519e-04,1.430392032489180565e-03,-1.185537315905094147e-03,-2.742093615233898163e-02,1.591683947481215000e-03,-2.577394014224410057e-03,-4.434740636497735977e-03,1.797420205548405647e-03,-3.612533211708068848e-02,-2.124288119375705719e-03,-1.051148958504199982e-02,-3.697997890412807465e-03,-1.375052146613597870e-03,-2.852054126560688019e-02,1.293719513341784477e-03,2.697737654671072960e-04,-7.907815277576446533e-03,-8.964111655950546265e-02,-1.114858966320753098e-02,-2.098408294841647148e-03,-2.467432469129562378e-01,1.628334517590701580e-03,8.935782127082347870e-03,-1.692807185463607311e-03,-5.242427578195929527e-04,7.287795096635818481e-02,-9.882770245894789696e-04,5.978604312986135483e-03,2.099931007251143456e-04,-4.190004244446754456e-02,1.876934804022312164e-02,4.327413626015186310e-04,-1.291202455759048462e-01,3.453800454735755920e-02,-4.716979805380105972e-03,-1.482884436845779419e-01,6.936928629875183105e-02,1.042119115591049194e-01,-1.265880418941378593e-03,6.557573797181248665e-04,-1.212440710514783859e-02,1.785026164725422859e-03,-2.658862853422760963e-03,3.133398480713367462e-03,5.032799765467643738e-02,7.156783342361450195e-02,-5.471942713484168053e-04,-3.393938299268484116e-03,3.025178099051117897e-03,-7.375074783340096474e-04,-1.878415583632886410e-03,-3.029896877706050873e-03,1.898341230116784573e-03,-1.255085458979010582e-03,-1.257350435480475426e-03,6.212189327925443649e-05,-2.374240662902593613e-03,-2.400288358330726624e-03,-1.009064959362149239e-03,8.883222937583923340e-02,-4.519760608673095703e-02,2.886035712435841560e-03,-1.618489273823797703e-03,-1.474537770263850689e-03,-9.677129564806818962e-04,4.120250232517719269e-04,-1.448051887564361095e-03,1.769578433595597744e-03,-2.552018733695149422e-03,-6.952474359422922134e-04,2.017504535615444183e-03,-1.753574353642761707e-03,-2.157291211187839508e-02,-1.213133102282881737e-03,1.377912797033786774e-02,-1.353297731839120388e-03,-3.847673535346984863e-03,1.043235068209469318e-03,-1.905477722175419331e-03,-3.948026278521865606e-04,-4.149815940763801336e-04,-1.502254162915050983e-04,-1.775368349626660347e-03,-1.539902645163238049e-03,4.553551971912384033e-02,-2.484459429979324341e-03,-1.062263501808047295e-03,-9.406598983332514763e-04,-1.577934366650879383e-03,1.847613416612148285e-02,-1.675621373578906059e-03,-1.027504680678248405e-03,-2.042238833382725716e-03,-2.309032715857028961e-03,2.079757675528526306e-02,-5.233574775047600269e-04,8.600896224379539490e-03,8.950183168053627014e-03,2.237399748992174864e-04,-6.886450573801994324e-03,1.556042581796646118e-02,1.238851472735404968e-01,-2.798827597871422768e-03,-1.321647083386778831e-03,1.146396063268184662e-02,6.050328374840319157e-04,-2.728855703026056290e-03,2.143139252439141273e-03,-2.425736980512738228e-03,2.580845728516578674e-03,-2.084106439724564552e-03,-5.322592332959175110e-04,7.328767678700387478e-04,-2.561920788139104843e-03,-2.723505720496177673e-03,-5.226707551628351212e-03,1.755624264478683472e-02,-2.065538195893168449e-03,-3.668441670015454292e-03,1.199336536228656769e-02,-2.178030088543891907e-03,-6.200301926583051682e-03,-2.407842315733432770e-03,8.929682895541191101e-03,1.003432460129261017e-02,8.756272494792938232e-03,-1.724380417726933956e-03,-1.687014591880142689e-03,-5.277074873447418213e-03,-1.415255130268633366e-03,-1.702863024547696114e-03,-1.875304384157061577e-03,-3.481680294498801231e-03,-3.942769253626465797e-04,-3.253197297453880310e-03,-2.853957004845142365e-03,3.573154332116246223e-03,-1.964483642950654030e-03,5.210738629102706909e-03,-2.789529738947749138e-03,-6.680260412395000458e-03,1.566670136526226997e-03,-3.512536408379673958e-03,-1.498627709224820137e-03,-9.627042338252067566e-03,1.227956265211105347e-02,-9.799351682886481285e-04,-2.068613190203905106e-03,8.490240201354026794e-03,-2.813103841617703438e-03,-1.207031891681253910e-03,-4.600106272846460342e-03,-1.763403066433966160e-03,2.978552365675568581e-03,-1.719087245874106884e-03,-1.983796013519167900e-03,-3.439383348450064659e-03,-3.668972931336611509e-04,3.838406177237629890e-03,-9.441925794817507267e-05,1.761092990636825562e-02,2.962303906679153442e-02,-2.264550188556313515e-03,2.424496226012706757e-03,1.409161463379859924e-02,1.843715645372867584e-02,-4.515987820923328400e-03,-1.514419680461287498e-03,1.499020401388406754e-02,4.949988215230405331e-04,-2.264603041112422943e-03,1.935449242591857910e-02,-7.673976942896842957e-03,1.527833100408315659e-02,-3.877846524119377136e-03,-6.693872855976223946e-04,-1.053776405751705170e-02
-2.114855870604515076e-02,-1.055983267724514008e-02,-7.775669917464256287e-03,7.040319498628377914e-03,-1.085543818771839142e-02,-2.101268246769905090e-02,4.925178736448287964e-02,-1.485507655888795853e-02,-2.385487034916877747e-02,-9.884941391646862030e-03,1.209616288542747498e-02,-2.670813798904418945e-01,7.957704365253448486e-03,-1.058309711515903473e-02,-9.330165572464466095e-03,-2.019168250262737274e-02,4.956628195941448212e-03,-8.566986769437789917e-03,-5.553890019655227661e-02,-2.417814172804355621e-02,-1.005576457828283310e-02,-1.443054154515266418e-02,-1.733337156474590302e-02,2.155304700136184692e-02,-1.035741437226533890e-02,-1.395548582077026367e-01,-1.061385963112115860e-02,-2.348025888204574585e-02,-2.347128465771675110e-02,-2.299707010388374329e-02,-1.204431802034378052e-02,-1.919401693157851696e-03,-2.771290019154548645e-02,-1.211608480662107468e-02,-1.629943028092384338e-02,-1.616387814283370972e-02,-1.327735651284456253e-02,-5.297772120684385300e-03,-2.030206285417079926e-02,-1.271586585789918900e-02,2.041022665798664093e-02,-1.001208182424306870e-02,-7.905208505690097809e-03,-2.152782306075096130e-02,1.216954924166202545e-02,-4.389768838882446289e-02,-1.526118069887161255e-02,8.181675337255001068e-03,1.267567393369972706e-03,-1.221164874732494354e-02,-2.015189267694950104e-02,4.375386517494916916e-03,-7.760044932365417480e-02,-1.918395794928073883e-02,-1.232186146080493927e-02,2.475263550877571106e-02,-9.470259770750999451e-03,-1.212041638791561127e-02,8.386544883251190186e-03,-2.129706554114818573e-02,2.376043982803821564e-02,-1.599595323204994202e-02,-9.167123585939407349e-03,3.525620326399803162e-03,1.935750618577003479e-02,2.275238744914531708e-03,4.874297976493835449e-02,2.423039823770523071e-02,4.630928859114646912e-03,3.124739043414592743e-02,1.305961515754461288e-03,1.933600986376404762e-03,2.263130620121955872e-02,1.562251010909676552e-03,1.361710485070943832e-02,5.667352676391601562e-02,-1.764075830578804016e-02,-7.375191897153854370e-03,-1.724590663798153400e-03,-2.133979089558124542e-02,1.446594484150409698e-02,1.166450791060924530e-02,-1.080735698342323303e-01,1.043053530156612396e-02,-6.420090049505233765e-02,-5.731460638344287872e-03,5.360207054764032364e-03,-1.901718229055404663e-02,3.521655686199665070e-03,-7.550286501646041870e-02,9.773055789992213249e-04,1.634339801967144012e-02,6.837311387062072754e-02,-1.487375237047672272e-02,-8.723248611204326153e-04,-1.448831707239151001e-02,5.671195685863494873e-02,-1.445332018192857504e-04,2.627620124258100986e-04,2.594321407377719879e-02,2.802736416924744844e-04,-2.629153663292527199e-03,1.126140821725130081e-02,-1.907134661450982094e-03,7.469006627798080444e-02,1.877928385511040688e-03,2.562896907329559326e-02,1.057462766766548157e-02,2.778005599975585938e-02,-1.018537301570177078e-02,1.396832801401615143e-02,5.356244742870330811e-02,-4.233797267079353333e-02,-5.523393861949443817e-03,5.321194231510162354e-02,-1.195971071720123291e-01,1.039127632975578308e-01,-1.202861126512289047e-02,-7.860943878768011928e-05,3.301309794187545776e-02,-8.182760328054428101e-03,-3.416283754631876945e-03,1.611831970512866974e-02,2.152369730174541473e-02,-1.056885570287704468e-01,2.303726784884929657e-02,-2.920649386942386627e-02,1.316494587808847427e-02,-1.603123359382152557e-02,-1.181695796549320221e-02,-1.164954900741577148e-02,1.094696670770645142e-02,-9.835346601903438568e-03,-1.819214038550853729e-02,4.677079617977142334e-02,-1.204575970768928528e-02,-3.929946199059486389e-02,-9.571460075676441193e-03,2.616500295698642731e-02,6.373099982738494873e-03,1.196805480867624283e-02,-9.556676261126995087e-03,-8.155507966876029968e-03,-1.645302027463912964e-02,7.470690179616212845e-03,-1.172483433037996292e-02,-6.046136841177940369e-02,-1.905163377523422241e-02,-1.076685171574354172e-02,-1.552433054894208908e-02,-1.391594484448432922e-02,9.200128726661205292e-03,-8.033731952309608459e-03,1.303336489945650101e-02,-1.018195226788520813e-02,-1.847796328365802765e-02,-3.485554456710815430e-02,-1.723073795437812805e-02,-1.025358587503433228e-02,-2.120295073837041855e-03,6.160281598567962646e-02,-1.248353905975818634e-02,-1.296342164278030396e-02,1.057976931333541870e-01,-1.201934274286031723e-02,-9.630138985812664032e-03,-1.635155826807022095e-02,-9.608369320631027222e-03,4.474146664142608643e-02,-8.233414031565189362e-03,-8.627648465335369110e-03,-1.634741574525833130e-02,-2.152728661894798279e-02,2.029370330274105072e-02,-1.234242878854274750e-02,6.583718210458755493e-02,4.103302955627441406e-02,-9.990714490413665771e-03,3.882870078086853027e-02,-9.095521643757820129e-03,-2.869160147383809090e-03,-1.532494742423295975e-02,-1.136970240622758865e-02,4.422066733241081238e-03,-6.483071018010377884e-03,-1.401848252862691879e-02,1.346719823777675629e-02,-5.372135899960994720e-03,1.841838657855987549e-02,-1.425406895577907562e-02,-8.959609083831310272e-03,6.329027004539966583e-03,-2.692602947354316711e-02,-1.611813902854919434e-02,-3.817767649888992310e-02,-1.330495928414165974e-03,-1.519219018518924713e-02,-3.126443922519683838e-02,6.832326948642730713e-02,-2.095951698720455170e-02,-2.255573123693466187e-02,-1.743009313941001892e-02,6.876847892999649048e-02,5.709269642829895020e-02,-4.512806888669729233e-03,-1.268958207219839096e-02,-1.383404247462749481e-02,-2.642466686666011810e-02,-2.620538137853145599e-02,-1.351614668965339661e-02,2.415647613815963268e-04,-2.645171433687210083e-02,-1.015401352196931839e-02,-1.846560463309288025e-02,-1.962890103459358215e-02,1.907693967223167419e-02,-1.276595704257488251e-02,5.958253890275955200e-02,-2.060264535248279572e-02,-2.821775153279304504e-02,-1.352456025779247284e-02,-2.749314531683921814e-02,-1.671656407415866852e-02,-2.065630815923213959e-02,6.545187532901763916e-02,-1.907278969883918762e-02,-1.849373430013656616e-02,6.380069255828857422e-02,-1.500730961561203003e-02,-1.253273058682680130e-02,-2.520934119820594788e-02,-1.121945679187774658e-02,2.739192731678485870e-02,-1.301169022917747498e-02,-1.348920445889234543e-02,-2.373015135526657104e-02,2.269176021218299866e-02,1.476588286459445953e-02,-2.196258679032325745e-02,5.471177026629447937e-02,1.477528084069490433e-02,-1.397874578833580017e-02,9.497385472059249878e-04,5.134535208344459534e-02,6.373181194067001343e-02,-2.171966992318630219e-02,-2.248205989599227905e-02,4.602728411555290222e-02,-5.031228531152009964e-03,-2.584320306777954102e-02,-9.195621823891997337e-04,-8.391479030251502991e-03,3.226586431264877319e-02,-3.069731406867504120e-02,-1.114253699779510498e-02,-2.991251833736896515e-02
-2.900917828083038330e-02,-1.623622141778469086e-02,-7.326257880777120590e-03,1.017556060105562210e-02,-1.596100069582462311e-02,-3.027478791773319244e-02,5.696134641766548157e-02,-2.338081412017345428e-02,-2.568616904318332672e-02,-1.638322323560714722e-02,4.235820472240447998e-02,4.832536354660987854e-02,1.011637225747108459e-02,-1.582759618759155273e-02,-1.640531979501247406e-02,-2.770795486867427826e-02,6.939587183296680450e-03,-1.299798302352428436e-02,-6.054932996630668640e-02,-3.342632204294204712e-02,-1.768981851637363434e-02,-2.072514779865741730e-02,-2.535814605653285980e-02,3.139109537005424500e-02,-1.719749905169010162e-02,-3.845017403364181519e-02,-1.661794818937778473e-02,-3.270145878195762634e-02,-6.548041105270385742e-02,-3.205210715532302856e-02,-1.895384304225444794e-02,-5.962389986962080002e-03,-7.207021117210388184e-02,-1.993516460061073303e-02,-2.423458918929100037e-02,-1.269762068986892700e-01,-2.014261670410633087e-02,-8.291390724480152130e-03,-2.802910096943378448e-02,-2.081465348601341248e-02,4.526393115520477295e-02,-1.721802726387977600e-02,-1.464253477752208710e-02,-2.948616072535514832e-02,2.133062668144702911e-02,1.731326803565025330e-02,-2.300487831234931946e-02,1.869937218725681305e-02,1.385276485234498978e-02,-1.936872489750385284e-02,-3.166150301694869995e-02,7.779309991747140884e-03,-1.205962374806404114e-01,-2.745674364268779755e-02,-2.055845409631729126e-02,3.899381309747695923e-02,-1.496463362127542496e-02,-1.678481698036193848e-02,1.207114104181528091e-02,-2.982719056308269501e-02,2.214203588664531708e-02,-2.525033056735992432e-02,-1.639548502862453461e-02,5.200107581913471222e-03,2.569005265831947327e-02,8.326257579028606415e-03,3.949885815382003784e-02,5.189996957778930664e-02,5.293556489050388336e-03,3.774211928248405457e-02,9.243704378604888916e-02,6.088011898100376129e-03,-1.048459089361131191e-03,-1.202088431455194950e-03,4.919508472084999084e-03,1.565229296684265137e-01,-2.412925101816654205e-02,-4.275789018720388412e-03,1.590432366356253624e-03,-3.288233280181884766e-02,2.083159424364566803e-02,-1.166075840592384338e-02,-2.891834883484989405e-04,1.467013545334339142e-02,-3.568031638860702515e-02,-2.595260506495833397e-03,2.170923165977001190e-02,4.463766887784004211e-02,4.675702191889286041e-03,-2.055796235799789429e-02,2.559373620897531509e-03,2.552646584808826447e-02,-1.932467520236968994e-02,-2.264789678156375885e-02,-1.137569313868880272e-03,-1.320952735841274261e-02,1.190324779599905014e-02,-9.554873220622539520e-03,6.388554815202951431e-03,4.839283600449562073e-02,1.381459925323724747e-02,7.641956210136413574e-02,2.168140932917594910e-02,-2.575131598860025406e-03,-3.509205207228660583e-02,5.303709767758846283e-04,3.347406163811683655e-02,1.557453162968158722e-02,6.273246556520462036e-02,-1.677978318184614182e-03,4.547229036688804626e-02,5.176755413413047791e-02,5.994202569127082825e-02,-3.925817552953958511e-03,-2.169207483530044556e-02,2.439055219292640686e-02,9.752234071493148804e-02,-9.394848719239234924e-03,-3.648229409009218216e-03,1.536127645522356033e-02,-2.263890579342842102e-02,-1.115785725414752960e-02,2.359873056411743164e-02,-9.813199937343597412e-02,8.086650073528289795e-02,3.293554112315177917e-02,-6.752710789442062378e-02,1.992392912507057190e-02,-2.329505793750286102e-02,-1.793638616800308228e-02,-1.459189504384994507e-02,1.416640728712081909e-02,-1.449947711080312729e-02,-2.800044789910316467e-02,4.668099060654640198e-02,-1.895689591765403748e-02,-5.856795236468315125e-02,-1.547773648053407669e-02,-2.100647985935211182e-02,4.066098481416702271e-02,1.558380760252475739e-02,-1.421703770756721497e-02,-1.407929696142673492e-02,-2.328117005527019501e-02,1.009217090904712677e-02,-1.742285676300525665e-02,3.447661176323890686e-02,-2.706074900925159454e-02,-1.201464422047138214e-02,-2.209019847214221954e-02,-2.067794464528560638e-02,4.848545067943632603e-04,-1.371471583843231201e-02,1.854828596115112305e-01,-1.577629521489143372e-02,-2.644706889986991882e-02,4.948683083057403564e-03,-2.467011101543903351e-02,-1.710267551243305206e-02,-6.182787939906120300e-03,8.416143059730529785e-02,-2.011384442448616028e-02,-2.014518529176712036e-02,2.925908006727695465e-02,-1.826666109263896942e-02,-1.405213586986064911e-02,-2.292050421237945557e-02,-1.543492637574672699e-02,-7.391759660094976425e-03,-1.358000002801418304e-02,-1.712797023355960846e-02,-2.449773810803890228e-02,-3.357758373022079468e-02,-6.415013689547777176e-03,-2.076936326920986176e-02,6.661015748977661133e-02,5.680001154541969299e-02,-1.540955901145935059e-02,5.581759288907051086e-02,3.242812678217887878e-02,1.720275282859802246e-01,-2.263352274894714355e-02,-1.433554384857416153e-02,6.636927835643291473e-03,-1.075732335448265076e-02,-1.966294273734092712e-02,1.909907534718513489e-02,2.814037352800369263e-02,2.380784228444099426e-02,-2.430682443082332611e-02,-1.575289294123649597e-02,8.969516493380069733e-03,-3.754662349820137024e-02,-2.340782247483730316e-02,-2.287590689957141876e-02,-1.569673977792263031e-02,-2.296852134168148041e-02,-4.462625086307525635e-02,9.425082057714462280e-02,-3.441720455884933472e-02,-2.264676429331302643e-02,-2.824828214943408966e-02,7.824838161468505859e-02,8.906392753124237061e-02,-5.807785317301750183e-02,-1.926581375300884247e-02,-1.931641437113285065e-02,-3.972717747092247009e-02,-9.344358742237091064e-02,-1.897976920008659363e-02,2.205285616219043732e-02,-3.490784019231796265e-02,-1.877102628350257874e-02,-2.952297031879425049e-02,-2.844697795808315277e-02,5.125940777361392975e-03,-2.064105682075023651e-02,1.049007102847099304e-01,-3.550131991505622864e-02,-3.609738871455192566e-02,-1.901809871196746826e-02,-3.802832216024398804e-02,-2.595287375152111053e-02,-3.037984482944011688e-02,8.914577215909957886e-02,-3.034934401512145996e-02,-2.751975506544113159e-02,8.858358114957809448e-02,-2.269813418388366699e-02,-1.775397174060344696e-02,-4.032846167683601379e-02,-1.795492693781852722e-02,3.948662802577018738e-02,-2.214320003986358643e-02,-2.084602229297161102e-02,-3.292609751224517822e-02,2.583714760839939117e-02,5.430762190371751785e-03,-2.745623327791690826e-02,8.660986274480819702e-02,2.508636377751827240e-02,-2.285254187881946564e-02,-2.820318192243576050e-02,6.772985309362411499e-02,5.380071699619293213e-02,-3.068261407315731049e-02,-2.939942292869091034e-02,7.314106076955795288e-02,-9.571733884513378143e-03,-5.066999047994613647e-02,2.123282290995121002e-02,-9.720941074192523956e-03,9.182251058518886566e-03,-4.384686052799224854e-02,-1.855680532753467560e-02,-3.737629950046539307e-02
-4.572898149490356445e-02,-2.488238736987113953e-02,-2.197183854877948761e-02,1.598427072167396545e-02,-2.676003426313400269e-02,-4.852081462740898132e-02,1.057623848319053650e-01,-3.900326043367385864e-02,-2.013824693858623505e-02,-2.716573886573314667e-02,6.902378052473068237e-02,-8.219277858734130859e-02,1.478570327162742615e-02,-2.636765129864215851e-02,-2.893264219164848328e-02,-4.184571281075477600e-02,1.124403439462184906e-02,-1.979434490203857422e-02,6.235194858163595200e-03,-5.216902121901512146e-02,-2.952732332050800323e-02,-3.270202502608299255e-02,-4.020136594772338867e-02,5.182055756449699402e-02,-2.904380671679973602e-02,3.037736378610134125e-02,-2.924321219325065613e-02,-4.964772611856460571e-02,-6.472201645374298096e-02,-5.059837922453880310e-02,-3.102056682109832764e-02,-1.408356241881847382e-02,-8.054637163877487183e-02,-3.317264094948768616e-02,-3.994917497038841248e-02,-1.342439800500869751e-01,-3.194981813430786133e-02,-1.378921605646610260e-02,-4.393823817372322083e-02,-3.894757479429244995e-02,6.946957111358642578e-02,-2.926032803952693939e-02,-2.574465051293373108e-02,-4.443515837192535400e-02,3.457910567522048950e-02,-8.971440047025680542e-02,-3.575048595666885376e-02,3.900584578514099121e-02,1.633677817881107330e-02,-3.536248207092285156e-02,-5.102104321122169495e-02,3.389135003089904785e-02,-7.853818684816360474e-02,-4.152753949165344238e-02,-3.452641516923904419e-02,4.023560881614685059e-02,-2.358969487249851227e-02,-2.687502652406692505e-02,1.795447990298271179e-02,-3.764183819293975830e-02,-2.322012186050415039e-02,-4.203841090202331543e-02,-3.535436093807220459e-02,8.112753741443157196e-03,2.944574877619743347e-02,1.653239689767360687e-02,-3.148575499653816223e-02,4.125735908746719360e-02,2.843697322532534599e-03,4.612190648913383484e-02,-4.093584045767784119e-02,1.135600451380014420e-02,-1.161069199442863464e-01,-9.190392680466175079e-03,-6.177183240652084351e-02,-8.140778541564941406e-02,-3.658363968133926392e-02,-8.292360580526292324e-04,9.092732332646846771e-03,-4.845377802848815918e-02,3.370298072695732117e-02,1.983051188290119171e-02,5.612163618206977844e-02,1.840949989855289459e-02,5.710806325078010559e-02,-6.296359933912754059e-03,-1.564486185088753700e-03,3.889698162674903870e-02,6.907532457262277603e-03,2.374005503952503204e-02,6.713152863085269928e-03,3.152083232998847961e-02,-1.191488094627857208e-02,-2.986555732786655426e-02,4.102693405002355576e-03,-1.095406617969274521e-02,-5.242701619863510132e-02,6.334241013973951340e-03,3.102668561041355133e-02,1.332668811082839966e-01,2.200545370578765869e-02,-1.049893070012331009e-02,3.178631886839866638e-02,-1.020938798319548368e-04,-2.329677529633045197e-02,-5.791150033473968506e-04,-1.782371290028095245e-02,1.922388188540935516e-02,-3.647112101316452026e-02,-3.913997486233711243e-02,-2.359999530017375946e-02,6.003831699490547180e-02,-1.583200134336948395e-02,-2.572510391473770142e-03,-6.286414712667465210e-02,3.261515870690345764e-02,7.945656776428222656e-03,-3.254453092813491821e-02,-5.083023104816675186e-03,1.925528515130281448e-03,-5.879660695791244507e-02,4.604122601449489594e-03,3.687339648604393005e-02,3.050280921161174774e-02,-8.613727241754531860e-02,4.344056919217109680e-02,2.321221865713596344e-02,3.147380053997039795e-02,-3.882922604680061340e-02,-2.714657597243785858e-02,2.750006737187504768e-03,1.978706382215023041e-02,-2.417548187077045441e-02,-4.610948637127876282e-02,3.018948063254356384e-02,-3.109776787459850311e-02,-8.226601779460906982e-02,-2.556139975786209106e-02,-6.114205718040466309e-02,4.352556541562080383e-02,2.312063612043857574e-02,-2.343911305069923401e-02,-2.466900832951068878e-02,-3.660912811756134033e-02,1.626510918140411377e-02,-2.695659734308719635e-02,-4.739955812692642212e-02,-4.307511448860168457e-02,-3.079493902623653412e-02,-3.378938138484954834e-02,-3.449241816997528076e-02,1.450880151242017746e-02,-2.278124168515205383e-02,1.397480666637420654e-01,-2.713333070278167725e-02,-4.086415842175483704e-02,-2.552133612334728241e-02,-4.020228981971740723e-02,-3.029302135109901428e-02,-1.392076723277568817e-02,1.594392061233520508e-01,-3.167075291275978088e-02,-3.139727935194969177e-02,2.005202323198318481e-01,-2.883178740739822388e-02,-2.200783230364322662e-02,-3.666662052273750305e-02,-2.610516175627708435e-02,2.152602002024650574e-02,-2.377522177994251251e-02,-2.896792627871036530e-02,-3.833601623773574829e-02,-4.653449729084968567e-02,-7.546444237232208252e-02,-3.679604828357696533e-02,9.673584997653961182e-02,8.058585226535797119e-02,-2.741003222763538361e-02,8.570348471403121948e-02,-3.883882611989974976e-02,1.205472201108932495e-01,-3.529163450002670288e-02,-2.726794034242630005e-02,6.451672874391078949e-03,-2.096024528145790100e-02,-3.087187185883522034e-02,3.028921037912368774e-02,2.006702870130538940e-02,1.915329322218894958e-02,-4.168749973177909851e-02,-2.265000157058238983e-02,1.358432229608297348e-02,-5.763172358274459839e-02,-3.317120671272277832e-02,-4.093690216541290283e-02,-3.981997445225715637e-02,-3.597796708345413208e-02,-6.774769723415374756e-02,1.362426280975341797e-01,-4.498632252216339111e-02,-9.774141013622283936e-03,-4.666548222303390503e-02,1.178451851010322571e-01,1.242074817419052124e-01,-1.075185686349868774e-01,-3.136553242802619934e-02,-3.963921964168548584e-02,-5.026228353381156921e-02,-5.685748159885406494e-02,-2.995485067367553711e-02,3.974997252225875854e-02,-5.236804485321044922e-02,-2.735909633338451385e-02,-5.439760908484458923e-02,-4.493226110935211182e-02,1.818798668682575226e-02,-3.269415348768234253e-02,1.200753599405288696e-01,-5.755609646439552307e-02,-5.188162997364997864e-02,-2.190239913761615753e-02,-5.853355303406715393e-02,-4.180441424250602722e-02,-4.813079535961151123e-02,1.333755552768707275e-01,-4.570482671260833740e-02,-4.075229540467262268e-02,1.224541813135147095e-01,-3.536029905080795288e-02,-2.167505398392677307e-02,-5.132835730910301208e-02,-3.044867888092994690e-02,5.920059978961944580e-02,-3.896803036332130432e-02,-3.135514631867408752e-02,-4.982360079884529114e-02,2.735592611134052277e-02,8.174533955752849579e-03,-5.026802420616149902e-02,9.652512520551681519e-02,6.143972277641296387e-02,-4.126006737351417542e-02,3.440247103571891785e-02,9.977272897958755493e-02,7.325439155101776123e-02,-4.607349261641502380e-02,-2.929813042283058167e-02,1.049973815679550171e-01,-1.952144503593444824e-02,-8.761080913245677948e-03,1.750289276242256165e-02,2.565688686445355415e-03,3.002597019076347351e-02,-6.493306159973144531e-02,-3.444302082061767578e-02,-4.374308511614799500e-02
-1.459691487252712250e-02,-4.999394994229078293e-03,-2.290613250806927681e-03,3.317732829600572586e-03,-7.573218550533056259e-03,-1.400557998567819595e-02,3.894638642668724060e-02,-9.529542177915573120e-03,-1.386817917227745056e-02,-6.073190364986658096e-03,4.879095405340194702e-02,-4.571989178657531738e-03,4.677677527070045471e-03,-7.711427751928567886e-03,-5.391436628997325897e-03,-1.498674228787422180e-02,2.648639725521206856e-03,-4.197328351438045502e-03,-1.663241162896156311e-02,-1.746825501322746277e-02,-4.816938191652297974e-03,-7.862459868192672729e-03,-1.202164590358734131e-02,1.942895725369453430e-02,-4.719641990959644318e-03,-3.978713974356651306e-02,-6.702073384076356888e-03,-1.746325567364692688e-02,-5.418695975095033646e-03,-1.728845760226249695e-02,-6.666835397481918335e-03,-6.063668988645076752e-03,4.868698492646217346e-02,-8.004621602594852448e-03,-9.648457169532775879e-03,-1.106813997030258179e-01,-8.328973315656185150e-03,-3.403070615604519844e-03,-1.336818467825651169e-02,-6.597076542675495148e-03,1.703443937003612518e-02,-5.753214005380868912e-03,-4.236160777509212494e-03,-1.505192834883928299e-02,6.809853948652744293e-03,-8.056789636611938477e-03,-1.168308407068252563e-02,4.927064292132854462e-03,1.681767031550407410e-02,-7.328315638005733490e-03,-2.860329486429691315e-02,-4.517547786235809326e-03,9.219658374786376953e-02,-1.250752713531255722e-02,-7.344768848270177841e-03,1.132305804640054703e-02,-6.241665221750736237e-03,-9.753597900271415710e-03,4.275572020560503006e-03,-1.507144887000322342e-02,3.904855810105800629e-03,-9.010365232825279236e-03,-5.297263152897357941e-03,1.473381649702787399e-03,1.463120803236961365e-02,1.756532583385705948e-03,-7.689961045980453491e-02,1.035520154982805252e-02,3.326396108604967594e-05,2.532212436199188232e-02,1.351091265678405762e-01,-5.889918189495801926e-03,-4.859178140759468079e-02,7.350448518991470337e-03,3.290143609046936035e-02,1.858330070972442627e-01,-8.698034100234508514e-03,-1.225684536620974541e-03,2.745168050751090050e-03,-8.410860784351825714e-03,7.885817438364028931e-03,2.200393006205558777e-02,-7.925567030906677246e-02,6.245460361242294312e-03,9.389236569404602051e-03,-1.292970590293407440e-02,5.411006044596433640e-03,-6.294039636850357056e-02,-1.800643440219573677e-05,-5.568168312311172485e-02,-1.630207756534218788e-03,9.534467011690139771e-03,-4.575498029589653015e-02,-5.754698067903518677e-03,-2.467306330800056458e-03,-5.321973003447055817e-03,-3.464906290173530579e-02,1.956129446625709534e-03,3.916192334145307541e-03,5.503087118268013000e-02,-3.081280272454023361e-03,4.011204582639038563e-04,1.383340102620422840e-03,1.327504985965788364e-03,1.147025525569915771e-01,1.307480153627693653e-03,2.373475814238190651e-03,4.694530740380287170e-03,-5.438876524567604065e-02,3.392942599020898342e-04,1.152424793690443039e-02,9.031126648187637329e-02,1.127857789397239685e-01,4.147321451455354691e-03,2.648608200252056122e-02,2.673385106027126312e-02,-1.337175369262695312e-01,-1.299459300935268402e-02,6.565180141478776932e-03,9.913225471973419189e-02,1.853728480637073517e-02,4.922187421470880508e-03,8.934762328863143921e-03,-6.084104999899864197e-02,5.544872209429740906e-02,1.405612844973802567e-02,2.301198802888393402e-02,7.404033560305833817e-03,-1.100871618837118149e-02,-5.798283964395523071e-03,-3.965125884860754013e-03,5.990368314087390900e-03,-7.146055810153484344e-03,-1.144242845475673676e-02,1.019085869193077087e-01,-8.148439228534698486e-03,-3.670617565512657166e-02,-6.012604106217622757e-03,-8.907663822174072266e-02,1.029423624277114868e-01,7.707212120294570923e-03,-7.322411052882671356e-03,-4.917788784950971603e-03,-1.215742249041795731e-02,4.475708119571208954e-03,-6.058581639081239700e-03,-1.736653037369251251e-03,-1.341677736490964890e-02,-4.775733221322298050e-03,-8.691082708537578583e-03,-8.931986987590789795e-03,1.837639510631561279e-02,-3.991006873548030853e-03,1.276758611202239990e-01,-6.528972648084163666e-03,-1.346028409898281097e-02,-4.669072106480598450e-02,-1.262180600315332413e-02,-5.071579478681087494e-03,-1.069283206015825272e-02,5.194509029388427734e-02,-7.554029114544391632e-03,-7.330199237912893295e-03,9.800570458173751831e-02,-7.819590158760547638e-03,-5.744784139096736908e-03,-1.097229868173599243e-02,-5.052490159869194031e-03,3.508311137557029724e-02,-5.172658246010541916e-03,-3.898461814969778061e-03,-1.136218197643756866e-02,-2.003022283315658569e-02,-3.977719694375991821e-02,-8.982650935649871826e-03,4.799969866871833801e-02,1.679130271077156067e-02,-6.273251026868820190e-03,2.060434035956859589e-02,-6.597854197025299072e-02,-3.093054145574569702e-02,-9.803746826946735382e-03,-6.680298596620559692e-03,1.466805301606655121e-02,-5.541465710848569870e-03,-1.101136486977338791e-02,7.525230757892131805e-03,-1.263883896172046661e-02,-8.492315188050270081e-03,-7.864293642342090607e-03,-4.436100367456674576e-03,3.183277556672692299e-03,-1.901549659669399261e-02,-8.084017783403396606e-03,-1.401623059064149857e-02,-5.973267927765846252e-02,-8.427441120147705078e-03,-2.041016891598701477e-02,4.508181288838386536e-02,-1.332152821123600006e-02,-2.104131504893302917e-02,-8.976093493402004242e-03,3.068576194345951080e-02,3.599788993597030640e-02,-5.796657502651214600e-02,-7.618125528097152710e-03,-7.352476008236408234e-03,-1.869430951774120331e-02,-3.811510652303695679e-02,-7.149630691856145859e-03,5.914269480854272842e-03,-1.876861974596977234e-02,-6.465015001595020294e-03,-1.093101408332586288e-02,-1.317634060978889465e-02,1.120546273887157440e-02,-5.553140770643949509e-03,4.007149860262870789e-02,-1.126118097454309464e-02,-2.122082933783531189e-02,-7.311167661100625992e-03,-2.093353122472763062e-02,-8.043892681598663330e-03,-2.033418230712413788e-02,3.343551978468894958e-02,-1.369256339967250824e-02,-1.019640639424324036e-02,3.497074544429779053e-02,-9.126202203333377838e-03,-7.108623161911964417e-03,-1.753255166113376617e-02,-5.738618317991495132e-03,2.056840248405933380e-02,-6.438392680138349533e-03,-5.233004223555326462e-03,-1.717335544526576996e-02,5.514158867299556732e-03,6.037870422005653381e-03,-1.959490776062011719e-02,2.620653435587882996e-02,-9.992896579205989838e-03,-7.857740856707096100e-03,-3.848614543676376343e-02,6.624323315918445587e-03,6.660003680735826492e-03,-1.424103230237960815e-02,-1.207904145121574402e-02,3.114846535027027130e-02,-3.122825408354401588e-03,-5.284575279802083969e-03,-4.467093851417303085e-03,-2.010001428425312042e-02,-1.480457466095685959e-02,-1.812619529664516449e-02,-5.374909844249486923e-03,-3.156899288296699524e-02
-5.467587616294622421e-04,-9.259957005269825459e-05,1.572433393448591232e-05,-9.689950384199619293e-04,-4.998083459213376045e-04,1.523616141639649868e-03,-1.440753508359193802e-02,1.319238217547535896e-04,-6.736800540238618851e-03,1.553950423840433359e-04,3.460826352238655090e-02,-8.544775843620300293e-02,-3.836849355138838291e-04,-1.005436643026769161e-03,3.309081366751343012e-04,7.901524659246206284e-04,-1.279463758692145348e-03,-7.605042774230241776e-04,3.695751773193478584e-03,-1.124331844039261341e-03,-4.098443605471402407e-05,1.253058551810681820e-03,2.725768717937171459e-04,8.483703248202800751e-03,-5.788201815448701382e-04,-1.479384452104568481e-01,1.730299845803529024e-04,2.388592809438705444e-03,4.791878629475831985e-03,2.747703983914107084e-04,-4.443686339072883129e-04,3.717475919984281063e-04,5.609172210097312927e-02,-6.968267844058573246e-04,-2.529126650188118219e-04,2.196635007858276367e-01,-3.198653867002576590e-04,-1.146615133620798588e-03,6.332715274766087532e-04,-6.803721771575510502e-04,1.114680152386426926e-02,1.319751900155097246e-04,7.012458809185773134e-07,-2.811906160786747932e-04,-5.242142826318740845e-03,2.881099283695220947e-02,2.059980994090437889e-03,-3.288482548668980598e-04,7.488158065825700760e-03,2.103962324326857924e-04,3.954754676669836044e-03,5.644596740603446960e-02,5.728207528591156006e-02,3.839179116766899824e-04,-2.640266611706465483e-04,3.308042651042342186e-03,8.409760630456730723e-05,6.661875522695481777e-04,-4.173922643531113863e-04,-1.990475133061408997e-02,1.062388252466917038e-02,9.151877602562308311e-04,1.259971904801204801e-04,1.208361238241195679e-03,1.781053433660417795e-04,1.667587930569425225e-04,4.197891801595687866e-03,6.293536280281841755e-04,2.213919535279273987e-03,5.685031646862626076e-04,-1.933415532112121582e-01,6.184022407978773117e-03,1.499333512037992477e-02,-6.489703897386789322e-03,-9.834595024585723877e-02,1.309241168200969696e-02,-2.117486670613288879e-03,-3.142354311421513557e-03,-7.891318760812282562e-03,-1.964484108611941338e-04,-1.193472184240818024e-03,-2.922694431617856026e-03,-1.601921766996383667e-02,-2.751094289124011993e-03,-1.415120996534824371e-02,-1.587720238603651524e-03,-7.535404874943196774e-04,7.116953283548355103e-02,6.742685101926326752e-03,-8.402400463819503784e-02,8.232551626861095428e-03,-7.178850355558097363e-04,-1.241473248228430748e-03,7.673071231693029404e-04,-2.203064272180199623e-03,-8.085355162620544434e-03,-3.698138296604156494e-01,1.539823715575039387e-03,5.838223267346620560e-03,-3.058356344699859619e-01,7.304932456463575363e-03,4.222313582431524992e-04,-2.991126093547791243e-04,-7.503265514969825745e-03,1.668507456779479980e-01,2.915847813710570335e-03,1.030769757926464081e-02,-1.489384216256439686e-03,-9.665142744779586792e-03,-9.456390887498855591e-02,2.155651105567812920e-03,-9.217078238725662231e-02,1.542435493320226669e-02,-6.685311091132462025e-04,-2.006843686103820801e-02,-2.594133317470550537e-01,-3.063819184899330139e-02,-8.761673816479742527e-04,-5.071859341114759445e-03,5.892350804060697556e-03,-2.735839225351810455e-03,-2.727896207943558693e-03,-2.700777549762278795e-04,2.126326225697994232e-02,6.875486671924591064e-02,5.485255387611687183e-04,2.227586694061756134e-03,6.362124695442616940e-04,-3.382440190762281418e-04,-8.366010297322645783e-05,-1.355594285996630788e-04,-8.975769742392003536e-04,-2.839876106008887291e-04,8.277056040242314339e-04,-1.371729075908660889e-01,-4.830293983104638755e-05,-2.651942428201436996e-03,9.138826862908899784e-05,7.667754590511322021e-02,-2.793378941714763641e-02,1.532246591523289680e-03,-6.348174647428095341e-04,2.297531173098832369e-04,4.653150099329650402e-04,-1.571987289935350418e-03,-5.789694841951131821e-04,1.119986336561851203e-04,2.728616527747362852e-05,-8.361598593182861805e-04,8.626947528682649136e-04,1.921331568155437708e-04,-1.597165502607822418e-02,1.035743480315431952e-05,-1.021285876631736755e-01,4.400616744533181190e-04,1.535668852739036083e-03,3.304036101326346397e-03,5.454734782688319683e-04,-3.391639620531350374e-04,-6.319702952168881893e-04,2.672513574361801147e-02,-8.150874637067317963e-04,-1.879326155176386237e-04,6.829356309026479721e-03,-1.447364484192803502e-04,-1.232140930369496346e-03,4.558444779831916094e-04,-1.921649381984025240e-04,1.164894364774227142e-02,1.320765732089057565e-04,-1.049678103299811482e-04,-2.775782195385545492e-05,-6.218400318175554276e-03,1.768136210739612579e-02,1.356840832158923149e-03,1.615109969861805439e-03,1.352687366306781769e-03,4.953105963068082929e-05,1.101560238748788834e-02,4.916129261255264282e-02,2.644831693032756448e-05,2.774412860162556171e-04,-2.067740133497864008e-04,1.255503040738403797e-03,7.990103767951950431e-05,4.328720096964389086e-04,-3.160417327308095992e-05,-1.466174330562353134e-02,1.891390979290008545e-02,5.425192648544907570e-04,-6.205627869348973036e-05,7.223701104521751404e-04,-1.051375176757574081e-03,-2.289937256136909127e-04,3.441681037656962872e-04,-6.964189931750297546e-03,-6.191944121383130550e-04,1.132478355430066586e-03,8.758980548009276390e-04,1.742321182973682880e-04,-7.321608718484640121e-03,-6.283179391175508499e-04,6.729883141815662384e-03,6.280086003243923187e-03,2.474072971381247044e-04,-1.212890376336872578e-03,5.777271871920675039e-05,3.288346342742443085e-04,-4.419211763888597488e-03,-4.589130694512277842e-04,3.292685840278863907e-03,-2.490967279300093651e-03,4.320518928579986095e-05,-1.189711270853877068e-03,7.026043022051453590e-05,1.847924105823040009e-02,-7.509143324568867683e-04,-3.111998084932565689e-03,-6.967505323700606823e-04,1.189686008729040623e-03,4.276714287698268890e-03,1.244981540367007256e-04,-5.871467874385416508e-04,-6.993542890995740891e-03,1.090959738940000534e-02,-1.408616313710808754e-03,-2.358488272875547409e-04,7.404780946671962738e-03,-3.929834056179970503e-04,-1.657172921113669872e-03,-4.055340832564979792e-04,-3.183632798027247190e-04,1.251006871461868286e-02,1.542133104521781206e-04,-3.497335274005308747e-05,-7.339447038248181343e-04,-4.084122832864522934e-03,4.689941648393869400e-03,2.571358578279614449e-03,1.723406463861465454e-02,1.337184477597475052e-02,2.394701587036252022e-04,2.003714628517627716e-02,2.238752879202365875e-02,-2.021689433604478836e-03,4.725845356006175280e-04,-3.327813174109905958e-04,-2.498964022379368544e-05,-7.149424345698207617e-05,-3.960198955610394478e-05,-3.876787377521395683e-03,-1.760030165314674377e-02,1.014683302491903305e-02,1.338889007456600666e-03,-1.191108185594202951e-05,-3.975811414420604706e-03
